{"learner":{"attributes":{"scikit_learn":"{\"_estimator_type\": \"classifier\"}"},"feature_names":["dist_close_ema9_pct","dist_ema9_ema21_pct","dist_close_kama9_pct","rsi14","rsi_below_30","rsi_above_70","tsi","tsi_signal","tsi_above_0","tsi_below_0","dist_close_boll_upper_pct","dist_close_boll_mid_pct","dist_close_boll_lower_pct","dist_close_donchian_upper_pct","dist_close_donchian_mid_pct","dist_close_donchian_lower_pct","retest_volume","retest_volume_ratio_avg","setup_dist_close_level_pct","setup_break_strength_pct","setup_candles_since_break","setup_level_age_candles","setup_retest_wick_pct"],"feature_types":["float","float","float","float","float","float","float","float","float","float","float","float","float","float","float","float","float","float","float","float","float","float","float"],"gradient_booster":{"model":{"cats":{"enc":[],"feature_segments":[],"sorted_idx":[]},"gbtree_model_param":{"num_parallel_tree":"1","num_trees":"300"},"iteration_indptr":[0,1,2,3,4,5,6,7,8,9,10,11,12,13,14,15,16,17,18,19,20,21,22,23,24,25,26,27,28,29,30,31,32,33,34,35,36,37,38,39,40,41,42,43,44,45,46,47,48,49,50,51,52,53,54,55,56,57,58,59,60,61,62,63,64,65,66,67,68,69,70,71,72,73,74,75,76,77,78,79,80,81,82,83,84,85,86,87,88,89,90,91,92,93,94,95,96,97,98,99,100,101,102,103,104,105,106,107,108,109,110,111,112,113,114,115,116,117,118,119,120,121,122,123,124,125,126,127,128,129,130,131,132,133,134,135,136,137,138,139,140,141,142,143,144,145,146,147,148,149,150,151,152,153,154,155,156,157,158,159,160,161,162,163,164,165,166,167,168,169,170,171,172,173,174,175,176,177,178,179,180,181,182,183,184,185,186,187,188,189,190,191,192,193,194,195,196,197,198,199,200,201,202,203,204,205,206,207,208,209,210,211,212,213,214,215,216,217,218,219,220,221,222,223,224,225,226,227,228,229,230,231,232,233,234,235,236,237,238,239,240,241,242,243,244,245,246,247,248,249,250,251,252,253,254,255,256,257,258,259,260,261,262,263,264,265,266,267,268,269,270,271,272,273,274,275,276,277,278,279,280,281,282,283,284,285,286,287,288,289,290,291,292,293,294,295,296,297,298,299,300],"tree_info":[0,0,0,0,0,0,0,0,0,0,0,0,0,0,0,0,0,0,0,0,0,0,0,0,0,0,0,0,0,0,0,0,0,0,0,0,0,0,0,0,0,0,0,0,0,0,0,0,0,0,0,0,0,0,0,0,0,0,0,0,0,0,0,0,0,0,0,0,0,0,0,0,0,0,0,0,0,0,0,0,0,0,0,0,0,0,0,0,0,0,0,0,0,0,0,0,0,0,0,0,0,0,0,0,0,0,0,0,0,0,0,0,0,0,0,0,0,0,0,0,0,0,0,0,0,0,0,0,0,0,0,0,0,0,0,0,0,0,0,0,0,0,0,0,0,0,0,0,0,0,0,0,0,0,0,0,0,0,0,0,0,0,0,0,0,0,0,0,0,0,0,0,0,0,0,0,0,0,0,0,0,0,0,0,0,0,0,0,0,0,0,0,0,0,0,0,0,0,0,0,0,0,0,0,0,0,0,0,0,0,0,0,0,0,0,0,0,0,0,0,0,0,0,0,0,0,0,0,0,0,0,0,0,0,0,0,0,0,0,0,0,0,0,0,0,0,0,0,0,0,0,0,0,0,0,0,0,0,0,0,0,0,0,0,0,0,0,0,0,0,0,0,0,0,0,0,0,0,0,0,0,0,0,0,0,0,0,0,0,0,0,0,0,0,0,0,0,0,0,0],"trees":[{"base_weights":[-2.105763E-3,-1.9854794E-1,1.04514085E-1,-2.6348877E-1,2.1482108E-2,3.9743025E-2,2.2768652E-1,-1.5903817E-1,-3.626422E-1,-5.2733594E-1,4.7934618E-2,-1.199114E-2,1.5780781E-1,9.8272043E-1,2.1959685E-1,-1.9363987E-1,1.8414553E-1,-9.186003E-2,-4.194442E-1,-9.154711E-1,-2.1729395E-1,-1.1241301E-2,2.36194E-1,-2.810336E-2,2.8386852E-1,1.623083E-1,-1.076527E0,1.2091329E0,-2.647294E-1,2.2341272E-1,-4.477534E-1,-8.319308E-3,-3.1060393E-3,1.1282851E-2,-2.8814983E-3,-3.745498E-3,2.2858163E-2,-1.4556404E-2,-6.6664377E-3,-4.8541386E-2,-1.6850712E-2,-9.439234E-3,2.5477745E-2,-1.5925191E-2,2.6754494E-4,1.5739167E-2,7.6788414E-4,-2.0218098E-3,2.2266652E-3,-2.950483E-2,9.106603E-3,4.6443027E-3,2.213114E-2,-3.8264124E-3,-4.694309E-2,3.8364504E-2,-5.927756E-3,-4.628157E-2,2.1839919E-2,3.07528E-3,7.199084E-3,-3.0257996E-2,-4.3976045E-4],"categories":[],"categories_nodes":[],"categories_segments":[],"categories_sizes":[],"default_left":[0,0,0,0,0,0,0,0,0,0,0,0,0,0,0,0,0,0,0,0,0,0,0,0,0,0,0,0,0,0,0,0,0,0,0,0,0,0,0,0,0,0,0,0,0,0,0,0,0,0,0,0,0,0,0,0,0,0,0,0,0,0,0],"id":0,"left_children":[1,3,5,7,9,11,13,15,17,19,21,23,25,27,29,31,33,35,37,39,41,43,45,47,49,51,53,55,57,59,61,-1,-1,-1,-1,-1,-1,-1,-1,-1,-1,-1,-1,-1,-1,-1,-1,-1,-1,-1,-1,-1,-1,-1,-1,-1,-1,-1,-1,-1,-1,-1,-1],"loss_changes":[4.636782E2,1.1129404E2,1.144742E2,6.222336E1,2.580563E1,5.7451565E1,2.998935E1,3.483306E1,4.7400513E1,9.637442E0,1.8886324E1,3.118811E1,1.6094444E1,1.5044983E1,1.2562881E1,2.0043968E1,1.4498899E1,1.5194802E1,3.295926E1,8.036013E0,5.1213093E0,1.3523838E1,2.4614822E1,2.4947512E1,8.728546E0,1.2208885E1,4.6848364E0,4.5958023E0,1.2324744E1,9.717758E0,6.8247323E0,0E0,0E0,0E0,0E0,0E0,0E0,0E0,0E0,0E0,0E0,0E0,0E0,0E0,0E0,0E0,0E0,0E0,0E0,0E0,0E0,0E0,0E0,0E0,0E0,0E0,0E0,0E0,0E0,0E0,0E0,0E0,0E0],"parents":[2147483647,0,0,1,1,2,2,3,3,4,4,5,5,6,6,7,7,8,8,9,9,10,10,11,11,12,12,13,13,14,14,15,15,16,16,17,17,18,18,19,19,20,20,21,21,22,22,23,23,24,24,25,25,26,26,27,27,28,28,29,29,30,30],"right_children":[2,4,6,8,10,12,14,16,18,20,22,24,26,28,30,32,34,36,38,40,42,44,46,48,50,52,54,56,58,60,62,-1,-1,-1,-1,-1,-1,-1,-1,-1,-1,-1,-1,-1,-1,-1,-1,-1,-1,-1,-1,-1,-1,-1,-1,-1,-1,-1,-1,-1,-1,-1,-1],"split_conditions":[-7.500272E-1,2.3345041E0,-5.540166E-2,1.0370705E0,2.2E1,1.48E2,5.696151E-2,1.94E2,5.3368914E-1,2.85435E6,8E0,4.4530205E-2,-8.372093E-1,2.1E2,3.0718954E0,-1.0922291E0,7.54717E-1,4.279661E0,-9.3929857E-1,7.2202164E-1,7.2793503E0,-5.711793E1,5.9713376E-1,-2.8631284E0,-1.2575709E1,6.355373E8,1.0351967E-1,1.6046213E-2,-1.1274081E-2,1.262854E-1,2.3124123E1,-8.319308E-3,-3.1060393E-3,1.1282851E-2,-2.8814983E-3,-3.745498E-3,2.2858163E-2,-1.4556404E-2,-6.6664377E-3,-4.8541386E-2,-1.6850712E-2,-9.439234E-3,2.5477745E-2,-1.5925191E-2,2.6754494E-4,1.5739167E-2,7.6788414E-4,-2.0218098E-3,2.2266652E-3,-2.950483E-2,9.106603E-3,4.6443027E-3,2.213114E-2,-3.8264124E-3,-4.694309E-2,3.8364504E-2,-5.927756E-3,-4.628157E-2,2.1839919E-2,3.07528E-3,7.199084E-3,-3.0257996E-2,-4.3976045E-4],"split_indices":[1,12,14,17,21,21,15,21,22,16,20,11,13,21,22,1,22,15,1,19,12,7,22,13,6,16,22,19,0,14,7,0,0,0,0,0,0,0,0,0,0,0,0,0,0,0,0,0,0,0,0,0,0,0,0,0,0,0,0,0,0,0,0],"split_type":[0,0,0,0,0,0,0,0,0,0,0,0,0,0,0,0,0,0,0,0,0,0,0,0,0,0,0,0,0,0,0,0,0,0,0,0,0,0,0,0,0,0,0,0,0,0,0,0,0,0,0,0,0,0,0,0,0,0,0,0,0,0,0],"sum_hessian":[2.213629E4,7.7874346E3,1.43488545E4,6.012636E3,1.7747982E3,9.404669E3,4.9441855E3,2.929371E3,3.0832654E3,8.073937E1,1.6940588E3,6.539889E3,2.8647795E3,5.1134933E1,4.8930503E3,2.6614631E3,2.679079E2,5.3508185E2,2.5481833E3,3.498706E1,4.575231E1,1.2896279E3,4.0443085E2,6.202986E3,3.3690338E2,2.8552378E3,9.541925E0,4.3305664E1,7.8292723E0,4.8658926E3,2.7157787E1,1.3789305E3,1.2825327E3,1.5878743E2,1.0912048E2,5.15998E2,1.908385E1,1.9098531E3,6.383304E2,1.0520585E1,2.4466476E1,4.2571667E1,3.180642E0,4.72203E1,1.2424076E3,1.70042E2,2.3438884E2,4.4822583E3,1.7207273E3,4.4039655E0,3.3249942E2,2.8197612E3,3.547639E1,3.6699715E0,5.871954E0,4.1348343E1,1.9573181E0,3.180642E0,4.6486306E0,5.8695074E2,4.278942E3,1.1254579E1,1.590321E1],"tree_param":{"num_deleted":"0","num_feature":"23","num_nodes":"63","size_leaf_vector":"1"}},{"base_weights":[-2.569411E-3,-1.910859E-1,1.0586781E-1,-2.605286E-1,5.0638124E-2,4.4722665E-2,2.2482397E-1,-3.8415784E-1,-1.7046736E-1,-2.9735082E-1,7.3985174E-2,7.474076E-4,1.4201328E-1,1.2653794E0,2.1769471E-1,-5.5264115E-1,-3.026932E-1,-2.2518149E-1,2.1063093E-2,-4.382679E-1,4.372953E-1,3.1215567E-2,2.1287452E-1,-1.7977698E-2,2.0274626E-1,1.5107223E-1,-6.258066E-1,8.298721E-1,4.459077E-2,7.8539896E-1,2.1264601E-1,-1.4843727E-2,-2.8978596E-2,-1.942842E-2,-7.1525895E-3,-1.7324854E-2,-6.007297E-3,2.5658743E-3,-3.45172E-3,1.243564E-2,-1.6027866E-2,-7.883799E-3,3.0437257E-2,-4.437616E-3,2.381227E-3,1.3139938E-2,1.414966E-3,2.3490915E-3,-1.7688053E-3,3.583985E-2,5.4855617E-3,2.7762305E-3,7.3082973E-3,-2.6920633E-2,-1.0066589E-3,3.401074E-2,-9.360899E-4,-9.834383E-3,3.1293236E-2,2.07601E-3,7.0031756E-3],"categories":[],"categories_nodes":[],"categories_segments":[],"categories_sizes":[],"default_left":[0,0,0,0,0,0,0,0,0,0,0,0,0,0,0,0,0,0,0,0,0,0,0,0,0,0,0,0,0,0,0,0,0,0,0,0,0,0,0,0,0,0,0,0,0,0,0,0,0,0,0,0,0,0,0,0,0,0,0,0,0],"id":1,"left_children":[1,3,5,7,9,11,13,15,17,19,21,23,25,27,29,31,33,35,37,39,41,43,45,47,49,51,53,55,-1,57,59,-1,-1,-1,-1,-1,-1,-1,-1,-1,-1,-1,-1,-1,-1,-1,-1,-1,-1,-1,-1,-1,-1,-1,-1,-1,-1,-1,-1,-1,-1],"loss_changes":[4.5441513E2,1.3627078E2,1.0263426E2,7.0146515E1,1.4746679E1,3.9883427E1,3.526454E1,3.6299805E1,3.8255455E1,1.2008834E1,1.0087178E1,2.4291498E1,2.0279232E1,1.8839111E0,1.347435E1,2.0198181E1,3.9598587E1,2.482927E1,7.1347413E0,8.102964E0,7.8937716E0,1.1229674E1,1.48973255E1,2.3195698E1,1.0532751E1,1.5516304E1,5.443205E0,3.4802017E0,0E0,1.2271212E1,1.405864E1,0E0,0E0,0E0,0E0,0E0,0E0,0E0,0E0,0E0,0E0,0E0,0E0,0E0,0E0,0E0,0E0,0E0,0E0,0E0,0E0,0E0,0E0,0E0,0E0,0E0,0E0,0E0,0E0,0E0,0E0],"parents":[2147483647,0,0,1,1,2,2,3,3,4,4,5,5,6,6,7,7,8,8,9,9,10,10,11,11,12,12,13,13,14,14,15,15,16,16,17,17,18,18,19,19,20,20,21,21,22,22,23,23,24,24,25,25,26,26,27,27,29,29,30,30],"right_children":[2,4,6,8,10,12,14,16,18,20,22,24,26,28,30,32,34,36,38,40,42,44,46,48,50,52,54,56,-1,58,60,-1,-1,-1,-1,-1,-1,-1,-1,-1,-1,-1,-1,-1,-1,-1,-1,-1,-1,-1,-1,-1,-1,-1,-1,-1,-1,-1,-1,-1,-1],"split_conditions":[-7.273685E-1,-9.294723E-1,-1.1362345E-2,3.2165977E1,2.3E1,1.48E2,7.75108E-2,4.9E1,1.36E2,-2.3173976E-1,8E0,4.8708786E1,-6.7731386E-1,-4.884198E-3,-1.1318465E0,6.8550384E-1,-5.599591E0,1.7E1,1.0370705E0,4.6260354E-1,-1.3817316E0,-1.6136668E0,-5.272109E0,1.5071724E-1,3.7E1,3.05611E6,-1.1274081E-2,4.5922985E1,4.459077E-2,4.5E1,1.768057E-1,-1.4843727E-2,-2.8978596E-2,-1.942842E-2,-7.1525895E-3,-1.7324854E-2,-6.007297E-3,2.5658743E-3,-3.45172E-3,1.243564E-2,-1.6027866E-2,-7.883799E-3,3.0437257E-2,-4.437616E-3,2.381227E-3,1.3139938E-2,1.414966E-3,2.3490915E-3,-1.7688053E-3,3.583985E-2,5.4855617E-3,2.7762305E-3,7.3082973E-3,-2.6920633E-2,-1.0066589E-3,3.401074E-2,-9.360899E-4,-9.834383E-3,3.1293236E-2,2.07601E-3,7.0031756E-3],"split_indices":[1,2,14,3,21,21,15,21,21,14,20,3,10,2,11,12,14,21,17,12,1,1,13,12,21,16,0,3,0,21,14,0,0,0,0,0,0,0,0,0,0,0,0,0,0,0,0,0,0,0,0,0,0,0,0,0,0,0,0,0,0],"split_type":[0,0,0,0,0,0,0,0,0,0,0,0,0,0,0,0,0,0,0,0,0,0,0,0,0,0,0,0,0,0,0,0,0,0,0,0,0,0,0,0,0,0,0,0,0,0,0,0,0,0,0,0,0,0,0,0,0,0,0,0,0],"sum_hessian":[2.2227271E4,8.1163516E3,1.4110919E4,6.304975E3,1.8113766E3,9.321111E3,4.7898076E3,2.6558967E3,3.6490784E3,1.1314899E2,1.6982277E3,6.420197E3,2.9009146E3,3.1392515E1,4.758415E3,8.637417E2,1.792155E3,2.8381375E3,8.10941E2,9.527678E1,1.7872208E1,1.299335E3,3.9889264E2,5.8763735E3,5.4382336E2,2.8678816E3,3.3032825E1,1.2167735E1,1.922478E1,4.058212E1,4.7178325E3,7.596171E2,1.0412453E2,2.8007422E2,1.5120808E3,1.8615054E2,2.6519868E3,5.5056665E2,2.6037433E2,9.304023E0,8.5972755E1,8.323169E0,9.549039E0,2.7486105E2,1.024474E3,1.6842975E2,2.3046288E2,1.7542283E3,4.1221455E3,9.531595E0,5.3429175E2,1.7579542E3,1.1099275E3,2.2295265E1,1.0737558E1,8.760208E0,3.4075272E0,7.5775876E0,3.300453E1,5.978412E2,4.1199917E3],"tree_param":{"num_deleted":"0","num_feature":"23","num_nodes":"61","size_leaf_vector":"1"}},{"base_weights":[1.7692173E-3,-1.630559E-1,1.1356842E-1,-2.710831E-1,-4.4028472E-2,4.2356394E-2,2.1712586E-1,-4.6891326E-1,-1.8204097E-1,-3.2525608E-1,-1.4454579E-2,2.168363E-2,3.193211E-1,5.992951E-1,2.1022819E-1,-3.0833513E-1,-6.7963463E-1,2.7477764E-2,-2.8093717E-1,-5.2451443E-2,-4.6117076E-1,-5.1690467E-2,1.541113E-1,-2.366687E-3,2.8128326E-1,9.8838145E-1,2.7181992E-1,-5.6141657E-1,6.818835E-1,1.1226695E0,2.078822E-1,-1.5059999E-2,-4.77016E-3,-5.237677E-3,-2.2693573E-2,2.4846338E-3,-1.2641892E-2,-1.0457241E-2,-1.522189E-3,2.1674926E-3,-1.5948562E-2,-1.8144425E-2,-1.4536129E-3,-2.7113731E-3,2.8880793E-3,7.4275252E-3,-4.5935563E-3,3.1928767E-3,-1.301124E-3,1.1986033E-2,7.718542E-4,3.4703333E-2,-1.3968149E-2,5.392917E-3,1.5227319E-2,-4.162639E-2,6.2723113E-3,-1.5295711E-2,2.1640617E-2,3.9273556E-2,-1.2071052E-2,8.748388E-3,5.558104E-3],"categories":[],"categories_nodes":[],"categories_segments":[],"categories_sizes":[],"default_left":[0,0,0,0,0,0,0,0,0,0,0,0,0,0,0,0,0,0,0,0,0,0,0,0,0,0,0,0,0,0,0,0,0,0,0,0,0,0,0,0,0,0,0,0,0,0,0,0,0,0,0,0,0,0,0,0,0,0,0,0,0,0,0],"id":2,"left_children":[1,3,5,7,9,11,13,15,17,19,21,23,25,27,29,31,33,35,37,39,41,43,45,47,49,51,53,55,57,59,61,-1,-1,-1,-1,-1,-1,-1,-1,-1,-1,-1,-1,-1,-1,-1,-1,-1,-1,-1,-1,-1,-1,-1,-1,-1,-1,-1,-1,-1,-1,-1,-1],"loss_changes":[4.0893457E2,1.1531227E2,9.750305E1,8.273312E1,3.5495506E1,4.48606E1,1.407605E1,4.9147858E1,6.722243E1,1.5033508E1,2.4256664E1,4.5534554E1,1.702678E1,9.487194E0,1.1098053E1,2.3913902E1,2.431009E1,2.5897755E1,3.429506E1,8.175191E0,1.6032677E1,1.8126583E1,2.011842E1,2.9785372E1,1.8676868E1,9.278667E0,1.0966557E1,4.654959E0,4.5597267E0,4.3222504E0,9.945084E0,0E0,0E0,0E0,0E0,0E0,0E0,0E0,0E0,0E0,0E0,0E0,0E0,0E0,0E0,0E0,0E0,0E0,0E0,0E0,0E0,0E0,0E0,0E0,0E0,0E0,0E0,0E0,0E0,0E0,0E0,0E0,0E0],"parents":[2147483647,0,0,1,1,2,2,3,3,4,4,5,5,6,6,7,7,8,8,9,9,10,10,11,11,12,12,13,13,14,14,15,15,16,16,17,17,18,18,19,19,20,20,21,21,22,22,23,23,24,24,25,25,26,26,27,27,28,28,29,29,30,30],"right_children":[2,4,6,8,10,12,14,16,18,20,22,24,26,28,30,32,34,36,38,40,42,44,46,48,50,52,54,56,58,60,62,-1,-1,-1,-1,-1,-1,-1,-1,-1,-1,-1,-1,-1,-1,-1,-1,-1,-1,-1,-1,-1,-1,-1,-1,-1,-1,-1,-1,-1,-1,-1,-1],"split_conditions":[-6.536005E-1,3.529832E1,4.772361E1,4.3E1,2.2E1,-1.3647902E0,3.8E1,9.567095E-3,6.42072E-1,-2.7941678E0,6E0,2.05E2,1.3490725E-2,3.168967E-1,1.912046E-1,-1.1035975E0,-4.7283034E0,1.1976048E0,-9.3929857E-1,2.9003081E0,-7.7874297E-1,1.55E2,2.4752476E0,1.5071724E-1,-1.1846577E-1,2.09E2,2.285565E6,3.3E1,-4.743968E0,1.6046213E-2,-2.8863683E0,-1.5059999E-2,-4.77016E-3,-5.237677E-3,-2.2693573E-2,2.4846338E-3,-1.2641892E-2,-1.0457241E-2,-1.522189E-3,2.1674926E-3,-1.5948562E-2,-1.8144425E-2,-1.4536129E-3,-2.7113731E-3,2.8880793E-3,7.4275252E-3,-4.5935563E-3,3.1928767E-3,-1.301124E-3,1.1986033E-2,7.718542E-4,3.4703333E-2,-1.3968149E-2,5.392917E-3,1.5227319E-2,-4.162639E-2,6.2723113E-3,-1.5295711E-2,2.1640617E-2,3.9273556E-2,-1.2071052E-2,8.748388E-3,5.558104E-3],"split_indices":[1,3,3,21,21,10,21,12,22,11,20,21,18,17,15,1,14,19,1,15,1,21,19,12,1,21,16,21,10,19,10,0,0,0,0,0,0,0,0,0,0,0,0,0,0,0,0,0,0,0,0,0,0,0,0,0,0,0,0,0,0,0,0],"split_type":[0,0,0,0,0,0,0,0,0,0,0,0,0,0,0,0,0,0,0,0,0,0,0,0,0,0,0,0,0,0,0,0,0,0,0,0,0,0,0,0,0,0,0,0,0,0,0,0,0,0,0,0,0,0,0,0,0,0,0,0,0,0,0],"sum_hessian":[2.2189756E4,8.967924E3,1.3221833E4,4.7005293E3,4.2673945E3,7.835265E3,5.3865674E3,1.4576702E3,3.242859E3,4.0510675E2,3.8622876E3,7.292061E3,5.432043E2,9.3974434E1,5.2925933E3,8.286607E2,6.2900946E2,1.0400852E3,2.2027737E3,1.3517424E2,2.699325E2,3.1640486E3,6.982391E2,6.674683E3,6.173776E2,3.4696194E1,5.085081E2,5.8572893E0,8.811714E1,1.2348366E1,5.2802446E3,3.5974634E2,4.6891437E2,8.3474174E1,5.455353E2,9.266505E2,1.1343471E2,1.7021323E3,5.0064136E2,1.0793408E2,2.7240158E1,1.9989494E2,7.003755E1,2.5085105E3,6.55538E2,5.3550806E2,1.6273103E2,1.8265956E3,4.848088E3,4.2168893E2,1.9568872E2,3.1278072E1,3.4181216E0,3.6697723E2,1.4153085E2,2.440119E0,3.4171705E0,2.4428277E0,8.567432E1,1.1129295E1,1.2190707E0,1.1202284E3,4.160016E3],"tree_param":{"num_deleted":"0","num_feature":"23","num_nodes":"63","size_leaf_vector":"1"}},{"base_weights":[1.3680398E-3,-1.7963292E-1,1.0497574E-1,-2.4170636E-1,3.6072195E-2,4.0433936E-2,2.2456987E-1,-2.1030603E-1,-5.845941E-1,-1.4506343E-2,1.7559779E-1,-2.6063194E-2,9.123771E-2,9.858394E-1,2.1731195E-1,-2.8917164E-1,-1.20821424E-1,-3.9884588E-1,-8.0566293E-1,-1.0180472E-1,4.9206264E-2,2.3188971E-1,-2.916321E-1,8.6295396E-2,-6.0433336E-2,3.089797E-1,5.0672177E-2,1.0989784E0,-6.2009484E-1,1.5181567E-1,2.5873494E-1,-6.1118295E-3,-1.1345726E-2,4.8474804E-3,-4.6003624E-3,-1.9471511E-2,-3.318585E-3,-1.56642E-2,-3.243375E-2,1.0553483E-2,-4.4384473E-3,-5.5128313E-3,3.8265216E-3,5.8987043E-3,2.9107362E-2,-1.4857033E-2,2.0887237E-2,-3.477535E-2,3.1445797E-3,-2.583523E-3,4.219187E-3,-1.1750845E-2,9.940598E-3,-7.322153E-4,3.5283277E-3,1.903989E-2,3.8624644E-2,-5.169835E-3,-2.515439E-2,8.442777E-3,2.960182E-3,1.9050267E-2,7.280663E-3],"categories":[],"categories_nodes":[],"categories_segments":[],"categories_sizes":[],"default_left":[0,0,0,0,0,0,0,0,0,0,0,0,0,0,0,0,0,0,0,0,0,0,0,0,0,0,0,0,0,0,0,0,0,0,0,0,0,0,0,0,0,0,0,0,0,0,0,0,0,0,0,0,0,0,0,0,0,0,0,0,0,0,0],"id":3,"left_children":[1,3,5,7,9,11,13,15,17,19,21,23,25,27,29,31,33,35,37,39,41,43,45,47,49,51,53,55,57,59,61,-1,-1,-1,-1,-1,-1,-1,-1,-1,-1,-1,-1,-1,-1,-1,-1,-1,-1,-1,-1,-1,-1,-1,-1,-1,-1,-1,-1,-1,-1,-1,-1],"loss_changes":[4.1576465E2,1.080737E2,1.088233E2,6.735712E1,1.2736271E1,3.0943441E1,2.7090744E1,4.049626E1,2.1246445E1,7.3761044E0,1.2696245E1,1.5326802E1,4.584664E1,9.109852E0,1.3245087E1,2.313704E1,2.475224E1,2.065411E1,1.8088547E1,1.1761648E1,1.4018777E1,1.0982073E1,1.0818128E1,2.1572256E1,1.5705234E1,1.2909592E1,2.2005695E1,3.0074615E0,2.1655536E-1,1.3055233E1,1.7947357E1,0E0,0E0,0E0,0E0,0E0,0E0,0E0,0E0,0E0,0E0,0E0,0E0,0E0,0E0,0E0,0E0,0E0,0E0,0E0,0E0,0E0,0E0,0E0,0E0,0E0,0E0,0E0,0E0,0E0,0E0,0E0,0E0],"parents":[2147483647,0,0,1,1,2,2,3,3,4,4,5,5,6,6,7,7,8,8,9,9,10,10,11,11,12,12,13,13,14,14,15,15,16,16,17,17,18,18,19,19,20,20,21,21,22,22,23,23,24,24,25,25,26,26,27,27,28,28,29,29,30,30],"right_children":[2,4,6,8,10,12,14,16,18,20,22,24,26,28,30,32,34,36,38,40,42,44,46,48,50,52,54,56,58,60,62,-1,-1,-1,-1,-1,-1,-1,-1,-1,-1,-1,-1,-1,-1,-1,-1,-1,-1,-1,-1,-1,-1,-1,-1,-1,-1,-1,-1,-1,-1,-1,-1],"split_conditions":[-7.273685E-1,2.3345041E0,-5.540166E-2,2.6077096E0,-1.0594848E0,-1.3955985E0,3.2605153E-2,-1.0594848E0,-1.3493598E0,3.4989586E0,-2.327396E0,-2.3044714E-1,1.5071724E-1,1.6046213E-2,3.3672173E0,1.0238595E0,4.8113272E-1,7.7735233E-1,1.9387593E0,1.846757E-1,-4.6291876E0,-2.3780165E0,1.8069179E0,-5.4024854E0,-8.9254975E-1,-6.8052226E-1,-5.051255E-1,-1.3655339E-2,-2.6888503E-3,5.592751E-1,1.8807379E0,-6.1118295E-3,-1.1345726E-2,4.8474804E-3,-4.6003624E-3,-1.9471511E-2,-3.318585E-3,-1.56642E-2,-3.243375E-2,1.0553483E-2,-4.4384473E-3,-5.5128313E-3,3.8265216E-3,5.8987043E-3,2.9107362E-2,-1.4857033E-2,2.0887237E-2,-3.477535E-2,3.1445797E-3,-2.583523E-3,4.219187E-3,-1.1750845E-2,9.940598E-3,-7.322153E-4,3.5283277E-3,1.903989E-2,3.8624644E-2,-5.169835E-3,-2.515439E-2,8.442777E-3,2.960182E-3,1.9050267E-2,7.280663E-3],"split_indices":[1,12,14,22,1,14,15,1,12,12,6,12,12,19,15,17,17,15,17,19,14,13,18,14,11,12,0,11,1,17,12,0,0,0,0,0,0,0,0,0,0,0,0,0,0,0,0,0,0,0,0,0,0,0,0,0,0,0,0,0,0,0,0],"split_type":[0,0,0,0,0,0,0,0,0,0,0,0,0,0,0,0,0,0,0,0,0,0,0,0,0,0,0,0,0,0,0,0,0,0,0,0,0,0,0,0,0,0,0,0,0,0,0,0,0,0,0,0,0,0,0,0,0,0,0,0,0,0,0],"sum_hessian":[2.2168453E4,8.0698403E3,1.4098613E4,6.26643E3,1.8034103E3,9.157753E3,4.94086E3,5.7421953E3,5.242346E2,1.3242579E3,4.7915234E2,3.9664927E3,5.1912607E3,4.5387867E1,4.8954717E3,3.0510115E3,2.691184E3,2.8639868E2,2.3783594E2,5.5846155E2,7.657964E2,4.2808078E2,5.1071552E1,9.2876825E2,3.0377244E3,8.14215E2,4.3770454E3,4.2695614E1,2.6922522E0,1.8984264E3,2.9970454E3,1.5584463E3,1.4925651E3,2.7752042E2,2.4136636E3,1.5264137E2,1.337573E2,1.1863E2,1.1920594E2,5.0954906E1,5.0750665E2,1.9238106E2,5.734153E2,4.097749E2,1.8305866E1,4.2757786E1,8.313766E0,1.27087145E1,9.160596E2,2.6941572E3,3.435672E2,2.4683826E1,7.895312E2,2.0633743E3,2.3136714E3,1.3589726E1,2.9105888E1,1.469124E0,1.2231283E0,5.507957E2,1.3476306E3,1.2100364E2,2.876042E3],"tree_param":{"num_deleted":"0","num_feature":"23","num_nodes":"63","size_leaf_vector":"1"}},{"base_weights":[4.298842E-3,-1.3539223E-1,1.2621827E-1,-2.6229724E-1,-5.9080984E-2,5.8726255E-2,2.1618466E-1,-3.2234985E-1,-9.708521E-2,-8.327883E-2,2.3340279E-1,2.4959244E-1,3.8643777E-2,6.6532373E-1,2.0488133E-1,-2.96904E-1,-7.743248E-1,-5.3606933E-1,-1.9802986E-2,3.364077E-2,-1.2186491E-1,1.8635139E-1,7.181551E-1,1.2507312E-3,3.1750616E-1,-7.849832E-2,7.374445E-2,8.068692E-1,-3.0281746E-1,8.706108E-2,2.2988302E-1,-1.1716361E-2,-6.04054E-3,-3.004801E-2,-1.162973E-2,-2.5034191E-2,-4.404441E-3,-2.8825991E-3,7.5112456E-3,1.7628551E-4,1.4712006E-2,-4.778656E-3,4.3940588E-4,6.1493493E-3,-3.297762E-2,3.0083844E-2,-8.728129E-4,1.18203E-2,-6.2454175E-3,1.4886656E-2,5.1967725E-3,-1.16618555E-2,1.1849524E-4,1.7634041E-3,1.0946286E-2,3.6945898E-2,1.683437E-2,2.5341747E-2,-2.3514487E-2,1.0004501E-3,1.1071855E-2,-3.780199E-3,7.1829455E-3],"categories":[],"categories_nodes":[],"categories_segments":[],"categories_sizes":[],"default_left":[0,0,0,0,0,0,0,0,0,0,0,0,0,0,0,0,0,0,0,0,0,0,0,0,0,0,0,0,0,0,0,0,0,0,0,0,0,0,0,0,0,0,0,0,0,0,0,0,0,0,0,0,0,0,0,0,0,0,0,0,0,0,0],"id":4,"left_children":[1,3,5,7,9,11,13,15,17,19,21,23,25,27,29,31,33,35,37,39,41,43,45,47,49,51,53,55,57,59,61,-1,-1,-1,-1,-1,-1,-1,-1,-1,-1,-1,-1,-1,-1,-1,-1,-1,-1,-1,-1,-1,-1,-1,-1,-1,-1,-1,-1,-1,-1,-1,-1],"loss_changes":[3.7842374E2,1.0026639E2,7.202875E1,3.8545563E1,4.579573E1,2.5979877E1,2.5679855E1,3.2562042E1,3.5203693E1,2.6957443E1,1.1144363E1,1.0883305E1,2.5235744E1,1.7290226E1,1.45959015E1,2.4088211E1,1.2911995E1,1.7921257E1,1.8236057E1,1.8807053E1,2.2951813E1,1.1051219E1,9.259911E0,1.1563351E1,1.2980194E1,3.6199203E1,2.0549688E1,1.0661728E1,9.8212185E0,1.3168518E1,1.3937592E1,0E0,0E0,0E0,0E0,0E0,0E0,0E0,0E0,0E0,0E0,0E0,0E0,0E0,0E0,0E0,0E0,0E0,0E0,0E0,0E0,0E0,0E0,0E0,0E0,0E0,0E0,0E0,0E0,0E0,0E0,0E0,0E0],"parents":[2147483647,0,0,1,1,2,2,3,3,4,4,5,5,6,6,7,7,8,8,9,9,10,10,11,11,12,12,13,13,14,14,15,15,16,16,17,17,18,18,19,19,20,20,21,21,22,22,23,23,24,24,25,25,26,26,27,27,28,28,29,29,30,30],"right_children":[2,4,6,8,10,12,14,16,18,20,22,24,26,28,30,32,34,36,38,40,42,44,46,48,50,52,54,56,58,60,62,-1,-1,-1,-1,-1,-1,-1,-1,-1,-1,-1,-1,-1,-1,-1,-1,-1,-1,-1,-1,-1,-1,-1,-1,-1,-1,-1,-1,-1,-1,-1,-1],"split_conditions":[-1.1335841E0,3.3963856E1,-7.718035E-2,1.35E2,2.05E2,1.654314E-1,6.183126E-1,1.25E2,-5.4024854E0,1.2408278E-1,-2.9611757E-1,3.8E1,3.9017555E1,2.11E2,2.0389044E-1,4.9E1,-2.2423816E0,8.375345E-1,-2.0359167E1,-9.8394614E-1,1.45E2,2.9040785E1,-6.133747E-1,1.9E1,-1.3761448E1,3.8E1,8.9118504E7,1.3490725E-2,-1.1538461E0,3.9030955E0,-5.991987E0,-1.1716361E-2,-6.04054E-3,-3.004801E-2,-1.162973E-2,-2.5034191E-2,-4.404441E-3,-2.8825991E-3,7.5112456E-3,1.7628551E-4,1.4712006E-2,-4.778656E-3,4.3940588E-4,6.1493493E-3,-3.297762E-2,3.0083844E-2,-8.728129E-4,1.18203E-2,-6.2454175E-3,1.4886656E-2,5.1967725E-3,-1.16618555E-2,1.1849524E-4,1.7634041E-3,1.0946286E-2,3.6945898E-2,1.683437E-2,2.5341747E-2,-2.3514487E-2,1.0004501E-3,1.1071855E-2,-3.780199E-3,7.1829455E-3],"split_indices":[2,3,14,21,21,12,12,21,14,12,14,21,3,21,14,21,2,12,7,14,21,7,0,21,7,21,16,18,13,15,13,0,0,0,0,0,0,0,0,0,0,0,0,0,0,0,0,0,0,0,0,0,0,0,0,0,0,0,0,0,0,0,0],"split_type":[0,0,0,0,0,0,0,0,0,0,0,0,0,0,0,0,0,0,0,0,0,0,0,0,0,0,0,0,0,0,0,0,0,0,0,0,0,0,0,0,0,0,0,0,0,0,0,0,0,0,0,0,0,0,0,0,0,0,0,0,0,0,0],"sum_hessian":[2.2217627E4,1.0354121E4,1.1863505E4,3.8872375E3,6.466884E3,6.7793486E3,5.0841562E3,2.8502532E3,1.0369843E3,5.973406E3,4.9347803E2,6.443114E2,6.135037E3,1.2338988E2,4.9607666E3,2.6999072E3,1.503459E2,1.5434215E2,8.826421E2,1.4822303E3,4.4911753E3,4.5107944E2,4.239859E1,1.3858025E2,5.0573114E2,1.4141925E3,4.7208447E3,1.0779628E2,1.5593598E1,8.6919183E2,4.0915747E3,1.362032E3,1.3378754E3,9.3687706E1,5.66582E1,8.671919E1,6.762296E1,6.8880505E2,1.9383704E2,1.3982493E3,8.398113E1,3.5247307E3,9.6644446E2,4.4546573E2,5.613725E0,3.0455568E1,1.1943024E1,4.7889263E1,9.069098E1,2.2481743E2,2.8091373E2,2.9614893E2,1.1180436E3,4.491197E3,2.2964789E2,3.8041267E1,6.975501E1,4.382312E0,1.1211287E1,7.310642E2,1.3812767E2,1.065897E2,3.984985E3],"tree_param":{"num_deleted":"0","num_feature":"23","num_nodes":"63","size_leaf_vector":"1"}},{"base_weights":[-3.1410211E-3,-1.3113391E-1,1.1165997E-1,-2.8591028E-1,-3.6055524E-2,5.559133E-2,1.9125448E-1,-1.6790004E-1,-4.0047294E-1,-4.705031E-2,2.8677535E-1,4.4364076E-2,2.8775093E-1,9.7487277E-1,1.8330932E-1,-7.284956E-2,-2.7716252E-1,-4.9572214E-1,-2.781718E-1,1.4277218E-1,-5.89952E-2,7.5569147E-1,1.975098E-1,-3.4235585E-1,5.1075816E-2,3.569481E-1,-1.5494347E-1,-3.6002625E-2,1.1273961E0,-1.21039614E-1,1.9159962E-1,-3.0361558E-3,7.7888807E-3,-5.264436E-3,-1.0938948E-2,-1.4108014E-2,-4.0093154E-2,-8.419402E-4,-1.0290875E-2,-7.827746E-4,1.1455097E-2,1.8866112E-3,-2.4063676E-3,3.0781284E-2,-8.201038E-3,-1.540244E-2,9.042316E-3,-2.0452296E-2,-9.863762E-4,9.367955E-4,5.525419E-3,1.1437387E-2,-2.5883786E-2,-1.6607748E-2,7.5313407E-3,1.8706627E-2,-3.6504462E-2,3.5403706E-2,-2.6657498E-3,-1.624802E-2,8.25928E-3,5.848332E-3,-1.0694354E-2],"categories":[],"categories_nodes":[],"categories_segments":[],"categories_sizes":[],"default_left":[0,0,0,0,0,0,0,0,0,0,0,0,0,0,0,0,0,0,0,0,0,0,0,0,0,0,0,0,0,0,0,0,0,0,0,0,0,0,0,0,0,0,0,0,0,0,0,0,0,0,0,0,0,0,0,0,0,0,0,0,0,0,0],"id":5,"left_children":[1,3,5,7,9,11,13,15,17,19,21,23,25,27,29,31,33,35,37,39,41,43,45,47,49,51,53,55,57,59,61,-1,-1,-1,-1,-1,-1,-1,-1,-1,-1,-1,-1,-1,-1,-1,-1,-1,-1,-1,-1,-1,-1,-1,-1,-1,-1,-1,-1,-1,-1,-1,-1],"loss_changes":[3.2557315E2,1.5416365E2,5.2117096E1,5.3829926E1,2.3053356E1,1.7853615E1,2.987474E1,2.0392166E1,2.341806E1,1.4243596E1,8.805429E0,1.6991173E1,9.735741E0,7.475174E0,1.2083527E1,9.948444E0,8.0653E0,2.3671906E1,1.4388702E1,1.5026136E1,1.528096E1,9.7001095E0,1.3529707E1,1.170869E1,1.6979397E1,8.437599E0,7.165616E0,6.4368505E0,2.7937622E0,2.1378912E1,8.600357E0,0E0,0E0,0E0,0E0,0E0,0E0,0E0,0E0,0E0,0E0,0E0,0E0,0E0,0E0,0E0,0E0,0E0,0E0,0E0,0E0,0E0,0E0,0E0,0E0,0E0,0E0,0E0,0E0,0E0,0E0,0E0,0E0],"parents":[2147483647,0,0,1,1,2,2,3,3,4,4,5,5,6,6,7,7,8,8,9,9,10,10,11,11,12,12,13,13,14,14,15,15,16,16,17,17,18,18,19,19,20,20,21,21,22,22,23,23,24,24,25,25,26,26,27,27,28,28,29,29,30,30],"right_children":[2,4,6,8,10,12,14,16,18,20,22,24,26,28,30,32,34,36,38,40,42,44,46,48,50,52,54,56,58,60,62,-1,-1,-1,-1,-1,-1,-1,-1,-1,-1,-1,-1,-1,-1,-1,-1,-1,-1,-1,-1,-1,-1,-1,-1,-1,-1,-1,-1,-1,-1,-1,-1],"split_conditions":[-1.1080365E0,-9.974212E-1,-3.1695094E-2,1.0370705E0,4.766444E-2,8.9118504E7,7.75108E-2,-3.2983727E0,1.1732852E0,2.2883295E-1,-1.212907E0,-1.0736027E1,7.4057E0,-1.8327255E-2,3.4456026E-2,-1.1284254E0,6.36481E-1,5.61099E0,5.8284765E-1,9.181249E-1,-2.3933585E0,2.1802166E0,-4.5076984E-1,3.5762942E0,3.288201E0,8.887833E0,2.8548505E0,4.1595547E1,1.9700551E-2,6.1111766E-1,3.0718954E0,-3.0361558E-3,7.7888807E-3,-5.264436E-3,-1.0938948E-2,-1.4108014E-2,-4.0093154E-2,-8.419402E-4,-1.0290875E-2,-7.827746E-4,1.1455097E-2,1.8866112E-3,-2.4063676E-3,3.0781284E-2,-8.201038E-3,-1.540244E-2,9.042316E-3,-2.0452296E-2,-9.863762E-4,9.367955E-4,5.525419E-3,1.1437387E-2,-2.5883786E-2,-1.6607748E-2,7.5313407E-3,1.8706627E-2,-3.6504462E-2,3.5403706E-2,-2.6657498E-3,-1.624802E-2,8.25928E-3,5.848332E-3,-1.0694354E-2],"split_indices":[2,1,11,17,14,16,15,11,15,22,11,13,7,2,22,1,17,17,18,17,0,17,1,15,15,15,6,3,22,2,22,0,0,0,0,0,0,0,0,0,0,0,0,0,0,0,0,0,0,0,0,0,0,0,0,0,0,0,0,0,0,0,0],"split_type":[0,0,0,0,0,0,0,0,0,0,0,0,0,0,0,0,0,0,0,0,0,0,0,0,0,0,0,0,0,0,0,0,0,0,0,0,0,0,0,0,0,0,0,0,0,0,0,0,0,0,0,0,0,0,0,0,0,0,0,0,0,0,0],"sum_hessian":[2.2155316E4,1.04757E4,1.1679617E4,3.9856035E3,6.4900967E3,6.853509E3,4.8261084E3,1.9644756E3,2.0211278E3,6.277167E3,2.1292981E2,6.5384976E3,3.1501108E2,4.7219543E1,4.7788887E3,1.0514536E3,9.13022E2,1.1345088E3,8.8661896E2,3.7096802E2,5.9061987E3,3.285825E1,1.8007156E2,1.10690285E2,6.427807E3,2.7259558E2,4.241548E1,6.2907076E0,4.0928837E1,1.2636184E2,4.652527E3,9.6946765E2,8.198598E1,4.2360022E2,4.8942178E2,1.1026814E3,3.1827372E1,1.8286725E2,7.037517E2,2.1792567E2,1.5304236E2,8.754096E2,5.030789E3,2.6024187E1,6.834063E0,2.2458874E1,1.5761269E2,5.2220173E1,5.847011E1,5.5947266E3,8.3308075E2,2.6794537E2,4.650233E0,2.121776E1,2.119772E1,4.339023E0,1.9516842E0,3.925667E1,1.6721642E0,6.113052E1,6.523132E1,4.6249463E3,2.7580566E1],"tree_param":{"num_deleted":"0","num_feature":"23","num_nodes":"63","size_leaf_vector":"1"}},{"base_weights":[3.5219428E-3,-1.4182438E-1,1.04138784E-1,-1.7203453E-1,1.2581423E-1,5.08439E-2,2.1377632E-1,-2.8724578E-1,-1.0414883E-1,2.8141862E-1,-1.0421171E-2,-7.998336E-2,7.670908E-2,-8.980321E-2,2.2545408E-1,-4.8421097E-1,-2.2971675E-1,-1.4974228E-1,7.013232E-2,3.7525344E-1,-3.2060064E-2,8.92933E-2,-2.7861282E-1,-5.6494154E-2,-4.681474E-1,1.8589513E-1,4.273016E-2,-3.083582E-1,4.7625855E-1,4.7338268E-1,2.0794252E-1,-1.1771962E-2,-3.1244144E-2,1.416864E-3,-8.613784E-3,5.5118627E-4,-6.428533E-3,2.5800779E-3,-2.184874E-2,6.6907755E-3,1.7003078E-2,-2.2054084E-2,1.3757765E-3,1.5215764E-3,2.3553316E-2,-1.3833895E-2,1.4120961E-2,-3.7101535E-3,2.7663594E-3,-3.2247532E-2,-3.5452317E-3,5.9401654E-3,-1.45112965E-2,3.155105E-3,-6.730714E-4,-1.31852385E-2,7.4218586E-3,4.3074552E-2,9.499105E-3,3.0437356E-2,1.2497403E-2,4.9484624E-3,8.450374E-3],"categories":[],"categories_nodes":[],"categories_segments":[],"categories_sizes":[],"default_left":[0,0,0,0,0,0,0,0,0,0,0,0,0,0,0,0,0,0,0,0,0,0,0,0,0,0,0,0,0,0,0,0,0,0,0,0,0,0,0,0,0,0,0,0,0,0,0,0,0,0,0,0,0,0,0,0,0,0,0,0,0,0,0],"id":6,"left_children":[1,3,5,7,9,11,13,15,17,19,21,23,25,27,29,31,33,35,37,39,41,43,45,47,49,51,53,55,57,59,61,-1,-1,-1,-1,-1,-1,-1,-1,-1,-1,-1,-1,-1,-1,-1,-1,-1,-1,-1,-1,-1,-1,-1,-1,-1,-1,-1,-1,-1,-1,-1,-1],"loss_changes":[3.242005E2,7.334491E1,7.653418E1,6.370665E1,1.951403E1,2.9839514E1,1.5209991E1,3.4118805E1,4.07687E1,1.2651337E1,1.3174193E1,1.3247064E1,2.7303562E1,1.987064E1,1.7816177E1,3.448323E1,3.7216133E1,4.412256E1,1.35487E1,9.517036E0,5.5071106E0,9.601031E0,1.8476051E1,1.3735987E1,1.7483805E1,1.4261658E1,2.2852186E1,8.536403E0,6.407503E0,7.921562E0,1.2177322E1,0E0,0E0,0E0,0E0,0E0,0E0,0E0,0E0,0E0,0E0,0E0,0E0,0E0,0E0,0E0,0E0,0E0,0E0,0E0,0E0,0E0,0E0,0E0,0E0,0E0,0E0,0E0,0E0,0E0,0E0,0E0,0E0],"parents":[2147483647,0,0,1,1,2,2,3,3,4,4,5,5,6,6,7,7,8,8,9,9,10,10,11,11,12,12,13,13,14,14,15,15,16,16,17,17,18,18,19,19,20,20,21,21,22,22,23,23,24,24,25,25,26,26,27,27,28,28,29,29,30,30],"right_children":[2,4,6,8,10,12,14,16,18,20,22,24,26,28,30,32,34,36,38,40,42,44,46,48,50,52,54,56,58,60,62,-1,-1,-1,-1,-1,-1,-1,-1,-1,-1,-1,-1,-1,-1,-1,-1,-1,-1,-1,-1,-1,-1,-1,-1,-1,-1,-1,-1,-1,-1,-1,-1],"split_conditions":[3.9118793E1,-3.2235458E0,2.0389044E-1,3.1740297E1,2.2627225E-2,-1.7111384E0,-5.7522125E0,3.7E1,1.48E2,-9.268776E0,-2.0994976E1,3E0,6.723367E-1,1.75E2,-5.8765354E0,5.653636E-1,5E-1,-8.21265E-2,2.4752476E0,-1.1335841E0,2.15929E4,2.1E2,-5.758767E-1,1.45E2,1.3554021E0,1.862069E0,-3.620772E0,9E0,5.499927E5,-1.0303336E0,1.3612353E0,-1.1771962E-2,-3.1244144E-2,1.416864E-3,-8.613784E-3,5.5118627E-4,-6.428533E-3,2.5800779E-3,-2.184874E-2,6.6907755E-3,1.7003078E-2,-2.2054084E-2,1.3757765E-3,1.5215764E-3,2.3553316E-2,-1.3833895E-2,1.4120961E-2,-3.7101535E-3,2.7663594E-3,-3.2247532E-2,-3.5452317E-3,5.9401654E-3,-1.45112965E-2,3.155105E-3,-6.730714E-4,-1.31852385E-2,7.4218586E-3,4.3074552E-2,9.499105E-3,3.0437356E-2,1.2497403E-2,4.9484624E-3,8.450374E-3],"split_indices":[3,13,14,3,12,2,13,21,21,7,6,20,12,21,6,12,22,12,19,2,16,21,11,21,19,18,13,20,16,11,14,0,0,0,0,0,0,0,0,0,0,0,0,0,0,0,0,0,0,0,0,0,0,0,0,0,0,0,0,0,0,0,0],"split_type":[0,0,0,0,0,0,0,0,0,0,0,0,0,0,0,0,0,0,0,0,0,0,0,0,0,0,0,0,0,0,0,0,0,0,0,0,0,0,0,0,0,0,0,0,0,0,0,0,0,0,0,0,0,0,0,0,0,0,0,0,0,0,0],"sum_hessian":[2.2166625E4,9.067596E3,1.3099028E4,8.14821E3,9.193856E2,8.815346E3,4.2836826E3,3.0198625E3,5.1283477E3,4.2868616E2,4.9069943E2,1.4548015E3,7.360544E3,1.5842839E2,4.1252544E3,6.8097064E2,2.338892E3,4.0650393E3,1.0633082E3,3.2977597E2,9.891019E1,3.5819025E2,1.3250919E2,1.3728698E3,8.193176E1,1.745898E3,5.614646E3,1.1462662E2,4.380178E1,2.7043298E2,3.8548215E3,5.8610956E2,9.4861115E1,4.016226E2,1.9372694E3,1.1278933E3,2.937146E3,1.0434597E3,1.9848574E1,1.8493988E2,1.4483609E2,9.026679E0,8.9883514E1,3.4039276E2,1.7797495E1,1.0686391E2,2.5645277E1,9.4578296E2,4.2708682E2,2.9212597E1,5.271917E1,1.7155746E3,3.0323322E1,2.8669785E3,2.7476675E3,9.291029E1,2.1716318E1,5.106874E0,3.8694904E1,2.4086203E1,2.4634679E2,2.4370708E3,1.4177506E3],"tree_param":{"num_deleted":"0","num_feature":"23","num_nodes":"63","size_leaf_vector":"1"}},{"base_weights":[-2.0499162E-3,-1.6391878E-1,8.9710906E-2,-2.582593E-1,-3.919852E-2,3.554583E-2,1.8933496E-1,-3.1542668E-1,-7.6316305E-2,-6.7382745E-2,2.3751357E-1,-5.1217284E-3,1.276504E-1,9.0936637E-1,1.8120973E-1,-2.386912E-1,-4.8238987E-1,-2.9619342E-1,1.0542483E-2,-1.530279E-1,1.2283008E-2,3.6523408E-1,3.7034195E-2,-4.3016925E-2,9.703123E-2,6.561384E-2,2.2414233E-1,1.0126897E0,-5.285242E-1,2.165292E-1,1.1162011E-1,-8.883503E-3,-2.0186487E-3,-1.6885234E-2,-7.7251005E-3,-1.15483245E-2,8.585659E-4,-8.651044E-3,1.645602E-3,-7.131569E-4,-7.593567E-3,1.3304689E-3,-8.128209E-3,2.7357459E-2,7.907268E-3,-1.2149909E-2,9.209091E-3,-2.0997124E-3,4.099065E-3,9.205634E-3,1.0667224E-3,2.82429E-3,-3.335319E-3,4.1884906E-3,1.2159722E-2,3.196211E-2,-6.847212E-3,-3.232697E-2,3.1830152E-3,-7.956335E-3,6.7910063E-3,1.0690289E-2,2.469091E-3],"categories":[],"categories_nodes":[],"categories_segments":[],"categories_sizes":[],"default_left":[0,0,0,0,0,0,0,0,0,0,0,0,0,0,0,0,0,0,0,0,0,0,0,0,0,0,0,0,0,0,0,0,0,0,0,0,0,0,0,0,0,0,0,0,0,0,0,0,0,0,0,0,0,0,0,0,0,0,0,0,0,0,0],"id":7,"left_children":[1,3,5,7,9,11,13,15,17,19,21,23,25,27,29,31,33,35,37,39,41,43,45,47,49,51,53,55,57,59,61,-1,-1,-1,-1,-1,-1,-1,-1,-1,-1,-1,-1,-1,-1,-1,-1,-1,-1,-1,-1,-1,-1,-1,-1,-1,-1,-1,-1,-1,-1,-1,-1],"loss_changes":[3.2954108E2,9.44353E1,7.64008E1,4.7507812E1,2.698482E1,3.4362682E1,2.9010406E1,4.443155E1,2.0894594E1,2.1420223E1,8.177006E0,2.464325E1,1.6805653E1,8.765514E0,1.2099136E1,2.3446686E1,1.9645233E1,8.941549E0,1.0414475E1,1.9566593E1,1.4790607E1,1.0612396E1,1.5110197E1,2.2510363E1,2.220772E1,8.644003E0,1.6777046E1,3.6464577E0,1.6373187E0,1.5561005E1,1.1899527E1,0E0,0E0,0E0,0E0,0E0,0E0,0E0,0E0,0E0,0E0,0E0,0E0,0E0,0E0,0E0,0E0,0E0,0E0,0E0,0E0,0E0,0E0,0E0,0E0,0E0,0E0,0E0,0E0,0E0,0E0,0E0,0E0],"parents":[2147483647,0,0,1,1,2,2,3,3,4,4,5,5,6,6,7,7,8,8,9,9,10,10,11,11,12,12,13,13,14,14,15,15,16,16,17,17,18,18,19,19,20,20,21,21,22,22,23,23,24,24,25,25,26,26,27,27,28,28,29,29,30,30],"right_children":[2,4,6,8,10,12,14,16,18,20,22,24,26,28,30,32,34,36,38,40,42,44,46,48,50,52,54,56,58,60,62,-1,-1,-1,-1,-1,-1,-1,-1,-1,-1,-1,-1,-1,-1,-1,-1,-1,-1,-1,-1,-1,-1,-1,-1,-1,-1,-1,-1,-1,-1,-1,-1],"split_conditions":[-7.3402655E-1,-1.6299149E0,-7.718035E-2,1.36E2,1.96E2,1.48E2,9.892175E-3,1.5887942E0,-3.6123127E1,-9.294723E-1,8.564031E-1,-2.840909E0,2.987807E6,3.2773155E1,1.56E2,-1.7749138E1,-9.488323E-1,1.7704208E0,-4.6509924E0,7.666249E-1,1.67E2,-5.6459587E1,-4.961707E-1,2.5518014E0,1.5071724E-1,-2.08E0,-6.031269E-1,3.9335233E-1,2.4009027E5,-5.9122696E0,-6.8290454E-1,-8.883503E-3,-2.0186487E-3,-1.6885234E-2,-7.7251005E-3,-1.15483245E-2,8.585659E-4,-8.651044E-3,1.645602E-3,-7.131569E-4,-7.593567E-3,1.3304689E-3,-8.128209E-3,2.7357459E-2,7.907268E-3,-1.2149909E-2,9.209091E-3,-2.0997124E-3,4.099065E-3,9.205634E-3,1.0667224E-3,2.82429E-3,-3.335319E-3,4.1884906E-3,1.2159722E-2,3.196211E-2,-6.847212E-3,-3.232697E-2,3.1830152E-3,-7.956335E-3,6.7910063E-3,1.0690289E-2,2.469091E-3],"split_indices":[1,2,14,21,21,21,19,17,7,2,19,13,16,7,21,7,1,12,2,17,21,6,0,12,12,13,0,2,16,13,2,0,0,0,0,0,0,0,0,0,0,0,0,0,0,0,0,0,0,0,0,0,0,0,0,0,0,0,0,0,0,0,0],"split_type":[0,0,0,0,0,0,0,0,0,0,0,0,0,0,0,0,0,0,0,0,0,0,0,0,0,0,0,0,0,0,0,0,0,0,0,0,0,0,0,0,0,0,0,0,0,0,0,0,0,0,0,0,0,0,0,0,0,0,0,0,0,0,0],"sum_hessian":[2.2184518E4,8.0258643E3,1.4158653E4,4.5688433E3,3.4570212E3,9.172805E3,4.985849E3,3.4759492E3,1.092894E3,3.1381453E3,3.1887607E2,6.363867E3,2.8089373E3,5.439757E1,4.931451E3,2.3831118E3,1.0928373E3,3.0879373E2,7.8410034E2,1.5118745E3,1.6262708E3,1.9428198E2,1.245941E2,4.64231E3,1.7215568E3,1.7107455E3,1.0981918E3,5.1026634E1,3.3709366E0,3.2697913E3,1.66166E3,1.7845139E3,5.9859796E2,8.037864E2,2.8905084E2,2.4238109E2,6.641264E1,1.0051861E2,6.835817E2,6.6034827E2,8.515262E2,1.4616312E3,1.6463947E2,2.9213318E1,1.6506866E2,4.7048985E1,7.754511E1,4.0368215E3,6.054886E2,3.8918698E2,1.3323698E3,1.4734407E3,2.3730475E2,7.500463E2,3.4814548E2,4.908306E1,1.943573E0,1.4331226E0,1.9378141E0,6.491704E1,3.2048743E3,1.7657283E2,1.4850872E3],"tree_param":{"num_deleted":"0","num_feature":"23","num_nodes":"63","size_leaf_vector":"1"}},{"base_weights":[-5.3117154E-3,-1.3280292E-1,1.1022332E-1,-2.7282447E-1,-5.0986096E-2,6.429423E-2,1.8946283E-1,-1.6342458E-1,-3.8130748E-1,5.5491116E-2,-8.2815394E-2,3.3993188E-1,4.7476515E-2,4.1416463E-2,2.114965E-1,-1.3613264E-1,-4.0287545E-1,-4.527415E-1,-2.2541276E-1,-3.96919E-2,1.754451E-1,-1.1245157E-1,9.164914E-2,2.6757234E-1,1.0498359E0,-1.09839216E-1,7.8756906E-2,-2.7884293E-1,1.13181785E-1,9.37623E-1,2.0261985E-1,-4.794872E-3,5.5497563E-3,-1.4067741E-2,2.0435285E-2,-1.0899816E-3,-1.4340543E-2,-8.991671E-3,6.450906E-3,1.3459552E-2,-2.4690265E-3,1.6120229E-2,3.958248E-3,-2.0091895E-3,-6.1100307E-3,2.1154873E-2,1.7710805E-3,-7.0382073E-3,9.635043E-3,6.989575E-3,3.5519734E-2,-1.6573524E-2,-2.4584623E-3,1.4043133E-3,4.767692E-3,2.1034959E-3,-1.3354029E-2,4.045104E-3,-2.4465611E-2,9.313112E-3,3.7395302E-2,6.214053E-3,-2.0593427E-2],"categories":[],"categories_nodes":[],"categories_segments":[],"categories_sizes":[],"default_left":[0,0,0,0,0,0,0,0,0,0,0,0,0,0,0,0,0,0,0,0,0,0,0,0,0,0,0,0,0,0,0,0,0,0,0,0,0,0,0,0,0,0,0,0,0,0,0,0,0,0,0,0,0,0,0,0,0,0,0,0,0,0,0],"id":8,"left_children":[1,3,5,7,9,11,13,15,17,19,21,23,25,27,29,31,33,35,37,39,41,43,45,47,49,51,53,55,57,59,61,-1,-1,-1,-1,-1,-1,-1,-1,-1,-1,-1,-1,-1,-1,-1,-1,-1,-1,-1,-1,-1,-1,-1,-1,-1,-1,-1,-1,-1,-1,-1,-1],"loss_changes":[3.276831E2,1.2114554E2,4.2461304E1,4.6226807E1,2.263237E1,3.423925E1,1.3958557E1,1.2647404E1,2.1698334E1,1.7557318E1,2.6589108E1,2.1539375E1,3.428695E1,1.28092165E1,2.3831848E1,1.3318367E1,1.4522213E1,1.4102264E1,2.0262846E1,1.7887453E1,1.063891E1,1.8216564E1,1.490422E1,1.0486774E1,3.9925003E0,1.4222301E1,1.4874912E1,5.95379E0,9.25821E0,8.27932E0,1.4927612E1,0E0,0E0,0E0,0E0,0E0,0E0,0E0,0E0,0E0,0E0,0E0,0E0,0E0,0E0,0E0,0E0,0E0,0E0,0E0,0E0,0E0,0E0,0E0,0E0,0E0,0E0,0E0,0E0,0E0,0E0,0E0,0E0],"parents":[2147483647,0,0,1,1,2,2,3,3,4,4,5,5,6,6,7,7,8,8,9,9,10,10,11,11,12,12,13,13,14,14,15,15,16,16,17,17,18,18,19,19,20,20,21,21,22,22,23,23,24,24,25,25,26,26,27,27,28,28,29,29,30,30],"right_children":[2,4,6,8,10,12,14,16,18,20,22,24,26,28,30,32,34,36,38,40,42,44,46,48,50,52,54,56,58,60,62,-1,-1,-1,-1,-1,-1,-1,-1,-1,-1,-1,-1,-1,-1,-1,-1,-1,-1,-1,-1,-1,-1,-1,-1,-1,-1,-1,-1,-1,-1,-1,-1],"split_conditions":[-1.1080365E0,-1.0177128E0,3.1434186E0,1.0370705E0,-2.9688823E-1,3.8264297E-2,-1.0071347E0,-5.3060575E0,-2.2668447E0,-6.120015E-1,2.7736504E0,-1.8327255E-2,-3.1237001E1,3.3460484E0,-2.8688488E1,9.8107433E-1,-1.6162611E1,4.821601E-1,2.427108E0,6.5292096E-1,-1.91387E1,9.849663E-1,2.0422056E-1,1.607717E-1,-1.1274081E-2,-2.0457978E0,-1.4659846E0,3E0,3.8874688E0,3.3945405E0,3.423523E0,-4.794872E-3,5.5497563E-3,-1.4067741E-2,2.0435285E-2,-1.0899816E-3,-1.4340543E-2,-8.991671E-3,6.450906E-3,1.3459552E-2,-2.4690265E-3,1.6120229E-2,3.958248E-3,-2.0091895E-3,-6.1100307E-3,2.1154873E-2,1.7710805E-3,-7.0382073E-3,9.635043E-3,6.989575E-3,3.5519734E-2,-1.6573524E-2,-2.4584623E-3,1.4043133E-3,4.767692E-3,2.1034959E-3,-1.3354029E-2,4.045104E-3,-2.4465611E-2,9.313112E-3,3.7395302E-2,6.214053E-3,-2.0593427E-2],"split_indices":[2,1,15,17,12,12,1,13,2,1,15,2,6,12,7,17,7,18,15,18,7,22,22,18,0,1,10,20,17,12,18,0,0,0,0,0,0,0,0,0,0,0,0,0,0,0,0,0,0,0,0,0,0,0,0,0,0,0,0,0,0,0,0],"split_type":[0,0,0,0,0,0,0,0,0,0,0,0,0,0,0,0,0,0,0,0,0,0,0,0,0,0,0,0,0,0,0,0,0,0,0,0,0,0,0,0,0,0,0,0,0,0,0,0,0,0,0,0,0,0,0,0,0,0,0,0,0,0,0],"sum_hessian":[2.2244426E4,1.0574963E4,1.1669464E4,3.8993198E3,6.6756426E3,7.388643E3,4.280821E3,1.9427036E3,1.9566163E3,1.536134E3,5.1395083E3,4.2378082E2,6.9648623E3,5.5494867E2,3.7258723E3,1.7453429E3,1.973608E2,1.3404786E3,6.161377E2,8.568756E2,6.7925836E2,4.3935366E3,7.459718E2,3.8583057E2,3.7950253E1,1.1547697E3,5.8100923E3,1.01062485E2,4.5388617E2,4.3733894E1,3.6821384E3,1.625869E3,1.1947385E2,1.8656139E2,1.0799406E1,7.685184E1,1.2636267E3,5.274655E2,8.8672195E1,6.799958E1,7.8887604E2,7.16732E1,6.0758514E2,2.9329563E3,1.4605804E3,3.66119E1,7.093599E2,3.6881607E1,3.4894894E2,5.739575E0,3.221068E1,6.733767E1,1.0874319E3,4.1556406E3,1.6544519E3,3.280343E1,6.8259056E1,4.4437918E2,9.507007E0,1.509301E1,2.8640884E1,3.6642957E3,1.7842587E1],"tree_param":{"num_deleted":"0","num_feature":"23","num_nodes":"63","size_leaf_vector":"1"}},{"base_weights":[-1.2489853E-3,-1.3185447E-1,1.1448067E-1,-2.7838743E-1,-5.4213554E-2,6.164297E-2,1.909003E-1,-3.7062263E-1,-1.1859592E-1,-1.23715326E-1,8.086785E-3,3.09341E-1,4.524139E-2,1.601268E-1,3.4379968E-1,-4.0448794E-1,8.186349E-3,-5.5646695E-2,-3.6860135E-1,-3.58348E-2,-1.9612096E-1,1.9284295E-1,-2.849278E-2,2.590119E-1,1.2581477E0,-8.222389E-2,8.021866E-2,-4.7494218E-2,1.8049467E-1,6.9254255E-1,2.8222755E-1,-1.0336046E-2,-1.9849824E-2,1.5436181E-2,-7.503526E-3,2.8576166E-3,-3.282681E-3,-1.5678924E-2,-3.2298134E-3,-2.9827033E-3,2.6737477E-3,-2.9482206E-3,-9.215047E-3,1.0540927E-2,2.999465E-3,-1.3959523E-3,7.746206E-3,8.890321E-3,-3.7792884E-3,1.5870279E-2,4.1033592E-2,-3.950127E-3,5.01131E-3,5.362097E-3,1.534807E-3,8.694759E-4,-1.6302483E-2,5.553154E-3,-1.550038E-2,2.5290309E-2,-2.4686318E-3,1.01582585E-2,3.4994388E-3],"categories":[],"categories_nodes":[],"categories_segments":[],"categories_sizes":[],"default_left":[0,0,0,0,0,0,0,0,0,0,0,0,0,0,0,0,0,0,0,0,0,0,0,0,0,0,0,0,0,0,0,0,0,0,0,0,0,0,0,0,0,0,0,0,0,0,0,0,0,0,0,0,0,0,0,0,0,0,0,0,0,0,0],"id":9,"left_children":[1,3,5,7,9,11,13,15,17,19,21,23,25,27,29,31,33,35,37,39,41,43,45,47,49,51,53,55,57,59,61,-1,-1,-1,-1,-1,-1,-1,-1,-1,-1,-1,-1,-1,-1,-1,-1,-1,-1,-1,-1,-1,-1,-1,-1,-1,-1,-1,-1,-1,-1,-1,-1],"loss_changes":[3.3541766E2,1.1859561E2,4.7495895E1,5.3169952E1,2.9514019E1,2.8252068E1,2.25728E1,2.9364105E1,2.079791E1,2.049368E1,2.4302444E1,2.0299412E1,2.9104889E1,1.6945755E1,1.7087257E1,3.2164642E1,2.4822319E1,8.5954E0,1.0631138E1,1.1583158E1,1.9160934E1,8.712999E0,1.5536832E1,5.9504642E0,9.949913E-1,1.7349438E1,1.46535E1,1.3616372E1,1.1820122E1,1.4070358E1,6.3625755E0,0E0,0E0,0E0,0E0,0E0,0E0,0E0,0E0,0E0,0E0,0E0,0E0,0E0,0E0,0E0,0E0,0E0,0E0,0E0,0E0,0E0,0E0,0E0,0E0,0E0,0E0,0E0,0E0,0E0,0E0,0E0,0E0],"parents":[2147483647,0,0,1,1,2,2,3,3,4,4,5,5,6,6,7,7,8,8,9,9,10,10,11,11,12,12,13,13,14,14,15,15,16,16,17,17,18,18,19,19,20,20,21,21,22,22,23,23,24,24,25,25,26,26,27,27,28,28,29,29,30,30],"right_children":[2,4,6,8,10,12,14,16,18,20,22,24,26,28,30,32,34,36,38,40,42,44,46,48,50,52,54,56,58,60,62,-1,-1,-1,-1,-1,-1,-1,-1,-1,-1,-1,-1,-1,-1,-1,-1,-1,-1,-1,-1,-1,-1,-1,-1,-1,-1,-1,-1,-1,-1,-1,-1],"split_conditions":[-1.1214894E0,-1.0594848E0,2.8696194E0,3.3963856E1,-6.0362595E-1,3.8264297E-2,8E0,3.1083891E0,-2.0660946E0,9.9269944E-1,-3.4083572E-1,-4.884198E-3,3.9017555E1,-1.0922291E0,9.0143216E-1,2.2256358E0,1.038389E0,-3.5644726E1,1.3554021E0,3.9217777E1,-1.3376711E-1,-4.9839697E0,7.2098054E-2,6.514658E-1,-6.425708E1,-1.0708666E0,7.1247643E-1,2.9940119E0,3.0718954E0,1.1352886E0,6.724194E0,-1.0336046E-2,-1.9849824E-2,1.5436181E-2,-7.503526E-3,2.8576166E-3,-3.282681E-3,-1.5678924E-2,-3.2298134E-3,-2.9827033E-3,2.6737477E-3,-2.9482206E-3,-9.215047E-3,1.0540927E-2,2.999465E-3,-1.3959523E-3,7.746206E-3,8.890321E-3,-3.7792884E-3,1.5870279E-2,4.1033592E-2,-3.950127E-3,5.01131E-3,5.362097E-3,1.534807E-3,8.694759E-4,-1.6302483E-2,5.553154E-3,-1.550038E-2,2.5290309E-2,-2.4686318E-3,1.01582585E-2,3.4994388E-3],"split_indices":[2,1,15,3,1,12,20,15,14,17,12,2,3,1,19,17,22,6,19,3,12,13,14,19,6,14,12,19,22,22,12,0,0,0,0,0,0,0,0,0,0,0,0,0,0,0,0,0,0,0,0,0,0,0,0,0,0,0,0,0,0,0,0],"split_type":[0,0,0,0,0,0,0,0,0,0,0,0,0,0,0,0,0,0,0,0,0,0,0,0,0,0,0,0,0,0,0,0,0,0,0,0,0,0,0,0,0,0,0,0,0,0,0,0,0,0,0,0,0,0,0,0,0,0,0,0,0,0,0],"sum_hessian":[2.2189154E4,1.0424525E4,1.1764628E4,3.60956E3,6.8149653E3,6.9565615E3,4.808067E3,2.2877183E3,1.3218417E3,3.220838E3,3.5941274E3,4.3091946E2,6.525642E3,4.0042031E3,8.038636E2,2.099919E3,1.8779933E2,1.0569366E3,2.64905E2,1.4556156E3,1.7652222E3,5.932859E2,3.0008416E3,4.1042175E2,2.0497692E1,1.404816E3,5.120826E3,3.576048E2,3.6465984E3,1.1909053E2,6.847731E2,1.7048239E3,3.950951E2,6.31042E1,1.2469514E2,2.7749316E2,7.794435E2,1.6594647E2,9.8958534E1,9.6483923E2,4.9077637E2,9.3938654E2,8.2583563E2,2.1813205E2,3.7515384E2,2.8239954E3,1.7684633E2,3.7435132E2,3.607044E1,3.4407094E0,1.7056984E1,1.1726667E3,2.3214928E2,1.1652117E3,3.9556143E3,3.1064188E2,4.6962917E1,3.623371E3,2.3227156E1,9.965089E1,1.943964E1,5.1005167E2,1.747214E2],"tree_param":{"num_deleted":"0","num_feature":"23","num_nodes":"63","size_leaf_vector":"1"}},{"base_weights":[1.6527027E-3,-1.8040991E-1,6.700328E-2,-2.6551524E-1,-3.1786382E-2,1.2076277E-2,1.6600968E-1,-1.5115893E-1,-3.7905958E-1,-4.5132336E-1,2.3530268E-3,-1.4782845E-2,2.162122E-1,8.458676E-1,1.6042446E-1,-1.2543392E-1,-5.338685E-1,-4.4576254E-1,-1.7062515E-1,-6.203611E-1,-1.2731782E-1,-4.3074865E-2,1.453239E-1,-4.622602E-2,9.266052E-2,2.4451357E-1,-2.1879217E-1,1.1520226E0,-2.208535E-1,1.4244711E-1,3.020793E-1,-4.934916E-3,2.0092549E-3,-1.9571757E-2,1.8852435E-2,-1.2022304E-2,-2.5377275E-2,-7.580617E-3,5.7534245E-3,5.04944E-3,-2.181107E-2,3.560939E-2,-7.264726E-3,-2.2275494E-3,6.7984457E-3,7.7505433E-3,-2.3470751E-3,1.4673258E-3,-2.293745E-3,1.4829937E-2,2.1195025E-3,1.001847E-2,4.4710864E-3,9.1147255E-3,-1.2699598E-2,3.7074447E-2,-4.137078E-3,5.519924E-3,-3.123717E-2,3.8226794E-3,9.818095E-3,2.445018E-2,7.880671E-3],"categories":[],"categories_nodes":[],"categories_segments":[],"categories_sizes":[],"default_left":[0,0,0,0,0,0,0,0,0,0,0,0,0,0,0,0,0,0,0,0,0,0,0,0,0,0,0,0,0,0,0,0,0,0,0,0,0,0,0,0,0,0,0,0,0,0,0,0,0,0,0,0,0,0,0,0,0,0,0,0,0,0,0],"id":10,"left_children":[1,3,5,7,9,11,13,15,17,19,21,23,25,27,29,31,33,35,37,39,41,43,45,47,49,51,53,55,57,59,61,-1,-1,-1,-1,-1,-1,-1,-1,-1,-1,-1,-1,-1,-1,-1,-1,-1,-1,-1,-1,-1,-1,-1,-1,-1,-1,-1,-1,-1,-1,-1,-1],"loss_changes":[2.6364032E2,7.4022415E1,8.867034E1,4.8265656E1,3.0541164E1,5.7510815E1,2.1956787E1,1.8204021E1,2.5877838E1,8.709305E0,1.2819457E1,3.132133E1,1.5068569E1,1.5660709E1,1.46558075E1,1.3090925E1,1.6469913E1,2.5125397E1,1.3555909E1,8.972107E0,8.780678E0,1.2611196E1,1.204614E1,2.0631527E1,1.8522114E1,9.732529E0,8.148479E0,4.1496162E0,3.964336E0,1.4186562E1,1.2901218E1,0E0,0E0,0E0,0E0,0E0,0E0,0E0,0E0,0E0,0E0,0E0,0E0,0E0,0E0,0E0,0E0,0E0,0E0,0E0,0E0,0E0,0E0,0E0,0E0,0E0,0E0,0E0,0E0,0E0,0E0,0E0,0E0],"parents":[2147483647,0,0,1,1,2,2,3,3,4,4,5,5,6,6,7,7,8,8,9,9,10,10,11,11,12,12,13,13,14,14,15,15,16,16,17,17,18,18,19,19,20,20,21,21,22,22,23,23,24,24,25,25,26,26,27,27,28,28,29,29,30,30],"right_children":[2,4,6,8,10,12,14,16,18,20,22,24,26,28,30,32,34,36,38,40,42,44,46,48,50,52,54,56,58,60,62,-1,-1,-1,-1,-1,-1,-1,-1,-1,-1,-1,-1,-1,-1,-1,-1,-1,-1,-1,-1,-1,-1,-1,-1,-1,-1,-1,-1,-1,-1,-1,-1],"split_conditions":[-9.3929857E-1,-1.5097438E0,-3.5509777E-1,1.0938908E0,2.3E1,1.95E2,3.2605153E-2,-4.895883E0,1.36E2,-1.3955985E0,6E0,-2.840909E0,2E0,1.3490725E-2,9E0,2.5518014E0,-1.5406239E1,1.15E2,2.3502653E0,3.8264297E-2,4.2228997E-1,1.96E2,-4.835348E0,-8.21265E-2,-2.1074423E-1,-4.94252E0,3.9232782E-1,2.22E2,1.5091093E0,3.947117E7,-2.8688488E1,-4.934916E-3,2.0092549E-3,-1.9571757E-2,1.8852435E-2,-1.2022304E-2,-2.5377275E-2,-7.580617E-3,5.7534245E-3,5.04944E-3,-2.181107E-2,3.560939E-2,-7.264726E-3,-2.2275494E-3,6.7984457E-3,7.7505433E-3,-2.3470751E-3,1.4673258E-3,-2.293745E-3,1.4829937E-2,2.1195025E-3,1.001847E-2,4.4710864E-3,9.1147255E-3,-1.2699598E-2,3.7074447E-2,-4.137078E-3,5.519924E-3,-3.123717E-2,3.8226794E-3,9.818095E-3,2.445018E-2,7.880671E-3],"split_indices":[1,2,2,17,21,21,15,13,21,14,20,13,20,18,20,12,7,21,15,12,17,21,13,12,12,7,22,21,17,16,7,0,0,0,0,0,0,0,0,0,0,0,0,0,0,0,0,0,0,0,0,0,0,0,0,0,0,0,0,0,0,0,0],"split_type":[0,0,0,0,0,0,0,0,0,0,0,0,0,0,0,0,0,0,0,0,0,0,0,0,0,0,0,0,0,0,0,0,0,0,0,0,0,0,0,0,0,0,0,0,0,0,0,0,0,0,0,0,0,0,0,0,0,0,0,0,0,0,0],"sum_hessian":[2.2156553E4,5.8518643E3,1.63046875E4,3.7205837E3,2.1312803E3,1.048752E4,5.8171685E3,1.8548257E3,1.8657582E3,1.594605E2,1.9718197E3,9.268895E3,1.2186245E3,4.617431E1,5.770994E3,1.7392448E3,1.1558097E2,1.4125703E3,4.5318777E2,1.04189095E2,5.5271408E1,1.4968925E3,4.7492728E2,7.170907E3,2.097988E3,1.1445951E3,7.402945E1,3.581518E1,1.0359126E1,5.12286E3,6.48134E2,1.4458502E3,2.9339444E2,1.05283424E2,1.0297548E1,1.271518E3,1.410524E2,3.6976263E2,8.3425156E1,1.2344542E1,9.184455E1,3.691187E0,5.158022E1,1.3424291E3,1.544634E2,3.1534116E2,1.5958612E2,1.7290813E3,5.4418257E3,1.0787662E2,1.9901113E3,5.8970746E2,5.5488763E2,2.068611E1,5.334334E1,3.3669964E1,2.1452205E0,7.455593E0,2.9035325E0,4.7392866E3,3.8357315E2,4.4819466E1,6.033145E2],"tree_param":{"num_deleted":"0","num_feature":"23","num_nodes":"63","size_leaf_vector":"1"}},{"base_weights":[-1.0815279E-3,-1.01853035E-1,1.12299904E-1,-2.5892797E-1,-5.1732503E-2,5.5605754E-2,1.7670621E-1,-4.308203E-1,-1.9844405E-1,-1.019896E-1,9.581839E-2,-2.3192737E-1,6.7628294E-2,7.5410986E-1,1.7036809E-1,-3.3777732E-1,-9.212084E-1,9.277632E-2,-2.4524184E-1,-1.2482043E-1,1.7099006E-1,-1.0725548E0,1.02552205E-1,-7.820774E-1,-1.107508E-1,2.402704E-1,5.006055E-2,9.8813516E-1,-4.628136E-1,1.5308942E-1,2.8229618E-1,-1.4239491E-2,-2.8994908E-3,-3.1777157E-3,-3.498171E-2,1.0644989E-3,1.968045E-2,-8.281254E-3,5.788153E-3,1.4843856E-4,-4.76019E-3,-3.485165E-4,9.33744E-3,-9.423889E-3,-4.3763537E-2,2.4578893E-3,1.3877877E-2,-2.741232E-2,2.259624E-2,-5.3627444E-3,2.5664726E-2,7.9698665E-3,-7.852664E-3,7.267987E-4,6.1136386E-3,3.2842036E-2,1.2112391E-2,-3.6786273E-2,2.7790813E-2,6.67754E-3,3.4308196E-3,1.0811704E-2,4.8492907E-4],"categories":[],"categories_nodes":[],"categories_segments":[],"categories_sizes":[],"default_left":[0,0,0,0,0,0,0,0,0,0,0,0,0,0,0,0,0,0,0,0,0,0,0,0,0,0,0,0,0,0,0,0,0,0,0,0,0,0,0,0,0,0,0,0,0,0,0,0,0,0,0,0,0,0,0,0,0,0,0,0,0,0,0],"id":11,"left_children":[1,3,5,7,9,11,13,15,17,19,21,23,25,27,29,31,33,35,37,39,41,43,45,47,49,51,53,55,57,59,61,-1,-1,-1,-1,-1,-1,-1,-1,-1,-1,-1,-1,-1,-1,-1,-1,-1,-1,-1,-1,-1,-1,-1,-1,-1,-1,-1,-1,-1,-1,-1,-1],"loss_changes":[2.52461E2,9.208558E1,3.7956207E1,2.9333374E1,6.5784546E1,1.9136648E1,1.7683777E1,3.325464E1,2.8574043E1,4.1259758E1,1.7844364E1,1.4727835E1,1.6093021E1,1.5424494E1,9.270111E0,2.041359E1,2.3180252E1,9.359753E0,2.4416183E1,2.6827538E1,1.3094299E1,3.3510056E0,1.6609707E1,8.7633E0,1.2196186E1,6.3179417E0,1.9140646E1,2.3237534E0,1.0847534E1,1.1208313E1,1.3353825E1,0E0,0E0,0E0,0E0,0E0,0E0,0E0,0E0,0E0,0E0,0E0,0E0,0E0,0E0,0E0,0E0,0E0,0E0,0E0,0E0,0E0,0E0,0E0,0E0,0E0,0E0,0E0,0E0,0E0,0E0,0E0,0E0],"parents":[2147483647,0,0,1,1,2,2,3,3,4,4,5,5,6,6,7,7,8,8,9,9,10,10,11,11,12,12,13,13,14,14,15,15,16,16,17,17,18,18,19,19,20,20,21,21,22,22,23,23,24,24,25,25,26,26,27,27,28,28,29,29,30,30],"right_children":[2,4,6,8,10,12,14,16,18,20,22,24,26,28,30,32,34,36,38,40,42,44,46,48,50,52,54,56,58,60,62,-1,-1,-1,-1,-1,-1,-1,-1,-1,-1,-1,-1,-1,-1,-1,-1,-1,-1,-1,-1,-1,-1,-1,-1,-1,-1,-1,-1,-1,-1,-1,-1],"split_conditions":[-9.417398E-1,3.1740297E1,-5.540166E-2,3.9E1,1.48E2,2.3E1,3.8264297E-2,4.245499E-1,4.9562684E-1,-2.840909E0,-2.0249878E1,-5.517501E0,2.5797245E-1,2.09E2,8E0,-2.1698787E0,-4.6291876E0,2.3749208E0,3.074168E0,-8.21265E-2,-7.6790994E-1,6.4883294E0,4.766444E-2,6.234414E0,4.506857E1,-9.866103E-1,4.935801E1,1.3490725E-2,4.5166706E1,-6.835656E-2,6.4883294E0,-1.4239491E-2,-2.8994908E-3,-3.1777157E-3,-3.498171E-2,1.0644989E-3,1.968045E-2,-8.281254E-3,5.788153E-3,1.4843856E-4,-4.76019E-3,-3.485165E-4,9.33744E-3,-9.423889E-3,-4.3763537E-2,2.4578893E-3,1.3877877E-2,-2.741232E-2,2.259624E-2,-5.3627444E-3,2.5664726E-2,7.9698665E-3,-7.852664E-3,7.267987E-4,6.1136386E-3,3.2842036E-2,1.2112391E-2,-3.6786273E-2,2.7790813E-2,6.67754E-3,3.4308196E-3,1.0811704E-2,4.8492907E-4],"split_indices":[2,3,14,21,21,21,12,12,22,13,10,10,12,21,20,2,14,15,15,12,0,12,14,15,3,13,3,18,3,0,12,0,0,0,0,0,0,0,0,0,0,0,0,0,0,0,0,0,0,0,0,0,0,0,0,0,0,0,0,0,0,0,0],"split_type":[0,0,0,0,0,0,0,0,0,0,0,0,0,0,0,0,0,0,0,0,0,0,0,0,0,0,0,0,0,0,0,0,0,0,0,0,0,0,0,0,0,0,0,0,0,0,0,0,0,0,0,0,0,0,0,0,0,0,0,0,0,0,0],"sum_hessian":[2.2094045E4,1.1697557E4,1.0396489E4,2.8286284E3,8.868928E3,5.53028E3,4.8662095E3,7.346542E2,2.093974E3,6.615829E3,2.253099E3,2.2122139E2,5.3090586E3,5.1554955E1,4.8146543E3,6.189143E2,1.15739876E2,2.8976956E2,1.8042046E3,6.1057163E3,5.1011285E2,1.2004124E1,2.241095E3,3.894669E1,1.822747E2,4.891728E2,4.8198857E3,4.3397274E1,8.157681E0,4.172847E3,6.4180725E2,3.9419E2,2.2472432E2,2.7062181E1,8.867769E1,2.6398032E2,2.5789259E1,1.6860603E3,1.1814422E2,1.2634266E3,4.8422896E3,2.2199983E2,2.8811304E2,4.6622868E0,7.341837E0,2.120845E3,1.2025006E2,3.6243286E1,2.7034006E0,1.7105058E2,1.1224118E1,4.6607037E2,2.3102419E1,4.127428E3,6.924577E2,3.5963764E1,7.4335093E0,5.3403172E0,2.8173642E0,1.4915856E3,2.6812617E3,4.959276E2,1.4587967E2],"tree_param":{"num_deleted":"0","num_feature":"23","num_nodes":"63","size_leaf_vector":"1"}},{"base_weights":[2.9355503E-4,-1.4412138E-1,8.069057E-2,-2.2797315E-1,-2.6606519E-2,3.065439E-2,1.7284313E-1,-2.812252E-1,-5.9762247E-2,-5.3693656E-2,2.5309896E-1,-6.5546995E-3,1.1205387E-1,7.9323804E-1,1.6720258E-1,-2.5586686E-1,-6.652195E-1,-3.288134E-1,4.1485615E-2,-1.2536474E-1,4.756148E-2,3.9512753E-1,3.8346756E-2,-4.054226E-2,9.7369865E-2,5.4888714E-2,2.2129154E-1,-1.71131E-1,1.0098416E0,2.0079191E-1,9.8397024E-2,-1.4282446E-2,-6.6912696E-3,-4.058441E-2,-1.5959937E-2,-1.3048707E-2,8.602924E-3,1.7391586E-3,-2.1519447E-2,-2.1479498E-3,-9.688682E-3,3.3554086E-3,-2.9626528E-3,9.396074E-3,2.8660752E-2,-2.1877395E-2,5.0056106E-3,1.6436226E-3,-3.7149831E-3,2.5200767E-3,2.3291497E-2,9.906044E-3,1.0071065E-3,9.6414955E-3,2.7031226E-3,1.9547392E-2,-2.6281483E-2,3.3537015E-2,1.7198374E-3,5.098081E-3,1.1189491E-2,2.1652754E-2,2.495998E-3],"categories":[],"categories_nodes":[],"categories_segments":[],"categories_sizes":[],"default_left":[0,0,0,0,0,0,0,0,0,0,0,0,0,0,0,0,0,0,0,0,0,0,0,0,0,0,0,0,0,0,0,0,0,0,0,0,0,0,0,0,0,0,0,0,0,0,0,0,0,0,0,0,0,0,0,0,0,0,0,0,0,0,0],"id":12,"left_children":[1,3,5,7,9,11,13,15,17,19,21,23,25,27,29,31,33,35,37,39,41,43,45,47,49,51,53,55,57,59,61,-1,-1,-1,-1,-1,-1,-1,-1,-1,-1,-1,-1,-1,-1,-1,-1,-1,-1,-1,-1,-1,-1,-1,-1,-1,-1,-1,-1,-1,-1,-1,-1],"loss_changes":[2.5755026E2,7.8163086E1,6.569905E1,4.145131E1,2.5049772E1,2.7975899E1,1.741394E1,3.4066254E1,3.0371744E1,2.1875526E1,8.889072E0,2.2396854E1,1.8082375E1,9.554022E0,1.146727E1,2.3746048E1,1.9174454E1,2.0041687E1,1.0182195E1,1.872604E1,1.1765989E1,7.7608204E0,1.1694355E1,3.7944916E1,1.4118621E1,1.1161184E1,1.3037567E1,5.843794E0,3.7255516E0,1.7676529E1,1.54041815E1,0E0,0E0,0E0,0E0,0E0,0E0,0E0,0E0,0E0,0E0,0E0,0E0,0E0,0E0,0E0,0E0,0E0,0E0,0E0,0E0,0E0,0E0,0E0,0E0,0E0,0E0,0E0,0E0,0E0,0E0,0E0,0E0],"parents":[2147483647,0,0,1,1,2,2,3,3,4,4,5,5,6,6,7,7,8,8,9,9,10,10,11,11,12,12,13,13,14,14,15,15,16,16,17,17,18,18,19,19,20,20,21,21,22,22,23,23,24,24,25,25,26,26,27,27,28,28,29,29,30,30],"right_children":[2,4,6,8,10,12,14,16,18,20,22,24,26,28,30,32,34,36,38,40,42,44,46,48,50,52,54,56,58,60,62,-1,-1,-1,-1,-1,-1,-1,-1,-1,-1,-1,-1,-1,-1,-1,-1,-1,-1,-1,-1,-1,-1,-1,-1,-1,-1,-1,-1,-1,-1,-1,-1],"split_conditions":[-7.417545E-1,-1.5998776E0,-7.718035E-2,1.36E2,1.96E2,1.46E2,3.2605153E-2,1.22E2,2.7983839E1,2.2748387E0,8.564031E-1,-4.4136512E-1,3.850176E6,-1.8327255E-2,1.58E2,1.9E1,2.4682034E1,2.3996081E0,4.059572E0,2E0,1.17E2,2.7736504E0,3.257948E1,3.3541507E-1,8.929164E-1,3.4206203E1,1.017249E0,1.35E2,1.3490725E-2,1.38E2,4.337412E1,-1.4282446E-2,-6.6912696E-3,-4.058441E-2,-1.5959937E-2,-1.3048707E-2,8.602924E-3,1.7391586E-3,-2.1519447E-2,-2.1479498E-3,-9.688682E-3,3.3554086E-3,-2.9626528E-3,9.396074E-3,2.8660752E-2,-2.1877395E-2,5.0056106E-3,1.6436226E-3,-3.7149831E-3,2.5200767E-3,2.3291497E-2,9.906044E-3,1.0071065E-3,9.6414955E-3,2.7031226E-3,1.9547392E-2,-2.6281483E-2,3.3537015E-2,1.7198374E-3,5.098081E-3,1.1189491E-2,2.1652754E-2,2.495998E-3],"split_indices":[1,2,14,21,21,21,15,21,3,12,19,0,16,2,21,21,3,15,18,20,21,15,3,12,0,3,18,21,18,21,3,0,0,0,0,0,0,0,0,0,0,0,0,0,0,0,0,0,0,0,0,0,0,0,0,0,0,0,0,0,0,0,0],"split_type":[0,0,0,0,0,0,0,0,0,0,0,0,0,0,0,0,0,0,0,0,0,0,0,0,0,0,0,0,0,0,0,0,0,0,0,0,0,0,0,0,0,0,0,0,0,0,0,0,0,0,0,0,0,0,0,0,0,0,0,0,0,0,0],"sum_hessian":[2.2180473E4,7.931874E3,1.4248599E4,4.6283867E3,3.3034873E3,9.235384E3,5.0132144E3,3.5149536E3,1.1134329E3,3.0125547E3,2.909327E2,6.338752E3,2.896632E3,4.3910725E1,4.9693037E3,3.2987744E3,2.1617943E2,3.0382242E2,8.0961053E2,1.7638303E3,1.2487242E3,1.746116E2,1.16321106E2,4.777067E3,1.5616853E3,1.9025245E3,9.9410754E2,8.092218E0,3.5818504E1,3.3378984E3,1.6314053E3,4.2616885E2,2.8726055E3,3.3600925E1,1.825785E2,2.5938953E2,4.4432888E1,7.932982E2,1.6312267E1,1.3876111E3,3.762193E2,8.677196E2,3.8100464E2,1.5369513E2,2.0916464E1,1.6010853E1,1.0031026E2,2.2277036E3,2.5493633E3,1.532637E3,2.904834E1,1.3569061E2,1.7668339E3,5.6306104E2,4.310465E2,3.7690384E0,4.32318E0,3.201311E1,3.8053944E0,2.8323425E3,5.0555585E2,3.7719406E1,1.5936858E3],"tree_param":{"num_deleted":"0","num_feature":"23","num_nodes":"63","size_leaf_vector":"1"}},{"base_weights":[1.9221982E-3,-1.1927299E-1,8.582772E-2,-1.5638348E-1,4.382979E-2,3.4673553E-2,1.5448524E-1,-2.793922E-1,-1.0584131E-1,1.4607882E-1,-1.0979327E-1,1.1471088E-1,-6.8428293E-3,5.72141E-1,1.441567E-1,-3.6412704E-1,-1.1544406E-1,2.4097947E-2,-1.7676413E-1,6.706774E-2,3.9336446E-1,-1.3724773E-1,8.1422484E-1,2.7129418E-1,7.401704E-2,-5.630279E-2,9.6182875E-2,-2.5816513E-2,6.685926E-1,1.6207232E-1,3.263327E-2,-6.8143657E-3,-1.8299747E-2,2.7827253E-3,-7.0453053E-3,-9.30451E-5,7.952844E-3,-5.8504734E-3,5.315357E-3,9.175889E-4,1.995036E-2,9.244828E-3,2.2579262E-2,-4.7861296E-3,2.1474658E-2,-3.394085E-2,3.469828E-2,6.9318907E-3,2.1045372E-2,-1.1310708E-3,3.92016E-3,9.366153E-3,-2.025376E-3,8.424452E-3,1.7257779E-3,-2.2572076E-2,1.003454E-2,2.524107E-2,8.4905615E-3,2.186038E-2,4.727435E-3,-3.5144568E-3,3.8516596E-3],"categories":[],"categories_nodes":[],"categories_segments":[],"categories_sizes":[],"default_left":[0,0,0,0,0,0,0,0,0,0,0,0,0,0,0,0,0,0,0,0,0,0,0,0,0,0,0,0,0,0,0,0,0,0,0,0,0,0,0,0,0,0,0,0,0,0,0,0,0,0,0,0,0,0,0,0,0,0,0,0,0,0,0],"id":13,"left_children":[1,3,5,7,9,11,13,15,17,19,21,23,25,27,29,31,33,35,37,39,41,43,45,47,49,51,53,55,57,59,61,-1,-1,-1,-1,-1,-1,-1,-1,-1,-1,-1,-1,-1,-1,-1,-1,-1,-1,-1,-1,-1,-1,-1,-1,-1,-1,-1,-1,-1,-1,-1,-1],"loss_changes":[2.2473277E2,5.4730164E1,4.585923E1,4.5761993E1,2.6351202E1,2.4871265E1,2.3968079E1,2.9747757E1,4.8128624E1,1.9649126E1,1.7122364E1,1.6269386E1,2.5123058E1,7.757778E0,1.0868057E1,4.745793E1,1.822176E1,1.2093024E1,2.1858421E1,1.66538E1,7.2262955E0,1.2512854E1,1.4293301E1,8.958584E0,1.2856675E1,1.378116E1,1.139789E1,5.3839183E0,7.4634094E0,1.181633E1,1.0836239E1,0E0,0E0,0E0,0E0,0E0,0E0,0E0,0E0,0E0,0E0,0E0,0E0,0E0,0E0,0E0,0E0,0E0,0E0,0E0,0E0,0E0,0E0,0E0,0E0,0E0,0E0,0E0,0E0,0E0,0E0,0E0,0E0],"parents":[2147483647,0,0,1,1,2,2,3,3,4,4,5,5,6,6,7,7,8,8,9,9,10,10,11,11,12,12,13,13,14,14,15,15,16,16,17,17,18,18,19,19,20,20,21,21,22,22,23,23,24,24,25,25,26,26,27,27,28,28,29,29,30,30],"right_children":[2,4,6,8,10,12,14,16,18,20,22,24,26,28,30,32,34,36,38,40,42,44,46,48,50,52,54,56,58,60,62,-1,-1,-1,-1,-1,-1,-1,-1,-1,-1,-1,-1,-1,-1,-1,-1,-1,-1,-1,-1,-1,-1,-1,-1,-1,-1,-1,-1,-1,-1,-1,-1],"split_conditions":[3.9118793E1,-5.489356E-1,4.772361E1,3.8E1,3.8264297E-2,8.375345E-1,3.8E1,3.540129E1,6.3736266E-1,-1.0239977E0,3.002004E0,5.1E1,-4.2860827E-1,4.323834E-1,1.430143E0,1.5071724E-1,-2.85317E0,2.04E2,4.108681E0,1.6300496E0,3.787825E1,2.2E2,8.108108E-1,-4.086724E-1,1.06E2,1.49268E4,2.020202E-1,2.0652923E-1,1.6429354E0,-2.7943043E1,7.099067E-1,-6.8143657E-3,-1.8299747E-2,2.7827253E-3,-7.0453053E-3,-9.30451E-5,7.952844E-3,-5.8504734E-3,5.315357E-3,9.175889E-4,1.995036E-2,9.244828E-3,2.2579262E-2,-4.7861296E-3,2.1474658E-2,-3.394085E-2,3.469828E-2,6.9318907E-3,2.1045372E-2,-1.1310708E-3,3.92016E-3,9.366153E-3,-2.025376E-3,8.424452E-3,1.7257779E-3,-2.2572076E-2,1.003454E-2,2.524107E-2,8.4905615E-3,2.186038E-2,4.727435E-3,-3.5144568E-3,3.8516596E-3],"split_indices":[3,1,3,21,12,12,21,3,22,0,15,21,2,17,19,12,11,21,15,15,3,21,18,11,21,16,19,2,19,7,0,0,0,0,0,0,0,0,0,0,0,0,0,0,0,0,0,0,0,0,0,0,0,0,0,0,0,0,0,0,0,0,0],"split_type":[0,0,0,0,0,0,0,0,0,0,0,0,0,0,0,0,0,0,0,0,0,0,0,0,0,0,0,0,0,0,0,0,0,0,0,0,0,0,0,0,0,0,0,0,0,0,0,0,0,0,0,0,0,0,0,0,0,0,0,0,0,0,0],"sum_hessian":[2.2097904E4,9.039953E3,1.3057951E4,7.364388E3,1.6755651E3,7.483659E3,5.5742915E3,2.1433672E3,5.221021E3,1.00602203E3,6.6954297E2,2.5554238E3,4.9282354E3,1.3321172E2,5.44108E3,1.4122435E3,7.3112366E2,1.8437346E3,3.3772861E3,7.633824E2,2.426397E2,6.510504E2,1.8492567E1,5.2595764E2,2.0294663E3,3.3300288E3,1.5982065E3,1.8604473E1,1.1460725E2,4.687591E3,7.5348914E2,9.0818134E2,5.0406223E2,2.6655112E2,4.6457254E2,1.6576371E3,1.8609755E2,3.212098E3,1.6518826E2,7.204762E2,4.2906143E1,1.9762918E2,4.501051E1,6.352645E2,1.5785901E1,2.4224923E0,1.6070074E1,4.8238522E2,4.3572384E1,6.829916E2,1.3464747E3,9.7514E1,3.2325146E3,2.756051E2,1.3226014E3,5.8065934E0,1.2797879E1,7.832675E1,3.628049E1,3.5595463E1,4.651995E3,2.9376096E2,4.5972815E2],"tree_param":{"num_deleted":"0","num_feature":"23","num_nodes":"63","size_leaf_vector":"1"}},{"base_weights":[8.173939E-4,-1.4615822E-1,6.4579725E-2,-2.230882E-1,-2.807853E-2,9.975782E-3,1.3122825E-1,-2.7415752E-1,-6.607426E-2,-6.1180044E-2,2.2469717E-1,-1.4717519E-2,2.2476313E-1,4.0667847E-1,1.1898749E-1,-2.439877E-1,-5.660112E-1,-2.323118E-1,5.514897E-2,-4.4603508E-2,-4.9626732E-1,5.033863E-1,6.272273E-2,1.3954572E-1,-4.9968276E-2,2.4905695E-1,-4.303243E-1,6.5914327E-1,2.3287454E-1,8.084169E-1,1.16516545E-1,-7.890756E-3,-4.544632E-4,-3.7427366E-2,-1.4296177E-2,-8.054643E-3,1.8967004E-2,-3.764757E-2,2.093282E-3,-1.0071344E-2,-6.193196E-4,1.4756872E-2,-1.69552E-2,-2.3262812E-2,1.7444937E-2,-6.7226373E-4,3.1652715E-2,3.7134965E-3,3.38121E-2,-5.222392E-3,-5.1840005E-5,7.857415E-3,-1.8499164E-2,1.0169249E-2,-2.8309114E-2,3.2234974E-2,1.6405042E-2,-6.1316607E-3,1.1227156E-2,-2.7278082E-2,2.8211426E-2,2.1457707E-3,4.5900904E-3],"categories":[],"categories_nodes":[],"categories_segments":[],"categories_sizes":[],"default_left":[0,0,0,0,0,0,0,0,0,0,0,0,0,0,0,0,0,0,0,0,0,0,0,0,0,0,0,0,0,0,0,0,0,0,0,0,0,0,0,0,0,0,0,0,0,0,0,0,0,0,0,0,0,0,0,0,0,0,0,0,0,0,0],"id":14,"left_children":[1,3,5,7,9,11,13,15,17,19,21,23,25,27,29,31,33,35,37,39,41,43,45,47,49,51,53,55,57,59,61,-1,-1,-1,-1,-1,-1,-1,-1,-1,-1,-1,-1,-1,-1,-1,-1,-1,-1,-1,-1,-1,-1,-1,-1,-1,-1,-1,-1,-1,-1,-1,-1],"loss_changes":[2.0799692E2,6.0995148E1,5.633188E1,3.2585876E1,2.218954E1,4.5136158E1,2.3454948E1,2.6874512E1,2.0149292E1,1.6884903E1,1.3830672E1,4.1514565E1,1.40721245E1,1.2842644E1,1.1277908E1,1.2116562E1,1.6886368E1,1.3354916E1,1.1176203E1,1.57511015E1,6.1294537E0,1.1712013E1,1.6527674E1,2.1964834E1,3.7203804E1,9.585945E0,1.2855566E1,5.020252E0,1.1015169E1,6.2207756E0,1.0910133E1,0E0,0E0,0E0,0E0,0E0,0E0,0E0,0E0,0E0,0E0,0E0,0E0,0E0,0E0,0E0,0E0,0E0,0E0,0E0,0E0,0E0,0E0,0E0,0E0,0E0,0E0,0E0,0E0,0E0,0E0,0E0,0E0],"parents":[2147483647,0,0,1,1,2,2,3,3,4,4,5,5,6,6,7,7,8,8,9,9,10,10,11,11,12,12,13,13,14,14,15,15,16,16,17,17,18,18,19,19,20,20,21,21,22,22,23,23,24,24,25,25,26,26,27,27,28,28,29,29,30,30],"right_children":[2,4,6,8,10,12,14,16,18,20,22,24,26,28,30,32,34,36,38,40,42,44,46,48,50,52,54,56,58,60,62,-1,-1,-1,-1,-1,-1,-1,-1,-1,-1,-1,-1,-1,-1,-1,-1,-1,-1,-1,-1,-1,-1,-1,-1,-1,-1,-1,-1,-1,-1,-1,-1],"split_conditions":[-1.7111384E0,-1.5406239E1,4.5592125E1,1.36E2,1.93E2,1.95E2,4.1E1,1.15E2,3.0310846E1,1.84E2,-7.722081E0,1.654314E-1,1.8069179E0,6.6306484E-1,5.1749878E-2,1E2,2.3389917E1,-1.893887E1,-1.4677825E0,1.7E1,-1.1639707E0,-5.652792E0,5.2665524E1,-1.8327255E-2,3.7214546E1,2.3548923E0,2.11E2,-4.157904E0,2E0,4.570172E1,4.594044E-2,-7.890756E-3,-4.544632E-4,-3.7427366E-2,-1.4296177E-2,-8.054643E-3,1.8967004E-2,-3.764757E-2,2.093282E-3,-1.0071344E-2,-6.193196E-4,1.4756872E-2,-1.69552E-2,-2.3262812E-2,1.7444937E-2,-6.7226373E-4,3.1652715E-2,3.7134965E-3,3.38121E-2,-5.222392E-3,-5.1840005E-5,7.857415E-3,-1.8499164E-2,1.0169249E-2,-2.8309114E-2,3.2234974E-2,1.6405042E-2,-6.1316607E-3,1.1227156E-2,-2.7278082E-2,2.8211426E-2,2.1457707E-3,4.5900904E-3],"split_indices":[2,7,3,21,21,21,21,21,3,21,7,12,18,19,12,21,3,7,12,21,12,11,3,2,3,19,21,6,20,3,2,0,0,0,0,0,0,0,0,0,0,0,0,0,0,0,0,0,0,0,0,0,0,0,0,0,0,0,0,0,0,0,0],"split_type":[0,0,0,0,0,0,0,0,0,0,0,0,0,0,0,0,0,0,0,0,0,0,0,0,0,0,0,0,0,0,0,0,0,0,0,0,0,0,0,0,0,0,0,0,0,0,0,0,0,0,0,0,0,0,0,0,0,0,0,0,0,0,0],"sum_hessian":[2.21926E4,6.7143555E3,1.5478245E4,4.0650498E3,2.6493057E3,8.508519E3,6.9697266E3,3.0668127E3,9.982371E2,2.3432146E3,3.0609097E2,7.6320244E3,8.764939E2,2.951789E2,6.674548E3,2.7811523E3,2.856603E2,4.205737E2,5.7766345E2,2.2582783E3,8.493639E1,1.1173491E2,1.9435608E2,1.4190526E3,6.2129717E3,8.457492E2,3.074468E1,1.1921567E2,1.7596323E2,2.2671642E1,6.651876E3,2.567415E3,2.1373749E2,3.1646194E1,2.540141E2,4.0434366E2,1.6230043E1,5.442197E0,5.7222125E2,1.7074284E2,2.0875354E3,5.1365075E0,7.979989E1,5.918142E0,1.05816765E2,1.7990051E2,1.4455571E1,1.3978657E3,2.1186892E1,1.7382456E3,4.474726E3,8.3405963E2,1.1689577E1,1.2440221E1,1.8304459E1,2.3550474E1,9.566519E1,4.2880527E1,1.3308269E2,1.1972718E0,2.147437E1,2.9801113E3,3.6717646E3],"tree_param":{"num_deleted":"0","num_feature":"23","num_nodes":"63","size_leaf_vector":"1"}},{"base_weights":[7.070045E-3,-1.6485962E-1,6.0530476E-2,-2.586026E-1,-5.7463177E-2,5.137833E-3,1.3846272E-1,-2.9063442E-1,1.3049732E-1,5.5123637E-3,-1.8095252E-1,-1.3625911E-2,1.7023961E-1,7.088046E-1,1.3447788E-1,-1.1660276E-1,-3.5081002E-1,5.243301E-1,-1.0093669E-1,-5.2536253E-2,1.4489827E-1,-3.439072E-1,-1.356573E-2,7.897695E-2,-4.403404E-2,2.683112E-1,3.706722E-2,2.3924428E-1,1.2886983E0,9.873151E-2,1.8135585E-1,-9.8838675E-5,-9.759758E-3,-8.831563E-3,-1.6676027E-2,2.2800963E-2,2.337093E-3,2.7561188E-3,-1.4261582E-2,-2.8873766E-3,6.0681864E-3,-1.3741213E-3,7.4986154E-3,6.104222E-4,-1.2522876E-2,1.7936889E-4,-2.9719051E-2,1.3065242E-3,1.0141664E-2,-5.493698E-3,-1.0848042E-4,7.194796E-3,2.8069654E-2,6.141881E-3,-3.34358E-3,1.119643E-2,-1.7381849E-2,-4.8762944E-4,4.0985476E-2,1.4480181E-2,2.7064385E-3,1.34599395E-2,4.9202708E-3],"categories":[],"categories_nodes":[],"categories_segments":[],"categories_sizes":[],"default_left":[0,0,0,0,0,0,0,0,0,0,0,0,0,0,0,0,0,0,0,0,0,0,0,0,0,0,0,0,0,0,0,0,0,0,0,0,0,0,0,0,0,0,0,0,0,0,0,0,0,0,0,0,0,0,0,0,0,0,0,0,0,0,0],"id":15,"left_children":[1,3,5,7,9,11,13,15,17,19,21,23,25,27,29,31,33,35,37,39,41,43,45,47,49,51,53,55,57,59,61,-1,-1,-1,-1,-1,-1,-1,-1,-1,-1,-1,-1,-1,-1,-1,-1,-1,-1,-1,-1,-1,-1,-1,-1,-1,-1,-1,-1,-1,-1,-1,-1],"loss_changes":[2.0380878E2,5.293521E1,7.301601E1,3.503482E1,1.9073544E1,3.0634356E1,1.58758545E1,2.7131653E1,1.9582396E1,1.3157131E1,2.258895E1,2.5007824E1,1.3169989E1,1.290439E1,1.1678314E1,1.5800741E1,2.2138245E1,8.30279E0,9.847708E0,1.2806352E1,9.589669E0,1.1247696E1,7.828696E0,2.0135197E1,3.7582405E1,1.0819965E1,1.0709036E1,3.291522E0,2.1944275E0,1.2913086E1,1.3923248E1,0E0,0E0,0E0,0E0,0E0,0E0,0E0,0E0,0E0,0E0,0E0,0E0,0E0,0E0,0E0,0E0,0E0,0E0,0E0,0E0,0E0,0E0,0E0,0E0,0E0,0E0,0E0,0E0,0E0,0E0,0E0,0E0],"parents":[2147483647,0,0,1,1,2,2,3,3,4,4,5,5,6,6,7,7,8,8,9,9,10,10,11,11,12,12,13,13,14,14,15,15,16,16,17,17,18,18,19,19,20,20,21,21,22,22,23,23,24,24,25,25,26,26,27,27,28,28,29,29,30,30],"right_children":[2,4,6,8,10,12,14,16,18,20,22,24,26,28,30,32,34,36,38,40,42,44,46,48,50,52,54,56,58,60,62,-1,-1,-1,-1,-1,-1,-1,-1,-1,-1,-1,-1,-1,-1,-1,-1,-1,-1,-1,-1,-1,-1,-1,-1,-1,-1,-1,-1,-1,-1,-1,-1],"split_conditions":[-1.0071347E0,3.3963856E1,4.5592125E1,3.074168E0,-1.8962545E0,-2.253444E0,-2.9464087E1,6.4102566E-1,1.0025063E0,2.8317294E0,5E0,-8.21265E-2,5.2718073E-1,3.5762942E0,3.7114847E0,-3.742611E1,2.2256358E0,3.1434717E1,3.013359E1,3.0788186E7,-4.356244E0,4.625478E-1,3.1907086E0,-1.1693103E0,3.6932186E1,-1.1274081E-2,7.0544237E-1,3.3280146E0,-4.0894653E1,3.0669058E-2,2.652474E0,-9.8838675E-5,-9.759758E-3,-8.831563E-3,-1.6676027E-2,2.2800963E-2,2.337093E-3,2.7561188E-3,-1.4261582E-2,-2.8873766E-3,6.0681864E-3,-1.3741213E-3,7.4986154E-3,6.104222E-4,-1.2522876E-2,1.7936889E-4,-2.9719051E-2,1.3065242E-3,1.0141664E-2,-5.493698E-3,-1.0848042E-4,7.194796E-3,2.8069654E-2,6.141881E-3,-3.34358E-3,1.119643E-2,-1.7381849E-2,-4.8762944E-4,4.0985476E-2,1.4480181E-2,2.7064385E-3,1.34599395E-2,4.9202708E-3],"split_indices":[1,3,3,15,14,13,7,18,22,12,20,12,12,15,15,7,17,3,3,16,14,17,6,0,3,0,17,15,7,18,12,0,0,0,0,0,0,0,0,0,0,0,0,0,0,0,0,0,0,0,0,0,0,0,0,0,0,0,0,0,0,0,0],"split_type":[0,0,0,0,0,0,0,0,0,0,0,0,0,0,0,0,0,0,0,0,0,0,0,0,0,0,0,0,0,0,0,0,0,0,0,0,0,0,0,0,0,0,0,0,0,0,0,0,0,0,0,0,0,0,0,0,0,0,0,0,0,0,0],"sum_hessian":[2.2171686E4,5.258423E3,1.6913262E4,2.8069326E3,2.4514905E3,9.886913E3,7.0263496E3,2.5936675E3,2.1326512E2,1.6241714E3,8.2731903E2,8.878763E3,1.00815E3,4.752348E1,6.978826E3,6.67154E2,1.9265134E3,7.846876E1,1.3479637E2,1.1470813E3,4.7709006E2,4.1867514E2,4.086439E2,2.1944219E3,6.684341E3,5.800047E2,4.2814532E2,2.7040445E1,2.0483034E1,3.9612876E3,3.0175383E3,4.3307077E2,2.340832E2,1.512706E3,4.138073E2,5.0895016E1,2.7573742E1,8.9478004E1,4.5318367E1,9.7965485E2,1.6742645E2,1.6966656E2,3.074235E2,7.043549E1,3.4823965E2,4.0160434E2,7.039565E0,1.9314812E3,2.6294073E2,1.5042577E3,5.1800835E3,5.575652E2,2.2439537E1,2.0093451E2,2.2721082E2,2.3705202E1,3.3352444E0,1.1923443E0,1.929069E1,8.475737E1,3.8765303E3,1.8237248E2,2.835166E3],"tree_param":{"num_deleted":"0","num_feature":"23","num_nodes":"63","size_leaf_vector":"1"}},{"base_weights":[6.8003493E-3,-9.6234694E-2,1.0077766E-1,-1.7537908E-1,-9.02029E-3,5.8265317E-2,1.791564E-1,-3.2458687E-1,-1.2377966E-1,-3.045236E-2,2.28472E-1,3.156325E-1,4.2876277E-2,1.5718272E-1,3.270156E-1,-5.244483E-1,-2.6006377E-1,-1.7283264E-1,8.141113E-3,-5.82294E-1,-2.1567693E-2,-4.3146095E-1,2.5928733E-1,2.5300607E-1,9.4093204E-1,-2.7380562E-1,5.4566488E-2,4.466157E-1,1.4566214E-1,-1.3145961E-1,3.8069144E-1,-2.0813208E-2,1.7124298E-3,-5.9367977E-3,-1.3820202E-2,-5.556397E-3,1.2735047E-2,-4.4104825E-3,2.532466E-3,-2.6927482E-2,3.3662857E-3,1.2040613E-2,-9.991653E-4,2.9703747E-2,-1.7592074E-2,1.5683716E-2,4.6775355E-3,8.726977E-3,-1.2916494E-2,3.0461004E-2,-9.572714E-3,-1.2518861E-2,1.0331043E-2,1.2041271E-3,5.3564934E-3,1.6461873E-2,-7.6110996E-3,5.7203295E-3,1.681948E-3,-1.3570208E-2,3.9850282E-3,2.0612791E-2,9.380602E-3],"categories":[],"categories_nodes":[],"categories_segments":[],"categories_sizes":[],"default_left":[0,0,0,0,0,0,0,0,0,0,0,0,0,0,0,0,0,0,0,0,0,0,0,0,0,0,0,0,0,0,0,0,0,0,0,0,0,0,0,0,0,0,0,0,0,0,0,0,0,0,0,0,0,0,0,0,0,0,0,0,0,0,0],"id":16,"left_children":[1,3,5,7,9,11,13,15,17,19,21,23,25,27,29,31,33,35,37,39,41,43,45,47,49,51,53,55,57,59,61,-1,-1,-1,-1,-1,-1,-1,-1,-1,-1,-1,-1,-1,-1,-1,-1,-1,-1,-1,-1,-1,-1,-1,-1,-1,-1,-1,-1,-1,-1,-1,-1],"loss_changes":[2.1425574E2,7.285415E1,3.8548744E1,4.2561813E1,2.5571295E1,2.970785E1,1.3168716E1,1.8191605E1,2.6618149E1,2.2578487E1,8.568581E0,1.6335873E1,2.6232935E1,1.1753632E1,1.2982925E1,3.40969E1,1.3333427E1,2.2252396E1,1.3217732E1,1.6078817E1,2.2529348E1,4.7495217E0,1.0757145E1,1.0125307E1,3.9031792E0,2.2522034E1,1.2212538E1,9.807478E0,1.3743683E1,4.7941504E0,9.593277E0,0E0,0E0,0E0,0E0,0E0,0E0,0E0,0E0,0E0,0E0,0E0,0E0,0E0,0E0,0E0,0E0,0E0,0E0,0E0,0E0,0E0,0E0,0E0,0E0,0E0,0E0,0E0,0E0,0E0,0E0,0E0,0E0],"parents":[2147483647,0,0,1,1,2,2,3,3,4,4,5,5,6,6,7,7,8,8,9,9,10,10,11,11,12,12,13,13,14,14,15,15,16,16,17,17,18,18,19,19,20,20,21,21,22,22,23,23,24,24,25,25,26,26,27,27,28,28,29,29,30,30],"right_children":[2,4,6,8,10,12,14,16,18,20,22,24,26,28,30,32,34,36,38,40,42,44,46,48,50,52,54,56,58,60,62,-1,-1,-1,-1,-1,-1,-1,-1,-1,-1,-1,-1,-1,-1,-1,-1,-1,-1,-1,-1,-1,-1,-1,-1,-1,-1,-1,-1,-1,-1,-1,-1],"split_conditions":[-1.1080365E0,-1.7749138E1,2.0389044E-1,-2.8578823E0,2.05E2,3.8264297E-2,1.3534973E0,2.6417778E1,1.31E2,-5.6137424E0,-4.7512784E0,-1.8327255E-2,2.3E1,1.2496103E0,-4.5454545E0,1.9282511E0,-3.640257E0,-2.767482E0,-3.6123127E1,4.7584186E0,-1.4677825E0,1.01768225E-1,-2.348211E0,-2.9515463E-1,1.6046213E-2,-1.893887E1,3.8054054E0,-6.0475165E-1,1.55E2,1.6429354E0,-5.019173E0,-2.0813208E-2,1.7124298E-3,-5.9367977E-3,-1.3820202E-2,-5.556397E-3,1.2735047E-2,-4.4104825E-3,2.532466E-3,-2.6927482E-2,3.3662857E-3,1.2040613E-2,-9.991653E-4,2.9703747E-2,-1.7592074E-2,1.5683716E-2,4.6775355E-3,8.726977E-3,-1.2916494E-2,3.0461004E-2,-9.572714E-3,-1.2518861E-2,1.0331043E-2,1.2041271E-3,5.3564934E-3,1.6461873E-2,-7.6110996E-3,5.7203295E-3,1.681948E-3,-1.3570208E-2,3.9850282E-3,2.0612791E-2,9.380602E-3],"split_indices":[2,7,14,2,21,12,17,3,21,0,11,2,21,12,13,15,11,13,7,15,12,19,11,0,19,7,15,13,21,19,6,0,0,0,0,0,0,0,0,0,0,0,0,0,0,0,0,0,0,0,0,0,0,0,0,0,0,0,0,0,0,0,0],"split_type":[0,0,0,0,0,0,0,0,0,0,0,0,0,0,0,0,0,0,0,0,0,0,0,0,0,0,0,0,0,0,0,0,0,0,0,0,0,0,0,0,0,0,0,0,0,0,0,0,0,0,0,0,0,0,0,0,0,0,0,0,0,0,0],"sum_hessian":[2.2125096E4,1.0553931E4,1.1571165E4,5.5324194E3,5.021511E3,7.503199E3,4.0679656E3,1.4202512E3,4.112168E3,4.606663E3,4.1484833E2,4.2223343E2,7.080966E3,3.5434316E3,5.245339E2,3.4487305E2,1.0753782E3,2.997338E3,1.1148302E3,7.196962E1,4.5346934E3,1.7926989E1,3.9692133E2,3.850715E2,3.7161934E1,2.512877E2,6.829678E3,1.341978E2,3.409234E3,5.4821747E1,4.6971213E2,2.6695117E2,7.792189E1,8.224737E2,2.5290454E2,2.9371514E3,6.0186703E1,3.6711615E2,7.4771405E2,4.929734E1,2.2672281E1,1.2156141E2,4.413132E3,1.232108E0,1.6694881E1,1.1069268E2,2.8622867E2,3.6539038E2,1.9681114E1,3.5272415E1,1.8895195E0,2.0421135E2,4.707636E1,6.1188975E3,7.107808E2,1.1730939E2,1.6888409E1,2.2684094E3,1.1408246E3,2.4438871E1,3.0382874E1,8.36619E1,3.860502E2],"tree_param":{"num_deleted":"0","num_feature":"23","num_nodes":"63","size_leaf_vector":"1"}},{"base_weights":[-3.1142286E-3,-1.0421202E-1,8.580189E-2,-1.7867419E-1,-3.172425E-2,6.02668E-2,1.7789553E-1,-3.3571652E-1,-1.2631693E-1,-3.5128087E-1,-2.0270666E-2,2.2315966E-2,1.2607455E-1,3.4920347E-1,1.5052383E-1,-2.3555958E-1,-5.063976E-1,5.4281667E-2,-1.696464E-1,-8.3007425E-1,-2.2077484E-1,-2.8283412E-2,3.8584998E-1,1.9665407E-1,4.7997204E-3,2.9051527E-1,1.0739745E-1,2.37784E-1,6.6218954E-1,2.574236E-1,1.1456012E-1,-9.469634E-3,3.7125524E-3,-2.4345469E-2,-1.0032831E-2,9.437531E-3,-3.547741E-3,-3.315053E-3,-7.855097E-3,1.1982372E-2,-3.1991113E-2,2.699894E-3,-1.4154836E-2,-1.2753715E-3,6.618168E-3,1.932588E-2,4.2951282E-4,6.5494324E-3,-1.4100717E-2,5.0187684E-3,-4.554795E-4,-3.237282E-3,1.2102482E-2,5.104241E-4,3.997828E-3,1.2133707E-2,-9.513757E-5,1.7781593E-3,2.4273468E-2,4.743361E-3,1.200134E-2,8.65174E-4,5.4140775E-3],"categories":[],"categories_nodes":[],"categories_segments":[],"categories_sizes":[],"default_left":[0,0,0,0,0,0,0,0,0,0,0,0,0,0,0,0,0,0,0,0,0,0,0,0,0,0,0,0,0,0,0,0,0,0,0,0,0,0,0,0,0,0,0,0,0,0,0,0,0,0,0,0,0,0,0,0,0,0,0,0,0,0,0],"id":17,"left_children":[1,3,5,7,9,11,13,15,17,19,21,23,25,27,29,31,33,35,37,39,41,43,45,47,49,51,53,55,57,59,61,-1,-1,-1,-1,-1,-1,-1,-1,-1,-1,-1,-1,-1,-1,-1,-1,-1,-1,-1,-1,-1,-1,-1,-1,-1,-1,-1,-1,-1,-1,-1,-1],"loss_changes":[1.9874057E2,5.5836113E1,2.7651596E1,4.1917023E1,1.9184652E1,2.3001396E1,1.19186325E1,2.16828E1,2.9970222E1,1.1150085E1,1.6487215E1,1.7842783E1,1.0315392E1,1.2081837E1,8.44025E0,2.3223255E1,2.443E1,3.3344933E1,1.6809372E1,1.1607164E1,1.1268708E1,1.7596668E1,9.400268E0,7.8060207E0,1.724651E1,1.5473267E1,7.073284E0,1.0458733E1,8.064602E0,7.7805557E0,9.318569E0,0E0,0E0,0E0,0E0,0E0,0E0,0E0,0E0,0E0,0E0,0E0,0E0,0E0,0E0,0E0,0E0,0E0,0E0,0E0,0E0,0E0,0E0,0E0,0E0,0E0,0E0,0E0,0E0,0E0,0E0,0E0,0E0],"parents":[2147483647,0,0,1,1,2,2,3,3,4,4,5,5,6,6,7,7,8,8,9,9,10,10,11,11,12,12,13,13,14,14,15,15,16,16,17,17,18,18,19,19,20,20,21,21,22,22,23,23,24,24,25,25,26,26,27,27,28,28,29,29,30,30],"right_children":[2,4,6,8,10,12,14,16,18,20,22,24,26,28,30,32,34,36,38,40,42,44,46,48,50,52,54,56,58,60,62,-1,-1,-1,-1,-1,-1,-1,-1,-1,-1,-1,-1,-1,-1,-1,-1,-1,-1,-1,-1,-1,-1,-1,-1,-1,-1,-1,-1,-1,-1,-1,-1],"split_conditions":[-1.1335841E0,-1.893887E1,-1.6873279E0,-2.8929493E0,-5.4321127E0,3.0374787E0,-7.722081E0,1.8315045E0,-2.3044714E-1,4.557539E-1,4.3015456E-1,1.654314E-1,2.3345041E0,2.8391168E0,-1.3535644E-1,2.786096E7,-3.2843735E1,1.0109763E0,1.0306317E0,1.1711998E0,7.012623E-1,-2.4707527E0,7.9707736E-1,9.8811907E-1,4.0596694E-1,-3.7968225E0,3.7587411E0,5.7878506E-1,7.666249E-1,-3.1695094E-2,4.4517407E-1,-9.469634E-3,3.7125524E-3,-2.4345469E-2,-1.0032831E-2,9.437531E-3,-3.547741E-3,-3.315053E-3,-7.855097E-3,1.1982372E-2,-3.1991113E-2,2.699894E-3,-1.4154836E-2,-1.2753715E-3,6.618168E-3,1.932588E-2,4.2951282E-4,6.5494324E-3,-1.4100717E-2,5.0187684E-3,-4.554795E-4,-3.237282E-3,1.2102482E-2,5.104241E-4,3.997828E-3,1.2133707E-2,-9.513757E-5,1.7781593E-3,2.4273468E-2,4.743361E-3,1.200134E-2,8.65174E-4,5.4140775E-3],"split_indices":[2,7,13,2,2,15,7,17,12,15,11,12,12,15,0,16,7,22,17,17,19,10,19,19,17,10,15,12,17,11,2,0,0,0,0,0,0,0,0,0,0,0,0,0,0,0,0,0,0,0,0,0,0,0,0,0,0,0,0,0,0,0,0],"split_type":[0,0,0,0,0,0,0,0,0,0,0,0,0,0,0,0,0,0,0,0,0,0,0,0,0,0,0,0,0,0,0,0,0,0,0,0,0,0,0,0,0,0,0,0,0,0,0,0,0,0,0,0,0,0,0,0,0,0,0,0,0,0,0],"sum_hessian":[2.2106766E4,1.0344676E4,1.1762089E4,5.102121E3,5.242555E3,9.210046E3,2.552043E3,1.2743563E3,3.8277646E3,1.8037578E2,5.062179E3,5.84222E3,3.3678254E3,3.499702E2,2.2020728E3,8.045945E2,4.6976184E2,7.406129E2,3.0871516E3,3.748659E1,1.4288919E2,4.9651475E3,9.7031815E1,5.324592E2,5.3097607E3,3.420168E2,3.0258086E3,2.5939005E2,9.0580154E1,5.527881E2,1.6492848E3,6.5803253E2,1.4656195E2,1.6798865E2,3.017732E2,2.9489505E2,4.4571786E2,1.8819711E3,1.2051807E3,5.931864E0,3.155473E1,6.413717E1,7.875202E1,4.6974253E3,2.6772235E2,5.6801155E1,4.0230663E1,5.163554E2,1.6103844E1,5.8065125E2,4.72911E3,7.552715E1,2.664897E2,6.735741E2,2.3522346E3,1.5292833E2,1.0646172E2,1.802347E1,7.255669E1,3.271157E2,2.2567242E2,7.1752026E2,9.3176447E2],"tree_param":{"num_deleted":"0","num_feature":"23","num_nodes":"63","size_leaf_vector":"1"}},{"base_weights":[-4.074375E-3,-1.0125536E-1,8.267203E-2,-2.0916118E-1,-3.7888076E-2,4.4478748E-2,1.5007356E-1,-3.3640957E-1,-1.4755455E-1,-6.1074443E-2,2.3235013E-1,2.6532185E-1,2.9715024E-2,1.8082565E-1,8.4557466E-2,-4.9263853E-1,-2.3996736E-1,-3.4344682E-1,-9.4188295E-2,2.7888423E-1,-6.967091E-2,3.5516393E-1,1.1382865E-1,2.2286169E-1,1.1523337E0,-2.4193515E-1,3.97493E-2,-5.2447356E-2,1.9785187E-1,-3.7995625E-2,1.9284105E-1,-9.023821E-3,-2.047595E-2,-5.4902527E-3,-2.5077738E-2,-2.0068165E-2,-6.3336007E-3,-4.7219186E-3,4.0549375E-4,3.6956067E-3,2.1146903E-2,1.0034218E-3,-2.96516E-3,1.7089963E-2,5.584383E-3,7.4500716E-3,-3.8424884E-3,5.998903E-3,2.6535518E-2,7.824671E-3,3.8152885E-2,-1.1976296E-2,1.0555524E-2,8.658202E-4,7.654334E-3,1.0424108E-3,-1.9942654E-2,1.2896301E-2,5.5300985E-3,3.7026338E-3,-5.1274467E-3,9.357215E-3,2.1500657E-3],"categories":[],"categories_nodes":[],"categories_segments":[],"categories_sizes":[],"default_left":[0,0,0,0,0,0,0,0,0,0,0,0,0,0,0,0,0,0,0,0,0,0,0,0,0,0,0,0,0,0,0,0,0,0,0,0,0,0,0,0,0,0,0,0,0,0,0,0,0,0,0,0,0,0,0,0,0,0,0,0,0,0,0],"id":18,"left_children":[1,3,5,7,9,11,13,15,17,19,21,23,25,27,29,31,33,35,37,39,41,43,45,47,49,51,53,55,57,59,61,-1,-1,-1,-1,-1,-1,-1,-1,-1,-1,-1,-1,-1,-1,-1,-1,-1,-1,-1,-1,-1,-1,-1,-1,-1,-1,-1,-1,-1,-1,-1,-1],"loss_changes":[1.87008E2,7.153088E1,3.0166428E1,3.029364E1,4.1323444E1,2.4390022E1,8.525291E0,1.8894394E1,2.7250336E1,1.7766256E1,7.5457287E0,1.739849E1,1.9131668E1,1.1464981E1,1.800206E1,1.7306297E1,2.639793E1,2.3908722E1,1.3974678E1,9.860481E0,1.7819988E1,9.156189E0,8.709594E0,6.6197567E0,1.922823E0,2.3490936E1,1.5861641E1,1.0539345E1,8.350136E0,1.368651E1,1.0366516E1,0E0,0E0,0E0,0E0,0E0,0E0,0E0,0E0,0E0,0E0,0E0,0E0,0E0,0E0,0E0,0E0,0E0,0E0,0E0,0E0,0E0,0E0,0E0,0E0,0E0,0E0,0E0,0E0,0E0,0E0,0E0,0E0],"parents":[2147483647,0,0,1,1,2,2,3,3,4,4,5,5,6,6,7,7,8,8,9,9,10,10,11,11,12,12,13,13,14,14,15,15,16,16,17,17,18,18,19,19,20,20,21,21,22,22,23,23,24,24,25,25,26,26,27,27,28,28,29,29,30,30],"right_children":[2,4,6,8,10,12,14,16,18,20,22,24,26,28,30,32,34,36,38,40,42,44,46,48,50,52,54,56,58,60,62,-1,-1,-1,-1,-1,-1,-1,-1,-1,-1,-1,-1,-1,-1,-1,-1,-1,-1,-1,-1,-1,-1,-1,-1,-1,-1,-1,-1,-1,-1,-1,-1],"split_conditions":[-1.1214894E0,-1.0177128E0,1.5037593E-1,4.3E1,2.05E2,5.1749878E-2,1.58E2,3.1740297E1,2.6417778E1,9.98004E-2,2.17E2,-4.884198E-3,2.3E1,4.581774E1,4.5278138E-1,-4.1962066E-1,-1.5428087E0,-5.4024854E0,1.36E2,4.2528652E1,-3.4083572E-1,-9.684217E0,5.820722E-1,7.901226E7,-4.6454296E1,-1.91387E1,8.9118504E7,4.768595E0,-5.8765354E0,5.388149E1,7.246377E-1,-9.023821E-3,-2.047595E-2,-5.4902527E-3,-2.5077738E-2,-2.0068165E-2,-6.3336007E-3,-4.7219186E-3,4.0549375E-4,3.6956067E-3,2.1146903E-2,1.0034218E-3,-2.96516E-3,1.7089963E-2,5.584383E-3,7.4500716E-3,-3.8424884E-3,5.998903E-3,2.6535518E-2,7.824671E-3,3.8152885E-2,-1.1976296E-2,1.0555524E-2,8.658202E-4,7.654334E-3,1.0424108E-3,-1.9942654E-2,1.2896301E-2,5.5300985E-3,3.7026338E-3,-5.1274467E-3,9.357215E-3,2.1500657E-3],"split_indices":[2,1,14,21,21,12,21,3,3,18,21,2,21,3,18,12,14,14,21,3,12,7,19,16,7,7,16,12,6,3,22,0,0,0,0,0,0,0,0,0,0,0,0,0,0,0,0,0,0,0,0,0,0,0,0,0,0,0,0,0,0,0,0],"split_type":[0,0,0,0,0,0,0,0,0,0,0,0,0,0,0,0,0,0,0,0,0,0,0,0,0,0,0,0,0,0,0,0,0,0,0,0,0,0,0,0,0,0,0,0,0,0,0,0,0,0,0,0,0,0,0,0,0,0,0,0,0,0,0],"sum_hessian":[2.218137E4,1.0461409E4,1.1719961E4,3.8696401E3,6.591769E3,7.48195E3,4.238011E3,1.260865E3,2.6087751E3,6.071601E3,5.201678E2,4.677746E2,7.0141753E3,2.8830146E3,1.3549963E3,4.7969232E2,7.8117267E2,5.5737494E2,2.0514001E3,1.489693E2,5.922632E3,2.5447754E2,2.6569025E2,4.475998E2,2.0174791E1,2.4903845E2,6.765137E3,1.9597108E2,2.6870437E3,6.359221E2,7.1907416E2,2.3990556E2,2.3978676E2,7.14218E2,6.695467E1,1.5993015E2,3.974448E2,1.2924407E3,7.5895953E2,1.10041084E2,3.8928207E1,1.3058489E3,4.6167827E3,1.1110418E2,1.4337337E2,1.7073311E2,9.4957146E1,4.338863E2,1.371351E1,2.7595167E0,1.7415276E1,1.97148E2,5.1890457E1,6.4406826E3,3.244543E2,1.7236856E2,2.3602526E1,1.4620712E2,2.5408364E3,2.8720847E2,3.4871365E2,3.6189508E2,3.571791E2],"tree_param":{"num_deleted":"0","num_feature":"23","num_nodes":"63","size_leaf_vector":"1"}},{"base_weights":[4.3658272E-4,-1.15604535E-1,6.561042E-2,-3.4921694E-1,-8.6261064E-2,2.5342068E-2,1.4726469E-1,-3.842062E-1,2.098555E-1,-1.2870988E-1,5.5043466E-2,6.3882494E-1,2.0714907E-2,3.427188E-1,1.3228053E-1,-1.1959205E-3,-4.264181E-1,1.1139803E0,-6.502336E-2,-3.5927646E-2,-2.0010285E-1,3.2877582E-1,3.6044944E-2,9.5954335E-1,3.0631977E-1,-1.359322E-2,9.511644E-2,1.4655846E-2,4.3312466E-1,-1.4720105E-1,1.4503282E-1,7.3916325E-3,-1.3887336E-2,-1.8891498E-2,-1.0294082E-2,7.797611E-4,4.050716E-2,-8.19376E-3,2.2804808E-2,-1.7499832E-3,8.041465E-3,-1.1986299E-2,-4.706594E-3,3.248219E-2,7.299321E-3,-7.6017843E-4,4.2310166E-3,3.0604165E-2,-9.238625E-3,1.6490202E-2,-5.6176432E-3,-1.1127711E-3,4.678931E-3,-6.966984E-4,4.1782707E-3,-1.2437412E-2,8.359804E-3,8.133528E-3,2.3351712E-2,-1.5793033E-2,5.7340006E-4,3.8341524E-3,9.75659E-3],"categories":[],"categories_nodes":[],"categories_segments":[],"categories_sizes":[],"default_left":[0,0,0,0,0,0,0,0,0,0,0,0,0,0,0,0,0,0,0,0,0,0,0,0,0,0,0,0,0,0,0,0,0,0,0,0,0,0,0,0,0,0,0,0,0,0,0,0,0,0,0,0,0,0,0,0,0,0,0,0,0,0,0],"id":19,"left_children":[1,3,5,7,9,11,13,15,17,19,21,23,25,27,29,31,33,35,37,39,41,43,45,47,49,51,53,55,57,59,61,-1,-1,-1,-1,-1,-1,-1,-1,-1,-1,-1,-1,-1,-1,-1,-1,-1,-1,-1,-1,-1,-1,-1,-1,-1,-1,-1,-1,-1,-1,-1,-1],"loss_changes":[1.6722084E2,5.4481857E1,4.6551197E1,1.7432854E1,4.239098E1,2.6907682E1,1.3649605E1,1.3502121E1,1.321768E1,3.5987976E1,8.480772E0,7.2733326E0,2.4030312E1,9.850182E0,1.5506226E1,9.7060585E0,1.2520447E1,3.1489162E0,7.335158E0,1.611776E1,2.6404762E1,6.5580873E0,9.85214E0,3.0523567E0,4.464114E0,2.5680122E1,1.5529135E1,8.368816E0,1.43601E1,1.1999409E1,1.2858513E1,0E0,0E0,0E0,0E0,0E0,0E0,0E0,0E0,0E0,0E0,0E0,0E0,0E0,0E0,0E0,0E0,0E0,0E0,0E0,0E0,0E0,0E0,0E0,0E0,0E0,0E0,0E0,0E0,0E0,0E0,0E0,0E0],"parents":[2147483647,0,0,1,1,2,2,3,3,4,4,5,5,6,6,7,7,8,8,9,9,10,10,11,11,12,12,13,13,14,14,15,15,16,16,17,17,18,18,19,19,20,20,21,21,22,22,23,23,24,24,25,25,26,26,27,27,28,28,29,29,30,30],"right_children":[2,4,6,8,10,12,14,16,18,20,22,24,26,28,30,32,34,36,38,40,42,44,46,48,50,52,54,56,58,60,62,-1,-1,-1,-1,-1,-1,-1,-1,-1,-1,-1,-1,-1,-1,-1,-1,-1,-1,-1,-1,-1,-1,-1,-1,-1,-1,-1,-1,-1,-1,-1,-1],"split_conditions":[-7.417545E-1,2.2E1,2.7736504E0,-3.5560234E0,2.3949745E0,9.892175E-3,-9.168238E0,2.5665703E-1,-3.9054966E0,7.9787236E-1,1.3960631E-1,1.3490725E-2,1.46E2,-6.7945895E0,-1.4899833E0,1E0,1.131384E6,-3.47578E0,-2.7450995E0,2.06E2,-1.8519518E0,3.2E1,6E0,2.23E2,-9.1800195E-1,-1.3647902E0,2.8816675E5,5.931198E-1,-3.3984232E-1,1.0995471E1,1.2E1,7.3916325E-3,-1.3887336E-2,-1.8891498E-2,-1.0294082E-2,7.797611E-4,4.050716E-2,-8.19376E-3,2.2804808E-2,-1.7499832E-3,8.041465E-3,-1.1986299E-2,-4.706594E-3,3.248219E-2,7.299321E-3,-7.6017843E-4,4.2310166E-3,3.0604165E-2,-9.238625E-3,1.6490202E-2,-5.6176432E-3,-1.1127711E-3,4.678931E-3,-6.966984E-4,4.1782707E-3,-1.2437412E-2,8.359804E-3,8.133528E-3,2.3351712E-2,-1.5793033E-2,5.7340006E-4,3.8341524E-3,9.75659E-3],"split_indices":[1,21,15,10,12,19,6,15,13,18,18,18,21,13,0,4,16,10,10,21,1,21,20,21,10,10,16,19,1,7,20,0,0,0,0,0,0,0,0,0,0,0,0,0,0,0,0,0,0,0,0,0,0,0,0,0,0,0,0,0,0,0,0],"split_type":[0,0,0,0,0,0,0,0,0,0,0,0,0,0,0,0,0,0,0,0,0,0,0,0,0,0,0,0,0,0,0,0,0,0,0,0,0,0,0,0,0,0,0,0,0,0,0,0,0,0,0,0,0,0,0,0,0,0,0,0,0,0,0],"sum_hessian":[2.2108834E4,7.951149E3,1.4157685E4,8.860591E2,7.06509E3,9.482591E3,4.6750933E3,8.34166E2,5.1893097E1,5.4330537E3,1.6320364E3,6.996047E1,9.412631E3,3.313305E2,4.343763E3,8.2909874E1,7.512561E2,1.1386915E1,4.0506184E1,2.3632627E3,3.069791E3,1.0486255E2,1.5271738E3,3.465151E1,3.5308964E1,6.442619E3,2.9700115E3,7.183157E1,2.5949893E2,1.8908997E2,4.154673E3,5.4273426E1,2.863645E1,2.1641278E2,5.348433E2,2.2295732E0,9.157342E0,3.288258E1,7.6236024E0,2.2017844E3,1.6147836E2,5.452511E2,2.5245398E3,9.488376E0,9.537417E1,9.64194E2,5.629798E2,3.3256752E1,1.3947568E0,2.3572863E1,1.1736102E1,5.6591E3,7.8351886E2,8.072325E2,2.1627788E3,2.7138155E1,4.469342E1,1.7783818E2,8.166074E1,5.698541E1,1.3210455E2,3.7936682E3,3.610047E2],"tree_param":{"num_deleted":"0","num_feature":"23","num_nodes":"63","size_leaf_vector":"1"}},{"base_weights":[-1.4239755E-3,-9.4397046E-2,8.3634995E-2,-1.4686477E-1,1.8709413E-3,2.8652644E-2,1.4160462E-1,-3.8537982E-1,-1.1443733E-1,8.601548E-2,-1.00491345E-1,-1.1425476E-1,4.7149558E-2,5.1208454E-1,1.3467568E-1,-4.0091127E-1,6.2421113E-1,-9.3136474E-2,-3.5603568E-1,1.7451385E-2,2.5678253E-1,-1.1428662E-1,6.2739646E-1,9.141239E-2,-1.950459E-1,1.3318036E-1,1.6511554E-2,1.8172337E-1,6.426689E-1,3.8553503E-1,1.2809034E-1,5.4309163E-3,-1.27952555E-2,-1.4695257E-2,2.6171416E-2,-3.1013286E-3,1.1472114E-2,-2.0092063E-2,-7.2180238E-3,-1.2643917E-3,5.5622137E-3,1.3422457E-2,4.8067425E-3,-3.827636E-3,1.8047256E-2,-3.1040525E-2,2.3590099E-2,-1.4716305E-2,4.376251E-3,2.2468077E-2,-6.4171716E-3,4.954332E-3,-9.250381E-3,-2.1100782E-4,5.9543317E-3,2.9293168E-2,-1.2610046E-3,3.340722E-2,1.4449835E-2,-2.0806247E-3,1.6039727E-2,2.9867643E-3,5.76309E-3],"categories":[],"categories_nodes":[],"categories_segments":[],"categories_sizes":[],"default_left":[0,0,0,0,0,0,0,0,0,0,0,0,0,0,0,0,0,0,0,0,0,0,0,0,0,0,0,0,0,0,0,0,0,0,0,0,0,0,0,0,0,0,0,0,0,0,0,0,0,0,0,0,0,0,0,0,0,0,0,0,0,0,0],"id":20,"left_children":[1,3,5,7,9,11,13,15,17,19,21,23,25,27,29,31,33,35,37,39,41,43,45,47,49,51,53,55,57,59,61,-1,-1,-1,-1,-1,-1,-1,-1,-1,-1,-1,-1,-1,-1,-1,-1,-1,-1,-1,-1,-1,-1,-1,-1,-1,-1,-1,-1,-1,-1,-1,-1],"loss_changes":[1.7513277E2,5.3442657E1,3.6857468E1,5.2923157E1,3.21652E1,1.5698238E1,1.4381798E1,1.3095665E1,3.0998955E1,2.3992905E1,1.698968E1,1.1327424E1,1.385452E1,4.3263702E0,9.081802E0,1.2104324E1,3.9669333E0,2.7033535E1,1.7518124E1,1.465693E1,1.073497E1,1.5829046E1,9.132807E0,6.1774254E0,8.865957E0,1.9532549E1,1.6615047E1,5.4774666E0,5.0304375E0,9.594286E0,9.820457E0,0E0,0E0,0E0,0E0,0E0,0E0,0E0,0E0,0E0,0E0,0E0,0E0,0E0,0E0,0E0,0E0,0E0,0E0,0E0,0E0,0E0,0E0,0E0,0E0,0E0,0E0,0E0,0E0,0E0,0E0,0E0,0E0],"parents":[2147483647,0,0,1,1,2,2,3,3,4,4,5,5,6,6,7,7,8,8,9,9,10,10,11,11,12,12,13,13,14,14,15,15,16,16,17,17,18,18,19,19,20,20,21,21,22,22,23,23,24,24,25,25,26,26,27,27,28,28,29,29,30,30],"right_children":[2,4,6,8,10,12,14,16,18,20,22,24,26,28,30,32,34,36,38,40,42,44,46,48,50,52,54,56,58,60,62,-1,-1,-1,-1,-1,-1,-1,-1,-1,-1,-1,-1,-1,-1,-1,-1,-1,-1,-1,-1,-1,-1,-1,-1,-1,-1,-1,-1,-1,-1,-1,-1],"split_conditions":[4.0692814E1,-7.123922E-1,4.7606033E1,2.2E1,1.5071724E-1,-1.340189E0,3.6E1,-2.817737E0,2.6077096E0,-1.3285024E0,-1.3647902E0,-3.963495E-1,-1.2295082E0,4.8576073E1,6.8550384E-1,1.11524165E-1,2.6724356E-1,5.8121634E0,4.190962E-1,1.7050298E0,3.464693E1,3.7587411E0,6.4495325E-2,3.08128E5,1.92292E4,1.6528926E0,-1.3647902E0,-2.3015514E-3,4.766444E-2,8.68414E4,1.1971138E0,5.4309163E-3,-1.27952555E-2,-1.4695257E-2,2.6171416E-2,-3.1013286E-3,1.1472114E-2,-2.0092063E-2,-7.2180238E-3,-1.2643917E-3,5.5622137E-3,1.3422457E-2,4.8067425E-3,-3.827636E-3,1.8047256E-2,-3.1040525E-2,2.3590099E-2,-1.4716305E-2,4.376251E-3,2.2468077E-2,-6.4171716E-3,4.954332E-3,-9.250381E-3,-2.1100782E-4,5.9543317E-3,2.9293168E-2,-1.2610046E-3,3.340722E-2,1.4449835E-2,-2.0806247E-3,1.6039727E-2,2.9867643E-3,5.76309E-3],"split_indices":[3,1,3,21,12,0,21,10,22,14,10,1,11,3,12,15,15,15,15,22,3,15,22,16,16,18,10,0,14,16,14,0,0,0,0,0,0,0,0,0,0,0,0,0,0,0,0,0,0,0,0,0,0,0,0,0,0,0,0,0,0,0,0],"split_type":[0,0,0,0,0,0,0,0,0,0,0,0,0,0,0,0,0,0,0,0,0,0,0,0,0,0,0,0,0,0,0,0,0,0,0,0,0,0,0,0,0,0,0,0,0,0,0,0,0,0,0,0,0,0,0,0,0,0,0,0,0,0,0],"sum_hessian":[2.2143738E4,1.0579637E4,1.1564102E4,6.847244E3,3.7323923E3,5.9357373E3,5.6283643E3,8.182017E2,6.0290425E3,2.0485715E3,1.6838208E3,6.796415E2,5.2560957E3,1.0199399E2,5.52637E3,8.0639905E2,1.18026705E1,5.541825E3,4.872172E2,1.4624789E3,5.860926E2,1.6533291E3,3.0491678E1,1.9164532E2,4.8799615E2,1.3794067E3,3.876689E3,2.9572098E1,7.242189E1,1.3989058E2,5.3864795E3,3.371993E1,7.7267914E2,1.972798E0,9.829872E0,5.4257593E3,1.1606556E2,1.2976712E2,3.5745007E2,1.0799988E3,3.8248004E2,1.9583154E2,3.9026105E2,1.6239762E3,2.935294E1,2.1804304E0,2.8311249E1,1.571518E1,1.7593015E2,8.800451E0,4.791957E2,1.2868706E3,9.253623E1,3.4333933E3,4.4329565E2,5.757915E0,2.3814184E1,1.6945242E1,5.5476643E1,3.4669212E1,1.05221375E2,3.7275867E3,1.658893E3],"tree_param":{"num_deleted":"0","num_feature":"23","num_nodes":"63","size_leaf_vector":"1"}},{"base_weights":[-1.224805E-4,-1.0792695E-1,6.0197867E-2,-3.2301337E-1,-8.108209E-2,2.4049558E-2,1.3275115E-1,-3.6058915E-1,1.9069144E-1,1.92714E-2,-1.3105153E-1,1.0690808E-1,-6.0482784E-3,-3.958608E-2,1.4924285E-1,3.599829E-2,-4.0734136E-1,-9.519785E-1,3.2020378E-1,-4.1414867E-3,3.2573634E-1,-1.8606696E-1,3.659834E-3,3.9068304E-2,2.4227428E-1,-2.875375E-1,1.4123469E-2,-1.0648781E-1,2.091198E-1,3.4531587E-1,1.2823027E-1,-2.4548339E-2,5.7426905E-3,-1.4001619E-2,-4.6096914E-3,9.818036E-3,-5.1174004E-2,3.5439294E-2,4.2418246E-3,3.011489E-4,-1.3923422E-2,-3.3840325E-2,1.0815732E-2,-1.0594698E-2,-3.967029E-3,-1.9878438E-2,5.147135E-4,3.018406E-4,1.5799131E-2,1.5080573E-2,5.5949837E-3,-1.6795103E-2,-3.1346006E-3,-4.1968378E-4,3.5710067E-3,1.0922539E-4,-8.136396E-3,2.031889E-2,1.7073271E-3,2.4929354E-2,8.39096E-3,3.9845337E-3,-1.2959223E-2],"categories":[],"categories_nodes":[],"categories_segments":[],"categories_sizes":[],"default_left":[0,0,0,0,0,0,0,0,0,0,0,0,0,0,0,0,0,0,0,0,0,0,0,0,0,0,0,0,0,0,0,0,0,0,0,0,0,0,0,0,0,0,0,0,0,0,0,0,0,0,0,0,0,0,0,0,0,0,0,0,0,0,0],"id":21,"left_children":[1,3,5,7,9,11,13,15,17,19,21,23,25,27,29,31,33,35,37,39,41,43,45,47,49,51,53,55,57,59,61,-1,-1,-1,-1,-1,-1,-1,-1,-1,-1,-1,-1,-1,-1,-1,-1,-1,-1,-1,-1,-1,-1,-1,-1,-1,-1,-1,-1,-1,-1,-1,-1],"loss_changes":[1.4415924E2,4.589869E1,3.7278183E1,1.7098175E1,3.5468655E1,2.3665098E1,1.3440437E1,1.5263702E1,9.300712E0,1.6876703E1,3.499395E1,2.3210007E1,3.9532967E1,6.904502E0,1.7730644E1,1.1794211E1,1.10119095E1,6.768526E0,8.354993E0,1.4262133E1,8.849173E0,3.0108994E1,1.2332828E1,2.3833115E1,1.2163841E1,2.3147263E1,1.9163595E1,5.925973E0,6.233563E0,1.3056702E1,1.0075798E1,0E0,0E0,0E0,0E0,0E0,0E0,0E0,0E0,0E0,0E0,0E0,0E0,0E0,0E0,0E0,0E0,0E0,0E0,0E0,0E0,0E0,0E0,0E0,0E0,0E0,0E0,0E0,0E0,0E0,0E0,0E0,0E0],"parents":[2147483647,0,0,1,1,2,2,3,3,4,4,5,5,6,6,7,7,8,8,9,9,10,10,11,11,12,12,13,13,14,14,15,15,16,16,17,17,18,18,19,19,20,20,21,21,22,22,23,23,24,24,25,25,26,26,27,27,28,28,29,29,30,30],"right_children":[2,4,6,8,10,12,14,16,18,20,22,24,26,28,30,32,34,36,38,40,42,44,46,48,50,52,54,56,58,60,62,-1,-1,-1,-1,-1,-1,-1,-1,-1,-1,-1,-1,-1,-1,-1,-1,-1,-1,-1,-1,-1,-1,-1,-1,-1,-1,-1,-1,-1,-1,-1,-1],"split_conditions":[-7.417545E-1,2.2E1,2.7736504E0,-3.6080384E0,5.673461E-1,1.654314E-1,-6.7945895E0,2.5665703E-1,2.131582E-1,8E0,1.6630445E0,-3.2E0,3.70194E1,1.94E2,-5.8765354E0,1.4E1,3.9118793E1,6.4034796E-1,1.5432099E-1,5.1994305E0,2.7474666E-1,-1.5830649E0,-6.1648598E1,2.13E2,-2.262977E1,5.7E1,-1.4422187E0,-8.356917E0,6.138556E-1,1.6038492E-1,2.9268293E0,-2.4548339E-2,5.7426905E-3,-1.4001619E-2,-4.6096914E-3,9.818036E-3,-5.1174004E-2,3.5439294E-2,4.2418246E-3,3.011489E-4,-1.3923422E-2,-3.3840325E-2,1.0815732E-2,-1.0594698E-2,-3.967029E-3,-1.9878438E-2,5.147135E-4,3.018406E-4,1.5799131E-2,1.5080573E-2,5.5949837E-3,-1.6795103E-2,-3.1346006E-3,-4.1968378E-4,3.5710067E-3,1.0922539E-4,-8.136396E-3,2.031889E-2,1.7073271E-3,2.4929354E-2,8.39096E-3,3.9845337E-3,-1.2959223E-2],"split_indices":[1,21,15,10,22,12,13,15,15,20,12,13,3,21,6,21,3,17,19,12,17,1,7,21,7,21,10,13,18,22,22,0,0,0,0,0,0,0,0,0,0,0,0,0,0,0,0,0,0,0,0,0,0,0,0,0,0,0,0,0,0,0,0],"split_type":[0,0,0,0,0,0,0,0,0,0,0,0,0,0,0,0,0,0,0,0,0,0,0,0,0,0,0,0,0,0,0,0,0,0,0,0,0,0,0,0,0,0,0,0,0,0,0,0,0,0,0,0,0,0,0,0,0,0,0,0,0,0,0],"sum_hessian":[2.2166787E4,7.9527856E3,1.4214001E4,8.8122235E2,7.0715635E3,9.488077E3,4.7259243E3,8.214352E2,5.978717E1,2.3508906E3,4.720673E3,2.5274695E3,6.9606074E3,4.126242E2,4.3133003E3,8.664841E1,7.347868E2,5.44003E0,5.434714E1,2.1849539E3,1.6593661E2,3.35154E3,1.3691328E3,1.684539E3,8.4293066E2,4.645621E2,6.4960454E3,3.2560773E2,8.701646E1,4.1600742E2,3.8972927E3,1.268143E1,7.396697E1,5.947384E2,1.4004839E2,2.226864E0,3.213166E0,8.380767E0,4.5966373E1,2.1205605E3,6.43933E1,3.1436229E0,1.62793E2,8.1532275E2,2.5362173E3,2.6230064E1,1.3429027E3,1.5909115E3,9.36274E1,1.4727834E2,6.9565234E2,1.8592657E2,2.7863553E2,5.1238623E3,1.372183E3,1.9572914E2,1.298786E2,2.0502726E1,6.651373E1,4.8127804E1,3.678796E2,3.8663936E3,3.0899054E1],"tree_param":{"num_deleted":"0","num_feature":"23","num_nodes":"63","size_leaf_vector":"1"}},{"base_weights":[-2.1166059E-3,-1.0862923E-1,5.6758106E-2,-1.4814167E-1,3.5166383E-2,2.2047961E-2,1.3775654E-1,-8.048707E-2,-2.164624E-1,2.1642454E-1,-4.9613393E-3,2.6321795E-3,1.3461739E-1,3.711342E-1,1.1918648E-1,-1.0088791E-1,1.2449905E-1,-2.4776699E-1,-1.4840976E-2,3.9577225E-1,1.7218203E-3,5.97996E-1,-1.9855043E-2,1.1180205E-1,-2.3273496E-2,2.203783E-1,-7.042266E-3,1.5937802E-1,4.9857306E-1,-3.992075E-3,1.4558764E-1,-4.586764E-3,-1.0278109E-3,7.2225374E-3,-4.0192488E-3,-1.708703E-2,-6.7724525E-3,-7.970109E-3,5.9456616E-3,1.934053E-2,6.5224024E-4,-1.0322511E-2,6.5299496E-3,-7.185476E-3,2.6771609E-2,2.13601E-2,-8.939953E-4,9.505087E-4,8.028495E-3,1.11655E-3,-1.6644408E-3,-7.897339E-3,7.553853E-3,-8.64815E-3,2.0683927E-3,1.4436218E-2,-2.0451155E-3,1.610481E-2,-1.303623E-2,-1.6246322E-3,9.272071E-3,4.5609195E-3,-1.0424292E-2],"categories":[],"categories_nodes":[],"categories_segments":[],"categories_sizes":[],"default_left":[0,0,0,0,0,0,0,0,0,0,0,0,0,0,0,0,0,0,0,0,0,0,0,0,0,0,0,0,0,0,0,0,0,0,0,0,0,0,0,0,0,0,0,0,0,0,0,0,0,0,0,0,0,0,0,0,0,0,0,0,0,0,0],"id":22,"left_children":[1,3,5,7,9,11,13,15,17,19,21,23,25,27,29,31,33,35,37,39,41,43,45,47,49,51,53,55,57,59,61,-1,-1,-1,-1,-1,-1,-1,-1,-1,-1,-1,-1,-1,-1,-1,-1,-1,-1,-1,-1,-1,-1,-1,-1,-1,-1,-1,-1,-1,-1,-1,-1],"loss_changes":[1.3874777E2,4.475612E1,4.0058605E1,2.8542023E1,1.2355524E1,2.1803532E1,1.8479973E1,1.3001911E1,1.9396164E1,1.1855396E1,1.2509382E1,2.4068583E1,1.783018E1,8.409515E0,1.2881165E1,9.7848835E0,8.493673E0,1.8722565E1,2.2182512E1,1.5604345E1,1.0614505E1,8.4928665E0,9.912887E0,2.0367104E1,1.3403238E1,1.395565E1,1.1866958E1,8.795491E0,7.2264595E0,1.1010313E1,1.041465E1,0E0,0E0,0E0,0E0,0E0,0E0,0E0,0E0,0E0,0E0,0E0,0E0,0E0,0E0,0E0,0E0,0E0,0E0,0E0,0E0,0E0,0E0,0E0,0E0,0E0,0E0,0E0,0E0,0E0,0E0,0E0,0E0],"parents":[2147483647,0,0,1,1,2,2,3,3,4,4,5,5,6,6,7,7,8,8,9,9,10,10,11,11,12,12,13,13,14,14,15,15,16,16,17,17,18,18,19,19,20,20,21,21,22,22,23,23,24,24,25,25,26,26,27,27,28,28,29,29,30,30],"right_children":[2,4,6,8,10,12,14,16,18,20,22,24,26,28,30,32,34,36,38,40,42,44,46,48,50,52,54,56,58,60,62,-1,-1,-1,-1,-1,-1,-1,-1,-1,-1,-1,-1,-1,-1,-1,-1,-1,-1,-1,-1,-1,-1,-1,-1,-1,-1,-1,-1,-1,-1,-1,-1],"split_conditions":[-7.500272E-1,-9.1829735E-1,3.002004E0,1.0370705E0,3.6563072E-1,-1.3647902E0,1.9059491E0,3.947117E7,2.427108E0,5.3368914E-1,1.9700551E-2,-6.413127E-2,3.3471603E-2,-1.8808778E-1,-7.567731E-2,-1.1284254E0,-2.471068E0,-4.595159E0,-3.163619E0,1.50569E6,4.8721072E-1,6.043049E-1,-1.9274162E0,-1.6153921E0,6.686157E-1,1.7939E3,-1.057705E0,2.676315E6,1.7866861E0,-3.412046E-2,3.0718954E0,-4.586764E-3,-1.0278109E-3,7.2225374E-3,-4.0192488E-3,-1.708703E-2,-6.7724525E-3,-7.970109E-3,5.9456616E-3,1.934053E-2,6.5224024E-4,-1.0322511E-2,6.5299496E-3,-7.185476E-3,2.6771609E-2,2.13601E-2,-8.939953E-4,9.505087E-4,8.028495E-3,1.11655E-3,-1.6644408E-3,-7.897339E-3,7.553853E-3,-8.64815E-3,2.0683927E-3,1.4436218E-2,-2.0451155E-3,1.610481E-2,-1.303623E-2,-1.6246322E-3,9.272071E-3,4.5609195E-3,-1.0424292E-2],"split_indices":[1,2,15,17,19,10,12,16,15,22,22,12,0,14,11,1,11,0,2,16,18,17,0,2,17,16,10,16,22,0,22,0,0,0,0,0,0,0,0,0,0,0,0,0,0,0,0,0,0,0,0,0,0,0,0,0,0,0,0,0,0,0,0],"split_type":[0,0,0,0,0,0,0,0,0,0,0,0,0,0,0,0,0,0,0,0,0,0,0,0,0,0,0,0,0,0,0,0,0,0,0,0,0,0,0,0,0,0,0,0,0,0,0,0,0,0,0,0,0,0,0,0,0,0,0,0,0,0,0],"sum_hessian":[2.2123674E4,7.875302E3,1.4248372E4,6.17774E3,1.6975619E3,9.97505E3,4.2733223E3,3.105097E3,3.0726433E3,3.068985E2,1.3906635E3,8.508535E3,1.4665142E3,3.1357004E2,3.9597522E3,2.8245017E3,2.805951E2,2.6594907E3,4.1315244E2,1.6675752E2,1.4014098E2,3.257909E1,1.3580844E3,1.6311869E3,6.877348E3,9.1314154E2,5.533726E2,1.1865688E2,1.9491316E2,6.9905493E2,3.2606973E3,1.5856068E3,1.2388949E3,1.9359271E2,8.700238E1,1.687241E2,2.4907666E3,1.8962895E2,2.2352348E2,9.9691E1,6.706652E1,5.3643818E1,8.649716E1,8.521815E0,2.4057276E1,1.72604E1,1.3408239E3,1.0780608E3,5.531261E2,2.3894329E3,4.4879155E3,5.5250435E1,8.578911E2,1.171211E2,4.362515E2,4.8685154E1,6.997173E1,1.8764514E2,7.268014E0,6.0322595E2,9.582894E1,3.219321E3,4.1376175E1],"tree_param":{"num_deleted":"0","num_feature":"23","num_nodes":"63","size_leaf_vector":"1"}},{"base_weights":[1.4373383E-3,-8.98754E-2,6.483245E-2,-1.05430625E-1,1.5511349E-1,2.3474876E-2,1.2595321E-1,-1.721034E-1,-6.7610614E-2,6.880572E-1,1.0855069E-1,9.9989675E-2,-1.3659435E-2,7.8024976E-2,1.696988E-1,-1.9050826E-1,2.4685238E-1,1.3757677E-2,-1.2486155E-1,-5.86492E-2,8.2730293E-1,3.5058686E-1,5.584729E-3,8.9765E-2,7.3049676E-1,-3.0963099E-2,1.1920878E-1,2.8627366E-1,5.2317653E-2,1.10149E0,1.6476609E-1,-9.527862E-3,-3.82975E-3,1.8423341E-2,-1.6243261E-4,-7.7319576E-4,4.251332E-3,-1.518226E-5,-5.2262098E-3,-2.377606E-2,1.0763847E-2,2.7357673E-2,-1.0115055E-2,-1.4029006E-2,1.2039363E-2,1.5055708E-3,-2.2864364E-2,1.0026865E-2,2.114065E-3,2.5089677E-2,-1.198217E-2,-1.2870035E-4,-4.368608E-3,2.2719349E-3,2.1980252E-2,9.812647E-3,-1.6735263E-2,1.3507335E-3,1.9387184E-2,3.7741724E-2,-1.2510561E-3,7.7505005E-3,3.991788E-3],"categories":[],"categories_nodes":[],"categories_segments":[],"categories_sizes":[],"default_left":[0,0,0,0,0,0,0,0,0,0,0,0,0,0,0,0,0,0,0,0,0,0,0,0,0,0,0,0,0,0,0,0,0,0,0,0,0,0,0,0,0,0,0,0,0,0,0,0,0,0,0,0,0,0,0,0,0,0,0,0,0,0,0],"id":23,"left_children":[1,3,5,7,9,11,13,15,17,19,21,23,25,27,29,31,33,35,37,39,41,43,45,47,49,51,53,55,57,59,61,-1,-1,-1,-1,-1,-1,-1,-1,-1,-1,-1,-1,-1,-1,-1,-1,-1,-1,-1,-1,-1,-1,-1,-1,-1,-1,-1,-1,-1,-1,-1,-1],"loss_changes":[1.2817651E2,3.4593376E1,3.303276E1,2.1502846E1,1.3377863E1,2.215199E1,1.1044594E1,2.385405E1,2.5370049E1,4.557989E0,1.24522E1,1.6356743E1,1.2072836E1,1.3468173E1,1.2488052E1,2.3587234E1,1.2081001E1,1.1384519E1,1.9615955E1,2.6587305E0,3.9159012E0,6.377226E0,1.2077758E1,1.1806641E1,5.1780014E0,1.4206247E1,1.608331E1,9.709135E0,9.686836E0,2.6190548E0,8.105148E0,0E0,0E0,0E0,0E0,0E0,0E0,0E0,0E0,0E0,0E0,0E0,0E0,0E0,0E0,0E0,0E0,0E0,0E0,0E0,0E0,0E0,0E0,0E0,0E0,0E0,0E0,0E0,0E0,0E0,0E0,0E0,0E0],"parents":[2147483647,0,0,1,1,2,2,3,3,4,4,5,5,6,6,7,7,8,8,9,9,10,10,11,11,12,12,13,13,14,14,15,15,16,16,17,17,18,18,19,19,20,20,21,21,22,22,23,23,24,24,25,25,26,26,27,27,28,28,29,29,30,30],"right_children":[2,4,6,8,10,12,14,16,18,20,22,24,26,28,30,32,34,36,38,40,42,44,46,48,50,52,54,56,58,60,62,-1,-1,-1,-1,-1,-1,-1,-1,-1,-1,-1,-1,-1,-1,-1,-1,-1,-1,-1,-1,-1,-1,-1,-1,-1,-1,-1,-1,-1,-1,-1,-1],"split_conditions":[3.9118793E1,-9.8394614E-1,4.809694E1,3.1740297E1,4.8113272E-1,8.128206E-1,3.7114847E0,3.409091E0,1.7931142E-1,2.7474666E-1,3.4759438E1,-1.8327255E-2,2.2965042E-1,-4.2800614E-1,-1.7360743E0,-2.8578823E0,1.1813538E0,1.734104E0,6.2028337E-1,1.553398E-1,9.849663E-1,1.7939E3,1.6806723E0,-2.7237436E1,6.880734E-1,1.1972065E0,1.9104836E0,3.5571277E0,6.1756416E1,-6.591642E-1,