{"learner":{"attributes":{"scikit_learn":"{\"_estimator_type\": \"classifier\"}"},"feature_names":["rsi_9","rsi_14","rsi_24","macd_dif_fast_9_21_9","macd_dea_fast_9_21_9","tsi_fast_12_7_7","tsi_fast_12_7_7_signal","atr_14","r_squared","boll_upper_20","boll_mid_20","boll_lower_20","donchian_upper_20","donchian_lower_20","donchian_mid_20","support_price","resistance_price","ema_9","ema_21","wma_9","wma_21","kama_9","kama_21","close","trend_direction_num","pct_ema9","pct_ema21","pct_wma9","pct_kama9","pct_support","pct_resist","pct_boll_mid","ema9_ema21_pct","kama9_kama21_pct","support_atr","resist_atr","boll_width_atr","is_long"],"feature_types":["float","float","float","float","float","float","float","float","float","float","float","float","float","float","float","float","float","float","float","float","float","float","float","float","float","float","float","float","float","float","float","float","float","float","float","float","float","float"],"gradient_booster":{"model":{"cats":{"enc":[],"feature_segments":[],"sorted_idx":[]},"gbtree_model_param":{"num_parallel_tree":"1","num_trees":"100"},"iteration_indptr":[0,1,2,3,4,5,6,7,8,9,10,11,12,13,14,15,16,17,18,19,20,21,22,23,24,25,26,27,28,29,30,31,32,33,34,35,36,37,38,39,40,41,42,43,44,45,46,47,48,49,50,51,52,53,54,55,56,57,58,59,60,61,62,63,64,65,66,67,68,69,70,71,72,73,74,75,76,77,78,79,80,81,82,83,84,85,86,87,88,89,90,91,92,93,94,95,96,97,98,99,100],"tree_info":[0,0,0,0,0,0,0,0,0,0,0,0,0,0,0,0,0,0,0,0,0,0,0,0,0,0,0,0,0,0,0,0,0,0,0,0,0,0,0,0,0,0,0,0,0,0,0,0,0,0,0,0,0,0,0,0,0,0,0,0,0,0,0,0,0,0,0,0,0,0,0,0,0,0,0,0,0,0,0,0,0,0,0,0,0,0,0,0,0,0,0,0,0,0,0,0,0,0,0,0],"trees":[{"base_weights":[-7.0684194E-3,-9.164611E-1,9.1696614E-1,-1.6791824E0,5.760468E-2,1.9538017E-1,1.1835123E0,-5.1555574E-1,-1.8941065E0,-1.1259174E0,4.243942E-1,-8.2286775E-1,4.7381574E-1,7.5482285E-1,1.3002976E0,-4.632301E-2,6.7942278E-3,-5.2062035E-2,-1.03045115E-2,1.2048019E-2,-3.4044277E-2,2.2566555E-2,-4.1724085E-3,-4.021311E-2,1.5141593E-2,2.703145E-3,2.1634996E-2,2.3358108E-2,-2.0088825E-2,-0E0,3.302542E-2],"categories":[],"categories_nodes":[],"categories_segments":[],"categories_sizes":[],"default_left":[0,0,0,0,0,0,0,0,0,0,0,0,0,0,0,0,0,0,0,0,0,0,0,0,0,0,0,0,0,0,0],"id":0,"left_children":[1,3,5,7,9,11,13,15,17,19,21,23,25,27,29,-1,-1,-1,-1,-1,-1,-1,-1,-1,-1,-1,-1,-1,-1,-1,-1],"loss_changes":[4.0534174E2,1.809424E2,4.557022E1,3.2621124E1,4.7427795E1,1.9236362E1,7.2460938E0,2.5173744E1,3.063733E1,1.0739906E1,2.3867432E1,1.776371E1,7.352605E0,1.2347582E1,3.7040405E0,0E0,0E0,0E0,0E0,0E0,0E0,0E0,0E0,0E0,0E0,0E0,0E0,0E0,0E0,0E0,0E0],"parents":[2147483647,0,0,1,1,2,2,3,3,4,4,5,5,6,6,7,7,8,8,9,9,10,10,11,11,12,12,13,13,14,14],"right_children":[2,4,6,8,10,12,14,16,18,20,22,24,26,28,30,-1,-1,-1,-1,-1,-1,-1,-1,-1,-1,-1,-1,-1,-1,-1,-1],"split_conditions":[2.5689245E1,1.87E-1,-5.357237E-1,5.2039833E0,-1.8834081E0,2.686E-2,3.8567394E1,-1.1406614E0,2.1354006E1,2.11509E-3,1.2956811E1,-4.346478E-1,5.735E-1,6.0308483E1,1.293607E-3,-4.632301E-2,6.7942278E-3,-5.2062035E-2,-1.03045115E-2,1.2048019E-2,-3.4044277E-2,2.2566555E-2,-4.1724085E-3,-4.021311E-2,1.5141593E-2,2.703145E-3,2.1634996E-2,2.3358108E-2,-2.0088825E-2,-0E0,3.302542E-2],"split_indices":[34,15,26,29,31,15,34,28,34,8,29,32,14,29,8,0,0,0,0,0,0,0,0,0,0,0,0,0,0,0,0],"split_type":[0,0,0,0,0,0,0,0,0,0,0,0,0,0,0,0,0,0,0,0,0,0,0,0,0,0,0,0,0,0,0],"sum_hessian":[4.797715E2,2.418614E2,2.3791011E2,1.351762E2,1.0668521E2,6.4884575E1,1.7302553E2,2.1836155E1,1.1334004E2,2.4539679E1,8.214553E1,1.3309656E1,5.1574917E1,3.9305077E1,1.3372046E2,7.4866815E0,1.4349473E1,1.0003039E2,1.3309656E1,2.9114873E0,2.1628191E1,4.512805E1,3.7017483E1,8.526499E0,4.783158E0,2.765913E1,2.3915789E1,3.57697E1,3.5353775E0,2.0796337E0,1.3164082E2],"tree_param":{"num_deleted":"0","num_feature":"38","num_nodes":"31","size_leaf_vector":"1"}},{"base_weights":[1.2832217E-2,8.623877E-1,-8.0387646E-1,-0E0,1.082651E0,-1.5307235E0,1.1783478E-1,-6.5264606E-1,6.3609684E-1,-2.500245E-1,1.1181148E0,-4.6697798E-1,-1.881582E0,-7.1927494E-1,5.5826557E-1,-2.3674106E-2,2.0170419E-2,-6.311483E-3,2.200227E-2,1.5693797E-2,-2.8956631E-2,-2.1251088E-2,2.8453222E-2,2.911195E-2,-2.1969086E-2,-5.095532E-2,-1.7306028E-2,-7.8141055E-4,-2.6699757E-2,1.6706971E-2,-3.7693452E-2],"categories":[],"categories_nodes":[],"categories_segments":[],"categories_sizes":[],"default_left":[0,0,0,0,0,0,0,0,0,0,0,0,0,0,0,0,0,0,0,0,0,0,0,0,0,0,0,0,0,0,0],"id":1,"left_children":[1,3,5,7,9,11,13,15,17,19,21,23,25,27,29,-1,-1,-1,-1,-1,-1,-1,-1,-1,-1,-1,-1,-1,-1,-1,-1],"loss_changes":[3.3349472E2,4.4678345E1,1.6451808E2,2.100868E1,9.317764E0,4.9806335E1,4.0755936E1,1.1712088E1,5.92066E0,5.6643434E0,8.49794E0,2.5361774E1,1.7010468E1,8.994041E0,1.7668915E1,0E0,0E0,0E0,0E0,0E0,0E0,0E0,0E0,0E0,0E0,0E0,0E0,0E0,0E0,0E0,0E0],"parents":[2147483647,0,0,1,1,2,2,3,3,4,4,5,5,6,6,7,7,8,8,9,9,10,10,11,11,12,12,13,13,14,14],"right_children":[2,4,6,8,10,12,14,16,18,20,22,24,26,28,30,-1,-1,-1,-1,-1,-1,-1,-1,-1,-1,-1,-1,-1,-1,-1,-1],"split_conditions":[-2.1643589E1,-9.353168E-1,2.089E-1,1.707E-1,-6.919151E1,1.0055866E1,-5.7752544E-1,-2.3961936E-1,2.2969738E1,-4.1990948E1,3.5274937E-4,-9.174257E0,6.9306526E1,5.719509E-1,3.739566E1,-2.3674106E-2,2.0170419E-2,-6.311483E-3,2.200227E-2,1.5693797E-2,-2.8956631E-2,-2.1251088E-2,2.8453222E-2,2.911195E-2,-2.1969086E-2,-5.095532E-2,-1.7306028E-2,-7.8141055E-4,-2.6699757E-2,1.6706971E-2,-3.7693452E-2],"split_indices":[35,26,15,15,30,29,32,32,0,35,9,35,0,9,29,0,0,0,0,0,0,0,0,0,0,0,0,0,0,0,0],"split_type":[0,0,0,0,0,0,0,0,0,0,0,0,0,0,0,0,0,0,0,0,0,0,0,0,0,0,0,0,0,0,0],"sum_hessian":[4.7804385E2,2.343345E2,2.4370937E2,4.800849E1,1.86326E2,1.3583865E2,1.078707E2,2.362126E1,2.4387234E1,4.5528207E0,1.817732E2,3.4513794E1,1.0132487E2,3.6826294E1,7.10444E1,2.009407E1,3.52719E0,5.1559157E0,1.9231318E1,2.4634101E0,2.0894105E0,1.236811E0,1.8053638E2,6.4279127E0,2.808588E1,8.863951E1,1.2685354E1,1.2959797E1,2.3866497E1,6.833359E1,2.7108166E0],"tree_param":{"num_deleted":"0","num_feature":"38","num_nodes":"31","size_leaf_vector":"1"}},{"base_weights":[-8.811442E-4,-8.149542E-1,8.9735174E-1,-1.5855666E0,1.5027311E-1,1.7302653E-1,1.1604996E0,-1.8032935E0,-2.7568763E-1,-9.203775E-1,5.13081E-1,-7.501214E-1,5.178177E-1,1.1771613E0,-1.5565768E-2,-5.2575022E-2,-2.1294696E-2,-2.7014006E-2,1.8695524E-2,7.626321E-3,-3.4517456E-2,1.7498566E-2,-1.21328505E-2,-2.688679E-2,1.6728614E-2,-2.1607657E-3,1.920121E-2,1.48061095E-2,3.0847687E-2],"categories":[],"categories_nodes":[],"categories_segments":[],"categories_sizes":[],"default_left":[0,0,0,0,0,0,0,0,0,0,0,0,0,0,0,0,0,0,0,0,0,0,0,0,0,0,0,0,0],"id":2,"left_children":[1,3,5,7,9,11,13,15,17,19,21,23,25,27,-1,-1,-1,-1,-1,-1,-1,-1,-1,-1,-1,-1,-1,-1,-1],"loss_changes":[3.4831268E2,1.8636235E2,4.2760666E1,3.8831085E1,4.4112892E1,2.0204624E1,5.9326324E0,3.131659E1,1.8740145E1,1.688125E1,1.6250547E1,8.965556E0,7.1040535E0,4.334656E0,0E0,0E0,0E0,0E0,0E0,0E0,0E0,0E0,0E0,0E0,0E0,0E0,0E0,0E0,0E0],"parents":[2147483647,0,0,1,1,2,2,3,3,4,4,5,5,6,6,7,7,8,8,9,9,10,10,11,11,12,12,13,13],"right_children":[2,4,6,8,10,12,14,16,18,20,22,24,26,28,-1,-1,-1,-1,-1,-1,-1,-1,-1,-1,-1,-1,-1,-1,-1],"split_conditions":[2.6496235E1,1.87E-1,-5.357237E-1,1E0,-1.7324216E0,4.222E-2,2.1638594E0,4.5812675E-1,1.40124035E1,3.966E-1,2.7575909E1,5.736653E1,-1.1485915E0,3.3632465E1,-1.5565768E-2,-5.2575022E-2,-2.1294696E-2,-2.7014006E-2,1.8695524E-2,7.626321E-3,-3.4517456E-2,1.7498566E-2,-1.21328505E-2,-2.688679E-2,1.6728614E-2,-2.1607657E-3,1.920121E-2,1.48061095E-2,3.0847687E-2],"split_indices":[34,15,26,24,26,16,33,33,34,16,29,34,33,34,0,0,0,0,0,0,0,0,0,0,0,0,0,0,0],"split_type":[0,0,0,0,0,0,0,0,0,0,0,0,0,0,0,0,0,0,0,0,0,0,0,0,0,0,0,0,0],"sum_hessian":[4.7375098E2,2.4863954E2,2.2511143E2,1.37851E2,1.10788536E2,6.066456E1,1.6444688E2,1.1771799E2,2.0133013E1,2.7465122E1,8.332342E1,1.6002089E1,4.4662468E1,1.6341776E2,1.0291281E0,8.824427E1,2.9473717E1,1.1284378E1,8.848635E0,7.560199E0,1.9904924E1,7.059878E1,1.2724635E1,1.3331387E1,2.670702E0,1.3211398E1,3.145107E1,1.59227E1,1.4749506E2],"tree_param":{"num_deleted":"0","num_feature":"38","num_nodes":"29","size_leaf_vector":"1"}},{"base_weights":[-1.4829559E-2,-8.009489E-1,8.640352E-1,-1.4730545E0,8.29601E-2,-4.4499513E-2,1.0964017E0,-1.6073142E0,-2.1539317E-1,-7.8812265E-1,4.7213566E-1,-7.685753E-1,5.4860604E-1,-1.5283927E-1,1.1327925E0,-4.7515277E-2,-1.7732086E-2,1.1485123E-2,-3.880756E-2,-4.004452E-2,-1.24745555E-2,-1.3407072E-3,2.0950826E-2,-2.5566012E-2,9.896614E-3,1.0340376E-3,2.3427017E-2,1.383224E-2,-3.0558562E-2,1.1978636E-2,3.007916E-2],"categories":[],"categories_nodes":[],"categories_segments":[],"categories_sizes":[],"default_left":[0,0,0,0,0,0,0,0,0,0,0,0,0,0,0,0,0,0,0,0,0,0,0,0,0,0,0,0,0,0,0],"id":3,"left_children":[1,3,5,7,9,11,13,15,17,19,21,23,25,27,29,-1,-1,-1,-1,-1,-1,-1,-1,-1,-1,-1,-1,-1,-1,-1,-1],"loss_changes":[3.3523935E2,1.5248918E2,4.8524826E1,2.3962616E1,3.8359844E1,2.1103514E1,8.621536E0,3.257907E1,1.5130327E1,6.9706E0,1.5177212E1,7.1409187E0,5.1654854E0,5.6545386E0,7.252121E0,0E0,0E0,0E0,0E0,0E0,0E0,0E0,0E0,0E0,0E0,0E0,0E0,0E0,0E0,0E0,0E0],"parents":[2147483647,0,0,1,1,2,2,3,3,4,4,5,5,6,6,7,7,8,8,9,9,10,10,11,11,12,12,13,13,14,14],"right_children":[2,4,6,8,10,12,14,16,18,20,22,24,26,28,30,-1,-1,-1,-1,-1,-1,-1,-1,-1,-1,-1,-1,-1,-1,-1,-1],"split_conditions":[2.6066608E1,2.089E-1,-4.6527025E-1,2.1354006E1,-7.793502E-1,1.707E-1,-1.3374352E0,3.7140656E-1,9.643E-2,3.0637927E0,-7.1392746E0,1E0,-9.157009E-1,6.327934E-3,3.3632465E1,-4.7515277E-2,-1.7732086E-2,1.1485123E-2,-3.880756E-2,-4.004452E-2,-1.24745555E-2,-1.3407072E-3,2.0950826E-2,-2.5566012E-2,9.896614E-3,1.0340376E-3,2.3427017E-2,1.383224E-2,-3.0558562E-2,1.1978636E-2,3.007916E-2],"split_indices":[34,15,32,34,32,15,28,33,12,34,30,24,33,7,34,0,0,0,0,0,0,0,0,0,0,0,0,0,0,0,0],"split_type":[0,0,0,0,0,0,0,0,0,0,0,0,0,0,0,0,0,0,0,0,0,0,0,0,0,0,0,0,0,0,0],"sum_hessian":[4.8263333E2,2.5487973E2,2.2775359E2,1.4435893E2,1.10520805E2,4.6512825E1,1.8124077E2,1.3003618E2,1.4322744E1,3.363863E1,7.688217E1,2.0846716E1,2.566611E1,4.934623E0,1.7630614E2,9.684418E1,3.3192005E1,1.0035737E1,4.287008E0,7.1815987E0,2.6457033E1,3.1892078E1,4.4990093E1,1.7313356E1,3.5333583E0,1.1866911E1,1.3799199E1,3.2938538E0,1.6407691E0,1.8261503E1,1.5804463E2],"tree_param":{"num_deleted":"0","num_feature":"38","num_nodes":"31","size_leaf_vector":"1"}},{"base_weights":[-1.1621676E-2,-7.3695344E-1,8.7803626E-1,-1.343827E0,4.9395073E-2,1.0280619E-1,1.0822424E0,-5.2403057E-1,-1.5910335E0,-8.355446E-1,3.7805322E-1,-1.1478424E0,6.069702E-1,7.535923E-1,1.2207162E0,-4.5765877E-2,4.348661E-3,-4.348304E-2,-1.7958876E-2,1.3942989E-2,-2.7221097E-2,2.6606996E-2,3.694148E-3,-3.3953443E-2,1.47327995E-2,1.8360725E-2,-1.6120655E-2,-2.1681933E-2,2.4199814E-2,-8.082368E-3,3.1106729E-2],"categories":[],"categories_nodes":[],"categories_segments":[],"categories_sizes":[],"default_left":[0,0,0,0,0,0,0,0,0,0,0,0,0,0,0,0,0,0,0,0,0,0,0,0,0,0,0,0,0,0,0],"id":4,"left_children":[1,3,5,7,9,11,13,15,17,19,21,23,25,27,29,-1,-1,-1,-1,-1,-1,-1,-1,-1,-1,-1,-1,-1,-1,-1,-1],"loss_changes":[3.0986612E2,1.2648097E2,3.3871185E1,2.8992828E1,3.4228893E1,3.0167723E1,6.3627167E0,3.401114E1,1.2894836E1,1.2084402E1,1.32458515E1,6.1406803E0,6.0563555E0,1.9913342E1,4.8914795E0,0E0,0E0,0E0,0E0,0E0,0E0,0E0,0E0,0E0,0E0,0E0,0E0,0E0,0E0,0E0,0E0],"parents":[2147483647,0,0,1,1,2,2,3,3,4,4,5,5,6,6,7,7,8,8,9,9,10,10,11,11,12,12,13,13,14,14],"right_children":[2,4,6,8,10,12,14,16,18,20,22,24,26,28,30,-1,-1,-1,-1,-1,-1,-1,-1,-1,-1,-1,-1,-1,-1,-1,-1],"split_conditions":[2.83665E1,2.089E-1,-4.0764257E-1,1.0055866E1,-1.7324216E0,4.708E-2,4.495212E1,2.880564E-1,2.1354006E1,2.11509E-3,5.1414603E-3,0E0,6.452333E-1,-5.66697E1,3.439969E1,-4.5765877E-2,4.348661E-3,-4.348304E-2,-1.7958876E-2,1.3942989E-2,-2.7221097E-2,2.6606996E-2,3.694148E-3,-3.3953443E-2,1.47327995E-2,1.8360725E-2,-1.6120655E-2,-2.1681933E-2,2.4199814E-2,-8.082368E-3,3.1106729E-2],"split_indices":[34,15,32,29,26,15,34,8,34,8,7,24,8,30,2,0,0,0,0,0,0,0,0,0,0,0,0,0,0,0,0],"split_type":[0,0,0,0,0,0,0,0,0,0,0,0,0,0,0,0,0,0,0,0,0,0,0,0,0,0,0,0,0,0,0],"sum_hessian":[4.7760965E2,2.632882E2,2.1432144E2,1.481541E2,1.151341E2,4.5194225E1,1.6912723E2,3.535816E1,1.1279594E2,3.0554445E1,8.457966E1,1.2450628E1,3.27436E1,5.283264E1,1.1629458E2,1.1626729E1,2.3731428E1,9.5211685E1,1.7584251E1,4.3992667E0,2.615518E1,1.9959797E1,6.461986E1,1.1410505E1,1.0401235E0,3.0277859E1,2.4657383E0,5.655077E0,4.7177563E1,1.4349655E0,1.1485962E2],"tree_param":{"num_deleted":"0","num_feature":"38","num_nodes":"31","size_leaf_vector":"1"}},{"base_weights":[5.193582E-4,-7.1691304E-1,8.3538103E-1,-1.3017156E0,7.3503576E-2,1.4727382E-1,1.1004606E0,-1.5988389E-1,-1.5262069E0,-8.08814E-1,4.9959555E-1,-2.7562177E-1,5.8597475E-1,5.342758E-1,1.1678534E0,-3.382455E-2,1.0758596E-2,-4.257472E-2,-7.024613E-3,-1.2698269E-2,-4.815518E-2,1.65326E-2,-1.2922155E-2,-4.432201E-2,-1.2572914E-3,1.7177759E-2,-2.6012147E-2,-3.263176E-2,2.1900125E-2,3.1175052E-3,2.9780267E-2],"categories":[],"categories_nodes":[],"categories_segments":[],"categories_sizes":[],"default_left":[0,0,0,0,0,0,0,0,0,0,0,0,0,0,0,0,0,0,0,0,0,0,0,0,0,0,0,0,0,0,0],"id":5,"left_children":[1,3,5,7,9,11,13,15,17,19,21,23,25,27,29,-1,-1,-1,-1,-1,-1,-1,-1,-1,-1,-1,-1,-1,-1,-1,-1],"loss_changes":[2.9164423E2,1.2126247E2,4.0723038E1,3.8121536E1,4.278398E1,1.2152612E1,5.2073975E0,1.934983E1,2.68378E1,1.0941868E1,1.3072098E1,1.0990247E1,6.1653357E0,1.389427E1,3.1762543E0,0E0,0E0,0E0,0E0,0E0,0E0,0E0,0E0,0E0,0E0,0E0,0E0,0E0,0E0,0E0,0E0],"parents":[2147483647,0,0,1,1,2,2,3,3,4,4,5,5,6,6,7,7,8,8,9,9,10,10,11,11,12,12,13,13,14,14],"right_children":[2,4,6,8,10,12,14,16,18,20,22,24,26,28,30,-1,-1,-1,-1,-1,-1,-1,-1,-1,-1,-1,-1,-1,-1,-1,-1],"split_conditions":[2.6066608E1,2.089E-1,-5.357237E-1,5.8014545E0,-1.3018758E0,4.087429E1,3.3632465E1,-1.1406614E0,2.1354006E1,6.6181817E0,2.7575909E1,-5.980195E1,7.32562E1,-5.543312E1,-2.4328966E1,-3.382455E-2,1.0758596E-2,-4.257472E-2,-7.024613E-3,-1.2698269E-2,-4.815518E-2,1.65326E-2,-1.2922155E-2,-4.432201E-2,-1.2572914E-3,1.7177759E-2,-2.6012147E-2,-3.263176E-2,2.1900125E-2,3.1175052E-3,2.9780267E-2],"split_indices":[34,15,26,29,31,34,34,28,34,30,29,30,29,30,6,0,0,0,0,0,0,0,0,0,0,0,0,0,0,0,0],"split_type":[0,0,0,0,0,0,0,0,0,0,0,0,0,0,0,0,0,0,0,0,0,0,0,0,0,0,0,0,0,0,0],"sum_hessian":[4.8430063E2,2.6050308E2,2.2379756E2,1.4931529E2,1.11187775E2,6.290502E1,1.6089255E2,2.4971882E1,1.24343414E2,3.5752323E1,7.543545E1,3.2159477E1,3.0745543E1,1.8506268E1,1.4238628E2,7.7649946E0,1.7206886E1,1.0839637E2,1.5947044E1,2.972786E1,6.024462E0,6.555859E1,9.87686E0,2.980795E0,2.9178682E1,2.9710398E1,1.0351449E0,2.279184E0,1.6227083E1,3.3925943E0,1.3899368E2],"tree_param":{"num_deleted":"0","num_feature":"38","num_nodes":"31","size_leaf_vector":"1"}},{"base_weights":[-3.521852E-2,-6.4733726E-1,8.9920515E-1,-1.2158054E0,4.184611E-2,1.7540433E-1,1.1347911E0,-1.4344405E0,-3.3544496E-1,-8.224905E-1,3.8219473E-1,-7.411561E-1,4.3053144E-1,2.7550831E-2,1.1523821E0,-1.0092663E-2,-4.1799534E-2,2.8278533E-2,-1.797836E-2,-3.4357674E-2,-1.02473935E-2,1.3568627E-2,-1.5658027E-2,-2.6248032E-2,1.110185E-2,-1.7310392E-2,1.371935E-2,-1.2988071E-2,1.5076633E-2,1.7388342E-2,3.0136853E-2],"categories":[],"categories_nodes":[],"categories_segments":[],"categories_sizes":[],"default_left":[0,0,0,0,0,0,0,0,0,0,0,0,0,0,0,0,0,0,0,0,0,0,0,0,0,0,0,0,0,0,0],"id":6,"left_children":[1,3,5,7,9,11,13,15,17,19,21,23,25,27,29,-1,-1,-1,-1,-1,-1,-1,-1,-1,-1,-1,-1,-1,-1,-1,-1],"loss_changes":[2.73328E2,1.1331914E2,3.1856934E1,2.9679977E1,3.910916E1,1.1626714E1,2.6129913E0,2.985675E1,1.9751156E1,7.635996E0,1.5891247E1,4.641512E0,5.594093E0,1.5637931E0,2.1152344E0,0E0,0E0,0E0,0E0,0E0,0E0,0E0,0E0,0E0,0E0,0E0,0E0,0E0,0E0,0E0,0E0],"parents":[2147483647,0,0,1,1,2,2,3,3,4,4,5,5,6,6,7,7,8,8,9,9,10,10,11,11,12,12,13,13,14,14],"right_children":[2,4,6,8,10,12,14,16,18,20,22,24,26,28,30,-1,-1,-1,-1,-1,-1,-1,-1,-1,-1,-1,-1,-1,-1,-1,-1],"split_conditions":[3.3632465E1,1.707E-1,-5.357237E-1,2.1354006E1,-1.6541917E0,2.686E-2,1.293607E-3,5.8014545E0,1.0340853E1,-3.5288196E0,1.0561233E0,5.736653E1,2.3557434E1,5.0889954E1,3.8567394E1,-1.0092663E-2,-4.1799534E-2,2.8278533E-2,-1.797836E-2,-3.4357674E-2,-1.02473935E-2,1.3568627E-2,-1.5658027E-2,-2.6248032E-2,1.110185E-2,-1.7310392E-2,1.371935E-2,-1.2988071E-2,1.5076633E-2,1.7388342E-2,3.0136853E-2],"split_indices":[34,15,26,34,26,15,8,29,29,31,27,34,1,1,34,0,0,0,0,0,0,0,0,0,0,0,0,0,0,0,0],"split_type":[0,0,0,0,0,0,0,0,0,0,0,0,0,0,0,0,0,0,0,0,0,0,0,0,0,0,0,0,0,0,0],"sum_hessian":[4.752853E2,2.874742E2,1.8781111E2,1.5706882E2,1.304054E2,4.6779823E1,1.4103128E2,1.25075005E2,3.199381E1,3.6238934E1,9.4166466E1,9.561392E0,3.7218433E1,2.3466413E0,1.3868465E2,2.4161987E1,1.0091302E2,6.055313E0,2.5938498E1,1.4103704E1,2.2135231E1,8.183786E1,1.2328606E1,7.770005E0,1.791387E0,2.8636873E0,3.4354744E1,1.1788073E0,1.167834E0,1.6543594E1,1.22141045E2],"tree_param":{"num_deleted":"0","num_feature":"38","num_nodes":"31","size_leaf_vector":"1"}},{"base_weights":[-2.0365788E-2,-7.1417356E-1,8.725136E-1,-1.2781726E0,1.3661327E-2,-2.3396333E-1,9.9996316E-1,-1.4684802E0,-1.9110113E-1,-8.8258046E-1,3.1618834E-1,-8.8001764E-1,7.6896924E-1,6.1690134E-1,1.147818E0,-6.759779E-3,-4.1262623E-2,1.04648275E-2,-3.51801E-2,1.4178208E-2,-2.9026572E-2,1.8970102E-2,-2.9123535E-3,-1.0500531E-2,-3.953146E-2,-2.8379683E-3,2.5238946E-2,3.9748293E-3,2.2874063E-2,1.9643276E-3,2.9308591E-2],"categories":[],"categories_nodes":[],"categories_segments":[],"categories_sizes":[],"default_left":[0,0,0,0,0,0,0,0,0,0,0,0,0,0,0,0,0,0,0,0,0,0,0,0,0,0,0,0,0,0,0],"id":7,"left_children":[1,3,5,7,9,11,13,15,17,19,21,23,25,27,29,-1,-1,-1,-1,-1,-1,-1,-1,-1,-1,-1,-1,-1,-1,-1,-1],"loss_changes":[2.987651E2,1.1157884E2,3.0114334E1,3.112761E1,3.276686E1,1.56318865E1,9.629959E0,2.7569122E1,1.8934904E1,1.3217802E1,1.7520153E1,3.614954E0,2.26546E0,7.311657E0,3.2941284E0,0E0,0E0,0E0,0E0,0E0,0E0,0E0,0E0,0E0,0E0,0E0,0E0,0E0,0E0,0E0,0E0],"parents":[2147483647,0,0,1,1,2,2,3,3,4,4,5,5,6,6,7,7,8,8,9,9,10,10,11,11,12,12,13,13,14,14],"right_children":[2,4,6,8,10,12,14,16,18,20,22,24,26,28,30,-1,-1,-1,-1,-1,-1,-1,-1,-1,-1,-1,-1,-1,-1,-1,-1],"split_conditions":[2.83665E1,1.707E-1,-1.6771171E0,1E0,-1.8834081E0,5.735E-1,-1.0900955E-1,5.8014545E0,1.201971E-3,2.11509E-3,1.2280984E1,6.0308483E1,1.0819607E-1,-4.938251E1,-1.2701414E0,-6.759779E-3,-4.1262623E-2,1.04648275E-2,-3.51801E-2,1.4178208E-2,-2.9026572E-2,1.8970102E-2,-2.9123535E-3,-1.0500531E-2,-3.953146E-2,-2.8379683E-3,2.5238946E-2,3.9748293E-3,2.2874063E-2,1.9643276E-3,2.9308591E-2],"split_indices":[34,15,26,24,31,14,33,29,7,8,29,29,8,30,31,0,0,0,0,0,0,0,0,0,0,0,0,0,0,0,0],"split_type":[0,0,0,0,0,0,0,0,0,0,0,0,0,0,0,0,0,0,0,0,0,0,0,0,0,0,0,0,0,0,0],"sum_hessian":[4.7969644E2,2.701499E2,2.0954654E2,1.5172931E2,1.1842058E2,2.1450348E1,1.8809619E2,1.2865779E2,2.3071522E1,2.9172728E1,8.924785E1,1.320389E1,8.246458E0,5.4443783E1,1.336524E2,1.7467415E1,1.1119038E2,1.5880245E1,7.191276E0,4.425928E0,2.47468E1,4.3747402E1,4.5500446E1,9.314846E0,3.8890438E0,1.824626E0,6.4218316E0,2.2384172E1,3.2059612E1,3.2108526E0,1.3044156E2],"tree_param":{"num_deleted":"0","num_feature":"38","num_nodes":"31","size_leaf_vector":"1"}},{"base_weights":[-2.8339405E-2,-6.774372E-1,7.7807885E-1,-1.2411716E0,9.7409636E-2,4.4550695E-2,1.0655107E0,-1.6044843E0,-7.7577066E-1,-8.25542E-1,4.0242308E-1,-3.3219907E-1,5.5730134E-1,6.2331456E-1,1.1822743E0,-4.1746598E-2,1.5368141E-2,-3.3549324E-2,-9.128729E-4,1.2545108E-2,-2.5224192E-2,2.9570574E-2,5.422063E-3,-1.9324536E-2,9.224874E-3,-2.562221E-3,1.89281E-2,-3.531663E-2,2.2866046E-2,-7.758612E-5,3.011554E-2],"categories":[],"categories_nodes":[],"categories_segments":[],"categories_sizes":[],"default_left":[0,0,0,0,0,0,0,0,0,0,0,0,0,0,0,0,0,0,0,0,0,0,0,0,0,0,0,0,0,0,0],"id":8,"left_children":[1,3,5,7,9,11,13,15,17,19,21,23,25,27,29,-1,-1,-1,-1,-1,-1,-1,-1,-1,-1,-1,-1,-1,-1,-1,-1],"loss_changes":[2.509623E2,1.1632337E2,4.4898987E1,2.4176483E1,3.220633E1,1.2170391E1,6.7836304E0,1.3790985E1,2.9154716E1,7.62776E0,1.1964926E1,1.1609974E1,3.6871471E0,2.2377928E1,3.297287E0,0E0,0E0,0E0,0E0,0E0,0E0,0E0,0E0,0E0,0E0,0E0,0E0,0E0,0E0,0E0,0E0],"parents":[2147483647,0,0,1,1,2,2,3,3,4,4,5,5,6,6,7,7,8,8,9,9,10,10,11,11,12,12,13,13,14,14],"right_children":[2,4,6,8,10,12,14,16,18,20,22,24,26,28,30,-1,-1,-1,-1,-1,-1,-1,-1,-1,-1,-1,-1,-1,-1,-1,-1],"split_conditions":[2.6496235E1,1.87E-1,-5.357237E-1,-2.327579E-1,-1.8834081E0,4.8756745E-1,3.8567394E1,1.4133366E0,-9.631885E0,2.11509E-3,3.211263E-3,-4.346478E-1,7.847757E-3,-5.66697E1,1.293607E-3,-4.1746598E-2,1.5368141E-2,-3.3549324E-2,-9.128729E-4,1.2545108E-2,-2.5224192E-2,2.9570574E-2,5.422063E-3,-1.9324536E-2,9.224874E-3,-2.562221E-3,1.89281E-2,-3.531663E-2,2.2866046E-2,-7.758612E-5,3.011554E-2],"split_indices":[34,15,26,32,31,21,34,25,30,8,7,32,7,30,8,0,0,0,0,0,0,0,0,0,0,0,0,0,0,0,0],"split_type":[0,0,0,0,0,0,0,0,0,0,0,0,0,0,0,0,0,0,0,0,0,0,0,0,0,0,0,0,0,0,0],"sum_hessian":[4.7685428E2,2.643816E2,2.1247267E2,1.526609E2,1.11720695E2,6.03383E1,1.5213437E2,8.3825966E1,6.883494E1,2.7117731E1,8.460297E1,3.493334E1,2.540496E1,3.3680187E1,1.18454185E2,8.178343E1,2.0425336E0,3.83031E1,3.0531837E1,2.952263E0,2.4165468E1,1.4805067E1,6.97979E1,2.1455544E1,1.3477794E1,5.9364157E0,1.9468546E1,3.5466816E0,3.0133505E1,2.1297317E0,1.16324455E2],"tree_param":{"num_deleted":"0","num_feature":"38","num_nodes":"31","size_leaf_vector":"1"}},{"base_weights":[-1.3812552E-2,-6.61171E-1,7.922329E-1,-1.2066163E0,9.060493E-2,-5.0146993E-2,1.0096318E0,-1.3401562E0,-8.886946E-2,-6.899045E-1,4.2193598E-1,-5.804734E-1,6.3346326E-1,1.8607436E-1,1.0756395E0,-3.9186887E-2,-1.4335011E-2,-1.6552795E-2,2.41096E-2,1.4981927E-2,-2.1703696E-2,-4.5672706E-3,1.726826E-2,1.0139822E-2,-2.1996032E-2,-1.2639227E-2,2.0453416E-2,2.547939E-2,-7.2484026E-3,9.927101E-3,2.8579999E-2],"categories":[],"categories_nodes":[],"categories_segments":[],"categories_sizes":[],"default_left":[0,0,0,0,0,0,0,0,0,0,0,0,0,0,0,0,0,0,0,0,0,0,0,0,0,0,0,0,0,0,0],"id":9,"left_children":[1,3,5,7,9,11,13,15,17,19,21,23,25,27,29,-1,-1,-1,-1,-1,-1,-1,-1,-1,-1,-1,-1,-1,-1,-1,-1],"loss_changes":[2.4920653E2,1.0889094E2,3.910948E1,2.2644852E1,2.9452623E1,1.670402E1,8.811737E0,2.251886E1,1.1592825E1,8.501665E0,1.3198963E1,8.178519E0,4.796633E0,6.1040044E0,6.419525E0,0E0,0E0,0E0,0E0,0E0,0E0,0E0,0E0,0E0,0E0,0E0,0E0,0E0,0E0,0E0,0E0],"parents":[2147483647,0,0,1,1,2,2,3,3,4,4,5,5,6,6,7,7,8,8,9,9,10,10,11,11,12,12,13,13,14,14],"right_children":[2,4,6,8,10,12,14,16,18,20,22,24,26,28,30,-1,-1,-1,-1,-1,-1,-1,-1,-1,-1,-1,-1,-1,-1,-1,-1],"split_conditions":[2.6956709E1,1.87E-1,-9.353168E-1,2.1354006E1,-1.4815419E0,4.8756745E-1,-6.590594E-1,4.5812675E-1,1E0,2.11509E-3,-1.1173815E1,3.2789223E0,-4.4633663E1,4.946104E1,3.3632465E1,-3.9186887E-2,-1.4335011E-2,-1.6552795E-2,2.41096E-2,1.4981927E-2,-2.1703696E-2,-4.5672706E-3,1.726826E-2,1.0139822E-2,-2.1996032E-2,-1.2639227E-2,2.0453416E-2,2.547939E-2,-7.2484026E-3,9.927101E-3,2.8579999E-2],"split_indices":[34,15,26,34,31,21,33,33,24,8,30,36,5,29,34,0,0,0,0,0,0,0,0,0,0,0,0,0,0,0,0],"split_type":[0,0,0,0,0,0,0,0,0,0,0,0,0,0,0,0,0,0,0,0,0,0,0,0,0,0,0,0,0,0,0],"sum_hessian":[4.7500992E2,2.6363483E2,2.1137508E2,1.5240504E2,1.11229805E2,4.3471474E1,1.6790361E2,1.3582907E2,1.6575964E1,3.2637543E1,7.859226E1,2.4673136E1,1.8798338E1,1.2939629E1,1.5496397E2,1.0362074E2,3.2208336E1,1.1108038E1,5.467927E0,3.5232337E0,2.911431E1,2.4200342E1,5.4391914E1,5.560963E0,1.9112173E1,2.231907E0,1.6566431E1,4.242025E0,8.697603E0,1.49755125E1,1.3998846E2],"tree_param":{"num_deleted":"0","num_feature":"38","num_nodes":"31","size_leaf_vector":"1"}},{"base_weights":[-1.4333105E-2,8.671046E-1,-6.012499E-1,1.3606514E-1,1.0991287E0,-1.0621518E0,9.2596754E-2,-8.1442386E-1,4.6212727E-1,-1.6521126E-1,1.128393E0,-1.5933124E0,-7.3395824E-1,-7.713189E-1,3.971468E-1,-5.96874E-3,-4.2583022E-2,-5.51982E-3,1.991088E-2,1.258487E-2,-2.6665887E-2,2.9468661E-2,1.206834E-2,-4.1263413E-2,1.1331352E-2,3.8506535E-3,-2.6530912E-2,1.2594238E-2,-2.5019357E-2,1.3855127E-2,-1.2141054E-2],"categories":[],"categories_nodes":[],"categories_segments":[],"categories_sizes":[],"default_left":[0,0,0,0,0,0,0,0,0,0,0,0,0,0,0,0,0,0,0,0,0,0,0,0,0,0,0,0,0,0,0],"id":10,"left_children":[1,3,5,7,9,11,13,15,17,19,21,23,25,27,29,-1,-1,-1,-1,-1,-1,-1,-1,-1,-1,-1,-1,-1,-1,-1,-1],"loss_changes":[2.4616882E2,3.193695E1,9.159817E1,1.51447E1,5.6688843E0,2.820842E1,3.0657988E1,5.6734705E0,8.551251E0,3.3553624E0,3.6796112E0,8.6358185E0,3.1910767E1,9.590534E0,1.2292029E1,0E0,0E0,0E0,0E0,0E0,0E0,0E0,0E0,0E0,0E0,0E0,0E0,0E0,0E0,0E0,0E0],"parents":[2147483647,0,0,1,1,2,2,3,3,4,4,5,5,6,6,7,7,8,8,9,9,10,10,11,11,12,12,13,13,14,14],"right_children":[2,4,6,8,10,12,14,16,18,20,22,24,26,28,30,-1,-1,-1,-1,-1,-1,-1,-1,-1,-1,-1,-1,-1,-1,-1,-1],"split_conditions":[-2.7006657E1,-3.029113E-1,2.089E-1,3.895E-2,-1.1725992E0,-1.1406614E0,-1.8379902E0,5.7528853E-2,-1.1485915E0,4.0974645E-3,-3.1435884E1,3.6374435E-1,1.022065E1,1.949869E-3,1.0561233E0,-5.96874E-3,-4.2583022E-2,-5.51982E-3,1.991088E-2,1.258487E-2,-2.6665887E-2,2.9468661E-2,1.206834E-2,-4.1263413E-2,1.1331352E-2,3.8506535E-3,-2.6530912E-2,1.2594238E-2,-2.5019357E-2,1.3855127E-2,-1.2141054E-2],"split_indices":[35,32,15,15,26,28,26,9,33,7,35,27,29,8,27,0,0,0,0,0,0,0,0,0,0,0,0,0,0,0,0],"split_type":[0,0,0,0,0,0,0,0,0,0,0,0,0,0,0,0,0,0,0,0,0,0,0,0,0,0,0,0,0,0,0],"sum_hessian":[4.7328568E2,1.888611E2,2.844246E2,4.610167E1,1.4275943E2,1.7057239E2,1.1385219E2,1.1199817E1,3.4901855E1,3.0156267E0,1.397438E2,6.311264E1,1.0745975E2,2.906965E1,8.478254E1,7.866756E0,3.333061E0,1.1517119E1,2.3384735E1,1.9972844E0,1.0183423E0,1.284946E2,1.1249213E1,6.16882E1,1.4244382E0,2.9042667E1,7.841708E1,4.1298766E0,2.4939774E1,7.248396E1,1.2298574E1],"tree_param":{"num_deleted":"0","num_feature":"38","num_nodes":"31","size_leaf_vector":"1"}},{"base_weights":[-6.9053995E-4,-6.248197E-1,7.749294E-1,-1.1296796E0,8.488881E-2,7.06043E-2,1.0087031E0,-1.258224E0,-6.440109E-2,-7.9556286E-1,4.1130188E-1,-5.63915E-1,7.38686E-1,-2.3614846E-2,1.0315068E0,-3.726773E-2,-1.2842831E-2,-1.6096149E-2,2.4224626E-2,1.29401935E-2,-2.4356645E-2,-1.2780999E-2,1.4130066E-2,-2.5482658E-2,1.6430796E-3,-7.6196827E-3,2.1807915E-2,1.8835643E-2,3.0072523E-2],"categories":[],"categories_nodes":[],"categories_segments":[],"categories_sizes":[],"default_left":[0,0,0,0,0,0,0,0,0,0,0,0,0,0,0,0,0,0,0,0,0,0,0,0,0,0,0,0,0],"id":11,"left_children":[1,3,5,7,9,11,13,15,17,19,21,23,25,-1,27,-1,-1,-1,-1,-1,-1,-1,-1,-1,-1,-1,-1,-1,-1],"loss_changes":[2.2936987E2,9.4333084E1,3.4576202E1,2.0801208E1,3.208544E1,2.3508892E1,8.329727E0,2.2507217E1,1.1554983E1,7.786232E0,1.1939029E1,8.333414E0,4.168844E0,0E0,6.119446E0,0E0,0E0,0E0,0E0,0E0,0E0,0E0,0E0,0E0,0E0,0E0,0E0,0E0,0E0],"parents":[2147483647,0,0,1,1,2,2,3,3,4,4,5,5,6,6,7,7,8,8,9,9,10,10,11,11,12,12,14,14],"right_children":[2,4,6,8,10,12,14,16,18,20,22,24,26,-1,28,-1,-1,-1,-1,-1,-1,-1,-1,-1,-1,-1,-1,-1,-1],"split_conditions":[2.6496235E1,1.87E-1,-4.0764257E-1,2.1354006E1,-1.7324216E0,4.650685E-1,3.0419028E-6,4.21291E-1,1E0,2.11509E-3,-2.066482E1,-1.676608E-1,-4.4633663E1,-2.3614846E-2,4.783967E1,-3.726773E-2,-1.2842831E-2,-1.6096149E-2,2.4224626E-2,1.29401935E-2,-2.4356645E-2,-1.2780999E-2,1.4130066E-2,-2.5482658E-2,1.6430796E-3,-7.6196827E-3,2.1807915E-2,1.8835643E-2,3.0072523E-2],"split_indices":[34,15,32,34,26,11,7,33,24,8,30,27,5,0,34,0,0,0,0,0,0,0,0,0,0,0,0,0,0],"split_type":[0,0,0,0,0,0,0,0,0,0,0,0,0,0,0,0,0,0,0,0,0,0,0,0,0,0,0,0,0],"sum_hessian":[4.7125024E2,2.6133765E2,2.099126E2,1.523402E2,1.0899745E2,5.2838493E1,1.570741E2,1.3564314E2,1.669705E1,2.8891636E1,8.010581E1,2.7127148E1,2.5711348E1,1.1555846E0,1.5591852E2,1.0227036E2,3.3372784E1,1.1074255E1,5.622794E0,3.0984151E0,2.579322E1,1.09284115E1,6.91774E1,1.5367064E1,1.1760082E1,2.644895E0,2.3066452E1,6.235223E1,9.356629E1],"tree_param":{"num_deleted":"0","num_feature":"38","num_nodes":"29","size_leaf_vector":"1"}},{"base_weights":[2.0918205E-2,-5.7762456E-1,8.4326833E-1,-1.0283897E0,3.1078707E-2,1.8590069E-1,1.0850483E0,-1.1829246E0,-7.888975E-2,-9.5160145E-1,2.855959E-1,-9.2827044E-2,6.988744E-1,7.098379E-1,1.1691215E0,-3.4761347E-2,-1.02144545E-2,1.2602183E-2,-3.3676576E-2,6.692212E-3,-3.2961797E-2,-6.7861523E-3,1.4358173E-2,4.2001563E-3,-3.0415777E-2,-1.5836343E-2,2.05262E-2,2.4664145E-2,-1.9828321E-2,3.50191E-3,2.9410005E-2],"categories":[],"categories_nodes":[],"categories_segments":[],"categories_sizes":[],"default_left":[0,0,0,0,0,0,0,0,0,0,0,0,0,0,0,0,0,0,0,0,0,0,0,0,0,0,0,0,0,0,0],"id":12,"left_children":[1,3,5,7,9,11,13,15,17,19,21,23,25,27,29,-1,-1,-1,-1,-1,-1,-1,-1,-1,-1,-1,-1,-1,-1,-1,-1],"loss_changes":[2.3251816E2,7.5137215E1,3.1243805E1,2.281401E1,2.9663992E1,8.037203E0,3.311386E0,2.0773682E1,1.8328257E1,1.1470854E1,1.5411812E1,1.1153614E1,3.9035044E0,1.3552775E1,5.254822E-1,0E0,0E0,0E0,0E0,0E0,0E0,0E0,0E0,0E0,0E0,0E0,0E0,0E0,0E0,0E0,0E0],"parents":[2147483647,0,0,1,1,2,2,3,3,4,4,5,5,6,6,7,7,8,8,9,9,10,10,11,11,12,12,13,13,14,14],"right_children":[2,4,6,8,10,12,14,16,18,20,22,24,26,28,30,-1,-1,-1,-1,-1,-1,-1,-1,-1,-1,-1,-1,-1,-1,-1,-1],"split_conditions":[2.83665E1,1.87E-1,-5.357237E-1,1E0,-9.6301407E-1,5.638814E-1,3.8567394E1,5.88047E-1,5.783E-2,3.921E-1,-1.4054274E1,4.2536086E-3,-5.455301E1,6.0308483E1,-2.737871E1,-3.4761347E-2,-1.02144545E-2,1.2602183E-2,-3.3676576E-2,6.692212E-3,-3.2961797E-2,-6.7861523E-3,1.4358173E-2,4.2001563E-3,-3.0415777E-2,-1.5836343E-2,2.05262E-2,2.4664145E-2,-1.9828321E-2,3.50191E-3,2.9410005E-2],"split_indices":[34,15,26,24,27,20,34,33,16,13,6,7,5,29,5,0,0,0,0,0,0,0,0,0,0,0,0,0,0,0,0],"split_type":[0,0,0,0,0,0,0,0,0,0,0,0,0,0,0,0,0,0,0,0,0,0,0,0,0,0,0,0,0,0,0],"sum_hessian":[4.6975418E2,2.7202652E2,1.9772765E2,1.5586858E2,1.1615794E2,5.3898354E1,1.438293E2,1.3368578E2,2.2182804E1,2.3082804E1,9.307514E1,3.5486393E1,1.8411959E1,2.8793276E1,1.15036026E2,1.0451238E2,2.9173391E1,1.5679412E1,6.5033913E0,5.357173E0,1.772563E1,3.168244E1,6.13927E1,2.962674E1,5.8596535E0,1.0208247E0,1.7391134E1,2.4749573E1,4.0437036E0,1.0893016E0,1.13946724E2],"tree_param":{"num_deleted":"0","num_feature":"38","num_nodes":"31","size_leaf_vector":"1"}},{"base_weights":[-7.399489E-3,-5.95357E-1,7.398858E-1,-1.0683737E0,8.86915E-2,6.272812E-2,1.0334194E0,-1.2712481E0,-3.9720917E-1,-6.6503716E-1,5.3736824E-1,-8.5017633E-1,3.5955396E-1,4.3776083E-1,1.1062955E0,-3.5529476E-2,3.4613707E-3,1.6114738E-2,-1.9351197E-2,1.7984518E-3,-2.2731392E-2,-1.3543472E-2,1.7107042E-2,-3.1712536E-2,1.6828094E-2,3.269958E-3,1.9463865E-2,-3.6586378E-2,1.8921413E-2,1.3902145E-2,2.8681213E-2],"categories":[],"categories_nodes":[],"categories_segments":[],"categories_sizes":[],"default_left":[0,0,0,0,0,0,0,0,0,0,0,0,0,0,0,0,0,0,0,0,0,0,0,0,0,0,0,0,0,0,0],"id":13,"left_children":[1,3,5,7,9,11,13,15,17,19,21,23,25,27,29,-1,-1,-1,-1,-1,-1,-1,-1,-1,-1,-1,-1,-1,-1,-1,-1],"loss_changes":[2.0880717E2,8.6308655E1,4.1390747E1,2.0619217E1,3.761125E1,1.7894354E1,5.5433197E0,2.5793564E1,1.5798895E1,7.6379967E0,1.15430355E1,1.1487379E1,4.5557218E0,1.2404503E1,1.9040985E0,0E0,0E0,0E0,0E0,0E0,0E0,0E0,0E0,0E0,0E0,0E0,0E0,0E0,0E0,0E0,0E0],"parents":[2147483647,0,0,1,1,2,2,3,3,4,4,5,5,6,6,7,7,8,8,9,9,10,10,11,11,12,12,13,13,14,14],"right_children":[2,4,6,8,10,12,14,16,18,20,22,24,26,28,30,-1,-1,-1,-1,-1,-1,-1,-1,-1,-1,-1,-1,-1,-1,-1,-1],"split_conditions":[2.6066608E1,1.87E-1,-5.357237E-1,3.7140656E-1,-5.7752544E-1,2.686E-2,3.280772E1,2.1354006E1,5.8014545E0,4.26E-1,-9.3701845E-1,5.736653E1,6.8282E-1,-5.702421E1,-4.7527283E-1,-3.5529476E-2,3.4613707E-3,1.6114738E-2,-1.9351197E-2,1.7984518E-3,-2.2731392E-2,-1.3543472E-2,1.7107042E-2,-3.1712536E-2,1.6828094E-2,3.269958E-3,1.9463865E-2,-3.6586378E-2,1.8921413E-2,1.3902145E-2,2.8681213E-2],"split_indices":[34,15,26,33,32,15,34,34,29,14,27,34,10,30,33,0,0,0,0,0,0,0,0,0,0,0,0,0,0,0,0],"split_type":[0,0,0,0,0,0,0,0,0,0,0,0,0,0,0,0,0,0,0,0,0,0,0,0,0,0,0,0,0,0,0],"sum_hessian":[4.726696E2,2.6475824E2,2.0791135E2,1.5617776E2,1.08580475E2,6.3451794E1,1.4445956E2,1.189202E2,3.7257576E1,4.0199642E1,6.838084E1,1.4891563E1,4.856023E1,1.688988E1,1.2756968E2,1.075427E2,1.1377493E1,9.58104E0,2.7676535E1,1.0132008E1,3.0067636E1,7.693823E0,6.068701E1,1.1905263E1,2.9863005E0,3.2668934E1,1.5891297E1,1.7122915E0,1.5177588E1,1.0319538E1,1.1725014E2],"tree_param":{"num_deleted":"0","num_feature":"38","num_nodes":"31","size_leaf_vector":"1"}},{"base_weights":[-2.9080361E-2,-5.13763E-1,8.381158E-1,-9.502934E-1,1.2301319E-1,8.226942E-2,1.0129793E0,-1.148617E0,-1.5700321E-1,-6.251051E-1,3.3430117E-1,-9.906603E-1,4.6556428E-1,5.683916E-1,1.118704E0,1.1748462E-2,-3.1529207E-2,-1.9233488E-2,1.6184364E-2,-4.2283544E-3,-3.0894417E-2,1.1931725E-2,-1.3610932E-2,-3.3465795E-2,-7.720253E-3,-2.6168019E-2,1.4727831E-2,1.6802559E-2,-1.6319586E-2,-1.1035695E-3,2.8376982E-2],"categories":[],"categories_nodes":[],"categories_segments":[],"categories_sizes":[],"default_left":[0,0,0,0,0,0,0,0,0,0,0,0,0,0,0,0,0,0,0,0,0,0,0,0,0,0,0,0,0,0,0],"id":14,"left_children":[1,3,5,7,9,11,13,15,17,19,21,23,25,27,29,-1,-1,-1,-1,-1,-1,-1,-1,-1,-1,-1,-1,-1,-1,-1,-1],"loss_changes":[1.9835907E2,8.4406364E1,2.2141174E1,2.7937134E1,1.9876852E1,1.4244161E1,5.4518585E0,2.701056E1,1.9172283E1,7.3019514E0,1.2619038E1,1.4601679E0,5.518942E0,4.267378E0,2.2552795E0,0E0,0E0,0E0,0E0,0E0,0E0,0E0,0E0,0E0,0E0,0E0,0E0,0E0,0E0,0E0,0E0],"parents":[2147483647,0,0,1,1,2,2,3,3,4,4,5,5,6,6,7,7,8,8,9,9,10,10,11,11,12,12,13,13,14,14],"right_children":[2,4,6,8,10,12,14,16,18,20,22,24,26,28,30,-1,-1,-1,-1,-1,-1,-1,-1,-1,-1,-1,-1,-1,-1,-1,-1],"split_conditions":[3.3632465E1,2.089E-1,-4.4978476E-1,2.1354006E1,-8.8427883E-1,4.797E-2,-3.445832E-1,-5.3932586E0,-3.58286E1,7.143E-1,1.0561233E0,3.9241686E-1,2.429986E1,-3.7169236E-1,4.9219944E-4,1.1748462E-2,-3.1529207E-2,-1.9233488E-2,1.6184364E-2,-4.2283544E-3,-3.0894417E-2,1.1931725E-2,-1.3610932E-2,-3.3465795E-2,-7.720253E-3,-2.6168019E-2,1.4727831E-2,1.6802559E-2,-1.6319586E-2,-1.1035695E-3,2.8376982E-2],"split_indices":[34,15,32,34,27,15,28,29,30,15,27,8,2,28,9,0,0,0,0,0,0,0,0,0,0,0,0,0,0,0,0],"split_type":[0,0,0,0,0,0,0,0,0,0,0,0,0,0,0,0,0,0,0,0,0,0,0,0,0,0,0,0,0,0,0],"sum_hessian":[4.69375E2,3.0150607E2,1.6786894E2,1.7859232E2,1.2291376E2,3.2006123E1,1.3586282E2,1.4230704E2,3.6285286E1,2.6404078E1,9.650968E1,7.8134975E0,2.4192625E1,2.7875826E1,1.0798699E2,8.926212E0,1.3338081E2,2.070469E1,1.5580595E1,1.616096E1,1.0243116E1,8.361373E1,1.28959465E1,4.247161E0,3.5663364E0,1.0324098E0,2.3160215E1,2.6307972E1,1.5678542E0,1.3841527E0,1.0660284E2],"tree_param":{"num_deleted":"0","num_feature":"38","num_nodes":"31","size_leaf_vector":"1"}},{"base_weights":[1.2965508E-2,-5.466594E-1,7.3492455E-1,-9.609871E-1,5.8957253E-2,3.364275E-2,9.740934E-1,-1.2332164E0,-6.094964E-1,-8.777809E-1,3.2491106E-1,-8.83534E-1,4.6764937E-1,6.895192E-1,1.158304E0,-3.346432E-2,4.724137E-3,1.1357824E-2,-2.0938322E-2,-2.4062593E-3,-3.3387963E-2,1.3060457E-2,-1.2607967E-2,-2.6749656E-2,1.1536608E-2,1.4770349E-2,-1.7130604E-2,2.6702926E-2,-1.2771327E-3,2.2207012E-3,2.941798E-2],"categories":[],"categories_nodes":[],"categories_segments":[],"categories_sizes":[],"default_left":[0,0,0,0,0,0,0,0,0,0,0,0,0,0,0,0,0,0,0,0,0,0,0,0,0,0,0,0,0,0,0],"id":15,"left_children":[1,3,5,7,9,11,13,15,17,19,21,23,25,27,29,-1,-1,-1,-1,-1,-1,-1,-1,-1,-1,-1,-1,-1,-1,-1,-1],"loss_changes":[1.9134645E2,6.708701E1,3.455092E1,1.4008362E1,2.7587662E1,2.2013977E1,6.8548126E0,1.3616028E1,1.7981285E1,8.44545E0,1.4477566E1,5.151454E0,5.8584156E0,1.8111341E1,1.5379791E0,0E0,0E0,0E0,0E0,0E0,0E0,0E0,0E0,0E0,0E0,0E0,0E0,0E0,0E0,0E0,0E0],"parents":[2147483647,0,0,1,1,2,2,3,3,4,4,5,5,6,6,7,7,8,8,9,9,10,10,11,11,12,12,13,13,14,14],"right_children":[2,4,6,8,10,12,14,16,18,20,22,24,26,28,30,-1,-1,-1,-1,-1,-1,-1,-1,-1,-1,-1,-1,-1,-1,-1,-1],"split_conditions":[2.6066608E1,1.87E-1,-4.0764257E-1,-2.327579E-1,-9.6301407E-1,4.373E-2,4.876688E1,2.0173773E1,5.2039833E0,7.443E-1,2.4770641E1,6.1308324E-1,6.452333E-1,5.1026443E1,-1.1434646E0,-3.346432E-2,4.724137E-3,1.1357824E-2,-2.0938322E-2,-2.4062593E-3,-3.3387963E-2,1.3060457E-2,-1.2607967E-2,-2.6749656E-2,1.1536608E-2,1.4770349E-2,-1.7130604E-2,2.6702926E-2,-1.2771327E-3,2.2207012E-3,2.941798E-2],"split_indices":[34,15,32,32,27,15,34,34,29,12,29,27,8,29,26,0,0,0,0,0,0,0,0,0,0,0,0,0,0,0,0],"split_type":[0,0,0,0,0,0,0,0,0,0,0,0,0,0,0,0,0,0,0,0,0,0,0,0,0,0,0,0,0,0,0],"sum_hessian":[4.7095972E2,2.6540714E2,2.0555258E2,1.5723701E2,1.0817011E2,5.2758133E1,1.5279445E2,8.6611145E1,7.062586E1,2.317541E1,8.4994705E1,1.643966E1,3.6318474E1,6.2677387E1,9.0117065E1,8.077408E1,5.8370643E0,1.2161757E1,5.8464108E1,9.221927E0,1.3953482E1,6.9130646E1,1.5864058E1,1.4736897E1,1.7027612E0,3.346396E1,2.8545156E0,4.1184143E1,2.1493242E1,1.7455293E0,8.837154E1],"tree_param":{"num_deleted":"0","num_feature":"38","num_nodes":"31","size_leaf_vector":"1"}},{"base_weights":[6.537963E-3,-5.4792166E-1,6.774563E-1,-9.6314764E-1,-1.7436919E-3,-2.063583E-1,9.094291E-1,-1.1325697E0,-3.4282145E-1,-7.575561E-1,2.5777423E-1,-6.289978E-1,5.3772676E-1,2.745127E-1,9.775412E-1,-0E0,-3.073532E-2,-1.9638764E-2,7.033419E-3,-5.358837E-3,-3.2090724E-2,-2.3226911E-2,1.1513467E-2,-3.850435E-2,-9.3474565E-3,-1.2142773E-2,1.8661415E-2,-5.4845274E-3,2.4593135E-2,2.518484E-2,-8.3049985E-5],"categories":[],"categories_nodes":[],"categories_segments":[],"categories_sizes":[],"default_left":[0,0,0,0,0,0,0,0,0,0,0,0,0,0,0,0,0,0,0,0,0,0,0,0,0,0,0,0,0,0,0],"id":16,"left_children":[1,3,5,7,9,11,13,15,17,19,21,23,25,27,29,-1,-1,-1,-1,-1,-1,-1,-1,-1,-1,-1,-1,-1,-1,-1,-1],"loss_changes":[1.7248282E2,5.7454163E1,4.3340057E1,1.4488403E1,2.2078192E1,1.4474636E1,6.7289124E0,1.2394562E1,9.428124E0,7.723299E0,2.0605602E1,5.830678E0,4.080114E0,6.692383E0,4.4903107E0,0E0,0E0,0E0,0E0,0E0,0E0,0E0,0E0,0E0,0E0,0E0,0E0,0E0,0E0,0E0,0E0],"parents":[2147483647,0,0,1,1,2,2,3,3,4,4,5,5,6,6,7,7,8,8,9,9,10,10,11,11,12,12,13,13,14,14],"right_children":[2,4,6,8,10,12,14,16,18,20,22,24,26,28,30,-1,-1,-1,-1,-1,-1,-1,-1,-1,-1,-1,-1,-1,-1,-1,-1],"split_conditions":[2.3419687E1,1.988E-1,-1.0826472E0,5.88047E-1,-1.8654357E0,5.696025E-1,-6.590594E-1,-1.2381862E0,-9.853748E0,4.340741E0,-1.9476599E1,2.9790168E0,2.3557434E1,4.381152E0,1.3521627E0,-0E0,-3.073532E-2,-1.9638764E-2,7.033419E-3,-5.358837E-3,-3.2090724E-2,-2.3226911E-2,1.1513467E-2,-3.850435E-2,-9.3474565E-3,-1.2142773E-2,1.8661415E-2,-5.4845274E-3,2.4593135E-2,2.518484E-2,-8.3049985E-5],"split_indices":[34,16,26,33,26,21,33,34,30,36,30,36,1,36,32,0,0,0,0,0,0,0,0,0,0,0,0,0,0,0,0],"split_type":[0,0,0,0,0,0,0,0,0,0,0,0,0,0,0,0,0,0,0,0,0,0,0,0,0,0,0,0,0,0,0],"sum_hessian":[4.6103503E2,2.5247456E2,2.0856047E2,1.4276411E2,1.0971045E2,4.3300045E1,1.6526044E2,1.1116758E2,3.1596533E1,2.7502752E1,8.2207695E1,2.7828789E1,1.5471257E1,1.6786879E1,1.4847356E2,8.820271E0,1.0234731E2,1.8381908E1,1.3214624E1,1.4524794E1,1.2977959E1,1.1243826E1,7.096387E1,4.568828E0,2.325996E1,2.2474515E0,1.3223805E1,1.0341768E1,6.4451103E0,1.4415308E2,4.320482E0],"tree_param":{"num_deleted":"0","num_feature":"38","num_nodes":"31","size_leaf_vector":"1"}},{"base_weights":[-4.806017E-2,-4.9249083E-1,7.613822E-1,-8.8095707E-1,1.0176489E-1,2.542047E-2,1.0323633E0,-1.0665684E0,-1.558791E-1,-6.354747E-1,3.376283E-1,-8.4130746E-1,2.6832575E-1,3.160165E-1,1.0903838E0,-3.1390984E-2,-9.456407E-3,-1.6778609E-2,1.424466E-2,-3.852066E-2,-8.161504E-3,1.1884626E-2,-1.2585844E-2,-3.115197E-2,1.1730686E-2,-2.5949141E-2,1.0328688E-2,1.4723691E-2,-1.8968454E-2,2.7665649E-2,-5.5869953E-3],"categories":[],"categories_nodes":[],"categories_segments":[],"categories_sizes":[],"default_left":[0,0,0,0,0,0,0,0,0,0,0,0,0,0,0,0,0,0,0,0,0,0,0,0,0,0,0,0,0,0,0],"id":17,"left_children":[1,3,5,7,9,11,13,15,17,19,21,23,25,27,29,-1,-1,-1,-1,-1,-1,-1,-1,-1,-1,-1,-1,-1,-1,-1,-1],"loss_changes":[1.6710762E2,6.942969E1,3.269159E1,2.4101425E1,2.1049511E1,9.864856E0,4.406845E0,1.7992188E1,1.4956783E1,7.368265E0,1.0918663E1,6.2675786E0,7.4566097E0,3.780363E0,2.7684479E0,0E0,0E0,0E0,0E0,0E0,0E0,0E0,0E0,0E0,0E0,0E0,0E0,0E0,0E0,0E0,0E0],"parents":[2147483647,0,0,1,1,2,2,3,3,4,4,5,5,6,6,7,7,8,8,9,9,10,10,11,11,12,12,13,13,14,14],"right_children":[2,4,6,8,10,12,14,16,18,20,22,24,26,28,30,-1,-1,-1,-1,-1,-1,-1,-1,-1,-1,-1,-1,-1,-1,-1,-1],"split_conditions":[3.3632465E1,1.87E-1,-5.357237E-1,2.1354006E1,-1.1098737E0,6.013699E-2,-4.7527283E-1,4.8716518E-1,-3.58286E1,3.0637927E0,1.0561233E0,5.736653E1,2.3557434E1,7.6192975E0,1.6192251E0,-3.1390984E-2,-9.456407E-3,-1.6778609E-2,1.424466E-2,-3.852066E-2,-8.161504E-3,1.1884626E-2,-1.2585844E-2,-3.115197E-2,1.1730686E-2,-2.5949141E-2,1.0328688E-2,1.4723691E-2,-1.8968454E-2,2.7665649E-2,-5.5869953E-3],"split_indices":[34,15,26,34,25,11,33,33,30,34,27,34,1,5,33,0,0,0,0,0,0,0,0,0,0,0,0,0,0,0,0],"split_type":[0,0,0,0,0,0,0,0,0,0,0,0,0,0,0,0,0,0,0,0,0,0,0,0,0,0,0,0,0,0,0],"sum_hessian":[4.6194168E2,2.9861655E2,1.6332515E2,1.8029704E2,1.1831949E2,4.4434845E1,1.1889031E2,1.429527E2,3.7344345E1,2.8041992E1,9.02775E1,8.935867E0,3.5498978E1,9.6650715E0,1.09225235E2,1.1119265E2,3.1760054E1,2.1975748E1,1.5368599E1,5.7347007E0,2.2307291E1,7.815988E1,1.2117617E1,6.934365E0,2.001503E0,2.6737664E0,3.282521E1,8.250536E0,1.4145359E0,1.081692E2,1.0560435E0],"tree_param":{"num_deleted":"0","num_feature":"38","num_nodes":"31","size_leaf_vector":"1"}},{"base_weights":[2.2165028E-3,-5.224685E-1,7.0130086E-1,-9.006046E-1,1.487971E-2,1.0184385E-1,9.5942867E-1,-3.277773E-1,-1.0796247E0,-6.487212E-1,4.0020993E-1,-2.9428095E-1,5.226575E-1,5.1475745E-1,1.0798755E0,-1.7631082E-2,2.7226372E-2,-2.9222697E-2,5.9576835E-3,-9.715238E-3,-4.2729054E-2,1.4826754E-2,-1.3541065E-2,-1.5666245E-2,1.6746944E-2,1.7140975E-2,-6.1526587E-3,-2.01985E-2,2.1235215E-2,-5.6876787E-3,2.7619872E-2],"categories":[],"categories_nodes":[],"categories_segments":[],"categories_sizes":[],"default_left":[0,0,0,0,0,0,0,0,0,0,0,0,0,0,0,0,0,0,0,0,0,0,0,0,0,0,0,0,0,0,0],"id":18,"left_children":[1,3,5,7,9,11,13,15,17,19,21,23,25,27,29,-1,-1,-1,-1,-1,-1,-1,-1,-1,-1,-1,-1,-1,-1,-1,-1],"loss_changes":[1.7020274E2,5.3945107E1,3.0560364E1,1.5361237E1,2.8597122E1,1.0469614E1,6.5538177E0,2.1850803E1,1.4327515E1,1.0245602E1,1.3297509E1,1.0915668E1,4.071904E0,1.5172343E1,3.9292526E0,0E0,0E0,0E0,0E0,0E0,0E0,0E0,0E0,0E0,0E0,0E0,0E0,0E0,0E0,0E0,0E0],"parents":[2147483647,0,0,1,1,2,2,3,3,4,4,5,5,6,6,7,7,8,8,9,9,10,10,11,11,12,12,13,13,14,14],"right_children":[2,4,6,8,10,12,14,16,18,20,22,24,26,28,30,-1,-1,-1,-1,-1,-1,-1,-1,-1,-1,-1,-1,-1,-1,-1,-1],"split_conditions":[2.6496235E1,1.87E-1,-5.357237E-1,1.0055866E1,-1.2289637E0,1.707E-1,3.8567394E1,7.842612E0,1.7143831E0,6.6181817E0,1.1222503E0,-2.3961936E-1,-1.4046245E1,-5.4517765E1,1.293607E-3,-1.7631082E-2,2.7226372E-2,-2.9222697E-2,5.9576835E-3,-9.715238E-3,-4.2729054E-2,1.4826754E-2,-1.3541065E-2,-1.5666245E-2,1.6746944E-2,1.7140975E-2,-6.1526587E-3,-2.01985E-2,2.1235215E-2,-5.6876787E-3,2.7619872E-2],"split_indices":[34,15,26,29,31,15,34,34,27,30,27,32,5,30,8,0,0,0,0,0,0,0,0,0,0,0,0,0,0,0,0],"split_type":[0,0,0,0,0,0,0,0,0,0,0,0,0,0,0,0,0,0,0,0,0,0,0,0,0,0,0,0,0,0,0],"sum_hessian":[4.613744E2,2.636683E2,1.9770607E2,1.5435487E2,1.0931343E2,6.017061E1,1.3753546E2,3.7762253E1,1.1659262E2,3.9735077E1,6.9578354E1,3.1073463E1,2.9097147E1,3.095189E1,1.06583565E2,3.0389511E1,7.372743E0,1.0940393E2,7.1886935E0,3.3410606E1,6.3244696E0,5.824026E1,1.1338096E1,2.3523228E1,7.550235E0,2.4230759E1,4.866389E0,5.818214E0,2.5133677E1,1.7208102E0,1.04862755E2],"tree_param":{"num_deleted":"0","num_feature":"38","num_nodes":"31","size_leaf_vector":"1"}},{"base_weights":[9.544449E-3,-5.352455E-1,6.651709E-1,-9.507925E-1,4.333148E-2,6.998319E-2,9.369814E-1,2.8547934E-1,-1.0406094E0,-7.4741274E-1,3.563499E-1,-6.5327954E-1,3.166315E-1,1.050414E0,4.5700786E-1,-3.3160657E-2,1.8051222E-2,-3.0828763E-2,-9.77077E-3,2.2171697E-2,-2.2431556E-2,1.1737162E-2,-2.1648461E-2,-2.4276383E-2,1.5846347E-2,-1.740177E-2,1.1013403E-2,-0E0,2.6628545E-2,-3.288592E-2,1.6030043E-2],"categories":[],"categories_nodes":[],"categories_segments":[],"categories_sizes":[],"default_left":[0,0,0,0,0,0,0,0,0,0,0,0,0,0,0,0,0,0,0,0,0,0,0,0,0,0,0,0,0,0,0],"id":19,"left_children":[1,3,5,7,9,11,13,15,17,19,21,23,25,27,29,-1,-1,-1,-1,-1,-1,-1,-1,-1,-1,-1,-1,-1,-1,-1,-1],"loss_changes":[1.6369997E2,6.030484E1,3.3473137E1,1.6649643E1,2.6479025E1,1.214246E1,6.9895096E0,8.7980585E0,1.6259476E1,8.45965E0,1.1098418E1,7.9079666E0,6.7414255E0,1.7037888E0,1.0735188E1,0E0,0E0,0E0,0E0,0E0,0E0,0E0,0E0,0E0,0E0,0E0,0E0,0E0,0E0,0E0,0E0],"parents":[2147483647,0,0,1,1,2,2,3,3,4,4,5,5,6,6,7,7,8,8,9,9,10,10,11,11,12,12,13,13,14,14],"right_children":[2,4,6,8,10,12,14,16,18,20,22,24,26,28,30,-1,-1,-1,-1,-1,-1,-1,-1,-1,-1,-1,-1,-1,-1,-1,-1],"split_conditions":[2.3419687E1,1.87E-1,-5.357237E-1,-2.508072E0,-1.8379902E0,2.686E-2,-3.1435884E1,-3.2272038E1,4.5812675E-1,2.1481E-1,1.5203245E0,5.736653E1,2.3557434E1,4.9219944E-4,2.9597573E-2,-3.3160657E-2,1.8051222E-2,-3.0828763E-2,-9.77077E-3,2.2171697E-2,-2.2431556E-2,1.1737162E-2,-2.1648461E-2,-2.4276383E-2,1.5846347E-2,-1.740177E-2,1.1013403E-2,-0E0,2.6628545E-2,-3.288592E-2,1.6030043E-2],"split_indices":[34,15,26,34,26,15,35,34,33,15,25,34,1,9,9,0,0,0,0,0,0,0,0,0,0,0,0,0,0,0,0],"split_type":[0,0,0,0,0,0,0,0,0,0,0,0,0,0,0,0,0,0,0,0,0,0,0,0,0,0,0,0,0,0,0],"sum_hessian":[4.556817E2,2.4892485E2,2.0675685E2,1.4448732E2,1.0443752E2,6.544768E1,1.4130917E2,9.519002E0,1.3496832E2,2.9015436E1,7.542209E1,1.5995218E1,4.9452457E1,1.12879005E2,2.8430174E1,1.4151467E0,8.103855E0,1.030976E2,3.1870716E1,1.843937E0,2.71715E1,6.984008E1,5.582009E0,1.3146464E1,2.848754E0,4.6485476E0,4.480391E1,1.6339337E0,1.1124507E2,1.8736461E0,2.6556528E1],"tree_param":{"num_deleted":"0","num_feature":"38","num_nodes":"31","size_leaf_vector":"1"}},{"base_weights":[1.2795005E-2,-4.6303764E-1,7.2100484E-1,-8.2944334E-1,3.805342E-2,1.6195829E-1,9.671332E-1,-1.1947505E0,-4.3674082E-1,-6.91621E-1,2.7441522E-1,-1.4218934E-1,7.686699E-1,-3.51316E-2,9.967279E-1,-3.4988664E-2,-7.779432E-3,-2.3385374E-2,3.8167832E-3,-9.7374935E-3,-3.859517E-2,-6.054269E-3,1.6208692E-2,-1.1713017E-2,1.2335089E-2,-1.5411503E-2,2.2329774E-2,-1.4582946E-2,1.5580974E-2,-4.1588168E-3,2.5423074E-2],"categories":[],"categories_nodes":[],"categories_segments":[],"categories_sizes":[],"default_left":[0,0,0,0,0,0,0,0,0,0,0,0,0,0,0,0,0,0,0,0,0,0,0,0,0,0,0,0,0,0,0],"id":20,"left_children":[1,3,5,7,9,11,13,15,17,19,21,23,25,27,29,-1,-1,-1,-1,-1,-1,-1,-1,-1,-1,-1,-1,-1,-1,-1,-1],"loss_changes":[1.5519214E2,5.067413E1,2.515496E1,2.1999626E1,2.0457014E1,1.0957776E1,3.9426498E0,1.4029533E1,2.34585E1,6.4904814E0,1.75775E1,8.553505E0,4.1534843E0,2.213295E0,3.231865E0,0E0,0E0,0E0,0E0,0E0,0E0,0E0,0E0,0E0,0E0,0E0,0E0,0E0,0E0,0E0,0E0],"parents":[2147483647,0,0,1,1,2,2,3,3,4,4,5,5,6,6,7,7,8,8,9,9,10,10,11,11,12,12,13,13,14,14],"right_children":[2,4,6,8,10,12,14,16,18,20,22,24,26,28,30,-1,-1,-1,-1,-1,-1,-1,-1,-1,-1,-1,-1,-1,-1,-1,-1],"split_conditions":[2.83665E1,2.3691334E-1,-5.357237E-1,-3.771934E-1,-9.6301407E-1,5.735E-1,-6.919151E1,5.344797E-1,-9.631885E0,3.1344967E1,-1.0376163E1,-4.4438297E1,2.429986E1,6.479166E0,1.293607E-3,-3.4988664E-2,-7.779432E-3,-2.3385374E-2,3.8167832E-3,-9.7374935E-3,-3.859517E-2,-6.054269E-3,1.6208692E-2,-1.1713017E-2,1.2335089E-2,-1.5411503E-2,2.2329774E-2,-1.4582946E-2,1.5580974E-2,-4.1588168E-3,2.5423074E-2],"split_indices":[34,19,26,32,27,14,30,27,30,0,30,30,2,6,8,0,0,0,0,0,0,0,0,0,0,0,0,0,0,0,0],"split_type":[0,0,0,0,0,0,0,0,0,0,0,0,0,0,0,0,0,0,0,0,0,0,0,0,0,0,0,0,0,0,0],"sum_hessian":[4.5786084E2,2.7404446E2,1.8381639E2,1.5791917E2,1.16125275E2,5.697264E1,1.2684375E2,8.0305824E1,7.761335E1,2.7696419E1,8.8428856E1,3.850193E1,1.8470707E1,3.5341094E0,1.2330965E2,6.448667E1,1.5819155E1,4.172137E1,3.5891983E1,2.1932367E1,5.764052E0,3.7211704E1,5.121715E1,2.5769958E1,1.2731973E1,1.0336632E0,1.7437044E1,2.0921702E0,1.4419392E0,1.8594532E0,1.2145019E2],"tree_param":{"num_deleted":"0","num_feature":"38","num_nodes":"31","size_leaf_vector":"1"}},{"base_weights":[1.4906142E-2,6.93119E-1,-4.9319834E-1,9.277115E-2,9.1043645E-1,-8.167666E-1,-3.9518774E-3,-6.9768673E-1,4.8832366E-1,-2.4811579E-2,9.350091E-1,-9.8166686E-1,-2.4283016E-1,-5.5332696E-1,3.5101995E-1,-2.8398186E-2,2.1693686E-3,-1.2513406E-2,1.5595957E-2,2.4418307E-2,-8.895437E-3,-3.5748377E-2,-1.831613E-2,-2.3276906E-2,3.824381E-3,1.7598206E-2,-1.7956844E-2,1.3715476E-2,-1.2231025E-2],"categories":[],"categories_nodes":[],"categories_segments":[],"categories_sizes":[],"default_left":[0,0,0,0,0,0,0,0,0,0,0,0,0,0,0,0,0,0,0,0,0,0,0,0,0,0,0,0,0],"id":21,"left_children":[1,3,5,7,9,11,13,15,17,-1,19,21,23,25,27,-1,-1,-1,-1,-1,-1,-1,-1,-1,-1,-1,-1,-1,-1],"loss_changes":[1.5758916E2,2.5349976E1,4.1285877E1,1.719326E1,7.914055E0,1.444339E1,2.0840044E1,6.5382032E0,5.322693E0,0E0,8.186676E0,1.1988625E1,1.0326706E1,9.371313E0,1.1106272E1,0E0,0E0,0E0,0E0,0E0,0E0,0E0,0E0,0E0,0E0,0E0,0E0,0E0,0E0],"parents":[2147483647,0,0,1,1,2,2,3,3,4,4,5,5,6,6,7,7,8,8,10,10,11,11,12,12,13,13,14,14],"right_children":[2,4,6,8,10,12,14,16,18,-1,20,22,24,26,28,-1,-1,-1,-1,-1,-1,-1,-1,-1,-1,-1,-1,-1,-1],"split_conditions":[-2.1643589E1,-4.0764257E-1,2.089E-1,4.708E-2,3.2946E-4,4.5812675E-1,-5.7752544E-1,-7.889807E-1,-4.4633663E1,-2.4811579E-2,-2.3378365E1,2.64725E-2,-4.3881926E-1,1.949869E-3,2.4089323E1,-2.8398186E-2,2.1693686E-3,-1.2513406E-2,1.5595957E-2,2.4418307E-2,-8.895437E-3,-3.5748377E-2,-1.831613E-2,-2.3276906E-2,3.824381E-3,1.7598206E-2,-1.7956844E-2,1.3715476E-2,-1.2231025E-2],"split_indices":[35,32,15,15,10,33,32,28,5,0,35,10,27,8,29,0,0,0,0,0,0,0,0,0,0,0,0,0,0],"split_type":[0,0,0,0,0,0,0,0,0,0,0,0,0,0,0,0,0,0,0,0,0,0,0,0,0,0,0,0,0],"sum_hessian":[4.546588E2,1.9461375E2,2.6004507E2,5.2339363E1,1.4227438E2,1.5587851E2,1.0416656E2,1.7040485E1,3.5298878E1,1.109123E0,1.4116527E2,1.2023538E2,3.5643135E1,4.071262E1,6.3453938E1,1.0640938E1,6.3995476E0,3.743402E0,3.1555477E1,1.3712674E2,4.038525E0,4.059435E1,7.964103E1,1.2464253E1,2.317888E1,4.158859E0,3.655376E1,5.1834545E1,1.1619393E1],"tree_param":{"num_deleted":"0","num_feature":"38","num_nodes":"29","size_leaf_vector":"1"}},{"base_weights":[3.439856E-2,-4.5686224E-1,6.4617133E-1,-8.6974263E-1,1.1924278E-1,1.5137757E-1,8.7364024E-1,3.4397367E-1,-9.631776E-1,-3.4041342E-1,3.9313912E-1,-2.2394674E-1,6.787487E-1,3.9265698E-1,1.0587482E0,2.5023216E-2,-3.3323128E-2,-2.5348676E-2,1.7290175E-2,8.760842E-3,-1.5609257E-2,1.453236E-2,-1.1054194E-2,-1.39956E-2,8.810983E-3,2.066175E-2,-1.7599931E-2,-1.9109644E-2,1.7041476E-2,-4.329193E-3,2.7146244E-2],"categories":[],"categories_nodes":[],"categories_segments":[],"categories_sizes":[],"default_left":[0,0,0,0,0,0,0,0,0,0,0,0,0,0,0,0,0,0,0,0,0,0,0,0,0,0,0,0,0,0,0],"id":22,"left_children":[1,3,5,7,9,11,13,15,17,19,21,23,25,27,29,-1,-1,-1,-1,-1,-1,-1,-1,-1,-1,-1,-1,-1,-1,-1,-1],"loss_changes":[1.3512918E2,5.9509E1,2.2267265E1,1.6990631E1,1.3413618E1,1.3066785E1,1.1493698E1,1.4128153E1,1.232756E1,8.121455E0,1.0816861E1,7.772585E0,6.359392E0,1.4122097E1,3.6030273E0,0E0,0E0,0E0,0E0,0E0,0E0,0E0,0E0,0E0,0E0,0E0,0E0,0E0,0E0,0E0,0E0],"parents":[2147483647,0,0,1,1,2,2,3,3,4,4,5,5,6,6,7,7,8,8,9,9,10,10,11,11,12,12,13,13,14,14],"right_children":[2,4,6,8,10,12,14,16,18,20,22,24,26,28,30,-1,-1,-1,-1,-1,-1,-1,-1,-1,-1,-1,-1,-1,-1,-1,-1],"split_conditions":[2.3419687E1,1.87E-1,-5.357237E-1,-2.508072E0,-5.7752544E-1,4.975E-1,3.8567394E1,3.9623263E-1,7.8141516E-1,3.921E-1,7.2531515E-1,-4.346478E-1,4.3583057E1,-5.4517765E1,1.293607E-3,2.5023216E-2,-3.3323128E-2,-2.5348676E-2,1.7290175E-2,8.760842E-3,-1.5609257E-2,1.453236E-2,-1.1054194E-2,-1.39956E-2,8.810983E-3,2.066175E-2,-1.7599931E-2,-1.9109644E-2,1.7041476E-2,-4.329193E-3,2.7146244E-2],"split_indices":[34,15,26,34,32,12,34,8,8,13,32,32,2,30,8,0,0,0,0,0,0,0,0,0,0,0,0,0,0,0,0],"split_type":[0,0,0,0,0,0,0,0,0,0,0,0,0,0,0,0,0,0,0,0,0,0,0,0,0,0,0,0,0,0,0],"sum_hessian":[4.4698135E2,2.4800008E2,1.9898128E2,1.4418045E2,1.03819626E2,6.348736E1,1.3549391E2,9.9803295E0,1.3420012E2,3.851032E1,6.53093E1,3.7416664E1,2.6070692E1,3.893175E1,9.6562164E1,7.5903487E0,2.389981E0,1.3075246E2,3.4476593E0,1.1026678E1,2.7483643E1,5.3723064E1,1.1586236E1,2.377381E1,1.3642855E1,2.4092188E1,1.9785047E0,7.284255E0,3.1647497E1,1.8483481E0,9.471382E1],"tree_param":{"num_deleted":"0","num_feature":"38","num_nodes":"31","size_leaf_vector":"1"}},{"base_weights":[6.5473053E-3,-4.163971E-1,6.8938357E-1,-7.5648457E-1,1.0800245E-1,7.5163454E-2,9.2801315E-1,5.623081E-1,-8.378573E-1,-5.456464E-1,4.465942E-1,-3.144178E-1,7.7832806E-1,-1.1679202E-2,9.5344067E-1,3.2417297E-2,-2.470148E-2,-2.3935733E-2,-2.4809241E-3,1.8889958E-2,-1.8721383E-2,2.8834764E-2,7.3095346E-3,-1.2533225E-2,1.6749782E-2,2.3684343E-2,-7.0499266E-3,1.7231895E-2,2.7533067E-2],"categories":[],"categories_nodes":[],"categories_segments":[],"categories_sizes":[],"default_left":[0,0,0,0,0,0,0,0,0,0,0,0,0,0,0,0,0,0,0,0,0,0,0,0,0,0,0,0,0],"id":23,"left_children":[1,3,5,7,9,11,13,15,17,19,21,23,25,-1,27,-1,-1,-1,-1,-1,-1,-1,-1,-1,-1,-1,-1,-1,-1],"loss_changes":[1.3370267E2,5.113156E1,2.5770172E1,1.9271034E1,2.5412102E1,1.4360501E1,5.1449127E0,1.3988662E1,1.4265282E1,1.1098362E1,7.6508245E0,6.6225033E0,3.7621908E0,0E0,3.7387466E0,0E0,0E0,0E0,0E0,0E0,0E0,0E0,0E0,0E0,0E0,0E0,0E0,0E0,0E0],"parents":[2147483647,0,0,1,1,2,2,3,3,4,4,5,5,6,6,7,7,8,8,9,9,10,10,11,11,12,12,14,14],"right_children":[2,4,6,8,10,12,14,16,18,20,22,24,26,-1,28,-1,-1,-1,-1,-1,-1,-1,-1,-1,-1,-1,-1,-1,-1],"split_conditions":[2.83665E1,2.25E-1,-3.029113E-1,-5.3932586E0,-1.4815419E0,7.936675E-3,3.6075645E1,3.9623263E-1,1E0,2.11509E-3,2.5917168E-3,4.5057217E1,4.4818297E-1,-1.1679202E-2,4.876688E1,3.2417297E-2,-2.470148E-2,-2.3935733E-2,-2.4809241E-3,1.8889958E-2,-1.8721383E-2,2.8834764E-2,7.3095346E-3,-1.2533225E-2,1.6749782E-2,2.3684343E-2,-7.0499266E-3,1.7231895E-2,2.7533067E-2],"split_indices":[34,16,32,29,31,7,2,8,24,8,7,2,8,0,34,0,0,0,0,0,0,0,0,0,0,0,0,0,0],"split_type":[0,0,0,0,0,0,0,0,0,0,0,0,0,0,0,0,0,0,0,0,0,0,0,0,0,0,0,0,0],"sum_hessian":[4.6026984E2,2.8444638E2,1.7582346E2,1.7231241E2,1.1213397E2,4.9791424E1,1.26032036E2,9.496251E0,1.6281616E2,3.7892487E1,7.424148E1,3.2410957E1,1.7380468E1,1.7812269E0,1.2425081E2,6.6319933E0,2.8642573E0,1.39683E2,2.3133165E1,4.5744066E0,3.331808E1,1.167242E1,6.256906E1,2.7860563E1,4.550393E0,1.5191336E1,2.1891327E0,4.7477016E1,7.677379E1],"tree_param":{"num_deleted":"0","num_feature":"38","num_nodes":"29","size_leaf_vector":"1"}},{"base_weights":[-1.568382E-2,-3.480243E-1,8.4313667E-1,-6.2749285E-1,1.09845296E-1,1.230189E-1,9.9721473E-1,-8.8839173E-1,-1.0214503E-1,-9.1738874E-1,2.6785037E-1,7.23771E-1,-5.9835565E-1,-1.982159E-2,1.0355383E0,-2.7737876E-2,-5.5021304E-3,5.734117E-3,-1.6562471E-2,1.1891162E-2,-2.9879222E-2,-4.14226E-2,8.492873E-3,3.0941732E-4,2.4997117E-2,-2.0181235E-2,1.4421306E-2,-1.9838242E-2,1.317039E-2,-5.4424545E-3,2.6336236E-2],"categories":[],"categories_nodes":[],"categories_segments":[],"categories_sizes":[],"default_left":[0,0,0,0,0,0,0,0,0,0,0,0,0,0,0,0,0,0,0,0,0,0,0,0,0,0,0,0,0,0,0],"id":24,"left_children":[1,3,5,7,9,11,13,15,17,19,21,23,25,27,29,-1,-1,-1,-1,-1,-1,-1,-1,-1,-1,-1,-1,-1,-1,-1,-1],"loss_changes":[1.286252E2,4.173898E1,1.3676071E1,2.7496758E1,2.0410671E1,1.0869343E1,4.152672E0,1.94711E1,1.3001089E1,7.2981453E0,1.5638359E1,2.5588026E0,3.434153E0,2.6553204E0,2.6179047E0,0E0,0E0,0E0,0E0,0E0,0E0,0E0,0E0,0E0,0E0,0E0,0E0,0E0,0E0,0E0,0E0],"parents":[2147483647,0,0,1,1,2,2,3,3,4,4,5,5,6,6,7,7,8,8,9,9,10,10,11,11,12,12,13,13,14,14],"right_children":[2,4,6,8,10,12,14,16,18,20,22,24,26,28,30,-1,-1,-1,-1,-1,-1,-1,-1,-1,-1,-1,-1,-1,-1,-1,-1],"split_conditions":[3.9754505E1,2.955541E-1,-4.4978476E-1,1.8626326E-6,-3.5288196E0,-3.3770625E-3,3.8304897E1,1.9777227E1,3.485798E-1,-3.8655863E0,-6.055794E1,7.619336E-3,6.1308324E-1,-1.0586447E-5,-7.36144E1,-2.7737876E-2,-5.5021304E-3,5.734117E-3,-1.6562471E-2,1.1891162E-2,-2.9879222E-2,-4.14226E-2,8.492873E-3,3.0941732E-4,2.4997117E-2,-2.0181235E-2,1.4421306E-2,-1.9838242E-2,1.317039E-2,-5.4424545E-3,2.6336236E-2],"split_indices":[34,20,32,4,31,4,2,34,8,32,30,7,27,4,30,0,0,0,0,0,0,0,0,0,0,0,0,0,0,0,0],"split_type":[0,0,0,0,0,0,0,0,0,0,0,0,0,0,0,0,0,0,0,0,0,0,0,0,0,0,0,0,0,0,0],"sum_hessian":[4.4818805E2,3.2378253E2,1.2440552E2,2.0089787E2,1.2288466E2,2.2453081E1,1.0195244E2,1.3350682E2,6.7391045E1,1.5464559E1,1.074201E2,1.2324059E1,1.0129023E1,3.6302602E0,9.8322174E1,9.955806E1,3.3948765E1,4.2711823E1,2.4679226E1,2.3572445E0,1.3107314E1,2.78428E0,1.0463582E2,3.9269347E0,8.397124E0,9.018163E0,1.1108599E0,1.3356167E0,2.2946436E0,1.1024207E0,9.721976E1],"tree_param":{"num_deleted":"0","num_feature":"38","num_nodes":"31","size_leaf_vector":"1"}},{"base_weights":[9.956732E-3,-3.6719272E-1,7.513517E-1,-1.0694506E0,-1.824802E-1,9.839421E-2,9.2980105E-1,-1.2330151E0,1.3054066E-3,1.1422853E0,-3.0187783E-1,-8.0583936E-1,4.4793454E-1,-1.7984506E-1,9.681849E-1,6.2038335E-3,-3.3837423E-2,-9.875122E-3,1.9705001E-2,4.1592773E-3,3.0424118E-2,-1.6260868E-2,-3.2240144E-4,1.2137543E-3,-3.1649627E-2,-2.4693172E-2,1.5507287E-2,1.472143E-2,-3.280393E-2,1.5494096E-2,2.6812404E-2],"categories":[],"categories_nodes":[],"categories_segments":[],"categories_sizes":[],"default_left":[0,0,0,0,0,0,0,0,0,0,0,0,0,0,0,0,0,0,0,0,0,0,0,0,0,0,0,0,0,0,0],"id":25,"left_children":[1,3,5,7,9,11,13,15,17,19,21,23,25,27,29,-1,-1,-1,-1,-1,-1,-1,-1,-1,-1,-1,-1,-1,-1,-1,-1],"loss_changes":[1.2688935E2,3.861747E1,1.7611404E1,1.1023392E1,3.827899E1,1.1313624E1,5.4130783E0,1.0194885E1,3.3952775E0,1.0575428E0,2.2181612E1,4.1258855E0,7.1294985E0,5.4452777E0,3.190071E0,0E0,0E0,0E0,0E0,0E0,0E0,0E0,0E0,0E0,0E0,0E0,0E0,0E0,0E0,0E0,0E0],"parents":[2147483647,0,0,1,1,2,2,3,3,4,4,5,5,6,6,7,7,8,8,9,9,10,10,11,11,12,12,13,13,14,14],"right_children":[2,4,6,8,10,12,14,16,18,20,22,24,26,28,30,-1,-1,-1,-1,-1,-1,-1,-1,-1,-1,-1,-1,-1,-1,-1,-1],"split_conditions":[3.3632465E1,2.0234E-2,-4.346478E-1,6.010731E1,2.3394352E-4,4.055E-2,-1.2156435E0,-4.172662E0,2.5020823E0,-1.845556E-1,2.2871874E-1,-1.2177645E0,2.3557434E1,4.9733645E-3,4.495212E1,6.2038335E-3,-3.3837423E-2,-9.875122E-3,1.9705001E-2,4.1592773E-3,3.0424118E-2,-1.6260868E-2,-3.2240144E-4,1.2137543E-3,-3.1649627E-2,-2.4693172E-2,1.5507287E-2,1.472143E-2,-3.280393E-2,1.5494096E-2,2.6812404E-2],"split_indices":[34,15,32,2,7,15,28,29,28,32,20,33,1,7,34,0,0,0,0,0,0,0,0,0,0,0,0,0,0,0,0],"split_type":[0,0,0,0,0,0,0,0,0,0,0,0,0,0,0,0,0,0,0,0,0,0,0,0,0,0,0,0,0,0,0],"sum_hessian":[4.510774E2,2.9932916E2,1.5174823E2,6.0926144E1,2.3840303E2,3.3123695E1,1.1862453E2,5.2762714E1,8.163428E0,1.8720186E1,2.1968285E2,8.681692E0,2.4442003E1,3.718863E0,1.1490567E2,3.8029404E0,4.8959774E1,5.775174E0,2.3882542E0,1.7241476E0,1.6996038E1,9.868334E1,1.209995E2,3.3699496E0,5.311743E0,1.8984656E0,2.254354E1,2.5341234E0,1.1847397E0,2.877475E1,8.613092E1],"tree_param":{"num_deleted":"0","num_feature":"38","num_nodes":"31","size_leaf_vector":"1"}},{"base_weights":[1.1632396E-2,-4.2065057E-1,6.383522E-1,-7.147361E-1,1.6279486E-1,8.5797064E-2,8.534997E-1,-9.3191934E-1,-3.5071242E-1,-1.0889194E0,3.2634425E-1,2.1159717E-1,-1.4423362E0,4.8676872E-1,9.5750344E-1,1.0564263E-2,-2.5082586E-2,-1.8889057E-2,1.863384E-2,-3.85032E-2,-4.3719667E-3,9.942072E-3,-3.623027E-2,-1.7924158E-2,1.0126965E-2,-2.7471043E-3,-4.7225844E-2,-1.1782754E-2,2.483014E-2,2.6095152E-2,1.4389942E-2],"categories":[],"categories_nodes":[],"categories_segments":[],"categories_sizes":[],"default_left":[0,0,0,0,0,0,0,0,0,0,0,0,0,0,0,0,0,0,0,0,0,0,0,0,0,0,0,0,0,0,0],"id":26,"left_children":[1,3,5,7,9,11,13,15,17,19,21,23,25,27,29,-1,-1,-1,-1,-1,-1,-1,-1,-1,-1,-1,-1,-1,-1,-1,-1],"loss_changes":[1.2072207E2,4.5433285E1,2.1440659E1,1.3330238E1,1.8662855E1,1.0378812E1,4.2339706E0,1.1151192E1,3.08527E1,3.827942E0,1.0781589E1,9.286477E0,1.9729977E0,1.6055838E1,2.3612213E0,0E0,0E0,0E0,0E0,0E0,0E0,0E0,0E0,0E0,0E0,0E0,0E0,0E0,0E0,0E0,0E0],"parents":[2147483647,0,0,1,1,2,2,3,3,4,4,5,5,6,6,7,7,8,8,9,9,10,10,11,11,12,12,13,13,14,14],"right_children":[2,4,6,8,10,12,14,16,18,20,22,24,26,28,30,-1,-1,-1,-1,-1,-1,-1,-1,-1,-1,-1,-1,-1,-1,-1,-1],"split_conditions":[2.6066608E1,2.951E-1,-4.3807867E-1,-7.5826974E0,3.2296574E1,3.9948963E1,-5.814433E1,-4.645347E-3,8.5184555E0,-2.070242E0,4.609814E1,-3.3912537E1,3.970155E1,5.736653E1,9.7286564E-1,1.0564263E-2,-2.5082586E-2,-1.8889057E-2,1.863384E-2,-3.85032E-2,-4.3719667E-3,9.942072E-3,-3.623027E-2,-1.7924158E-2,1.0126965E-2,-2.7471043E-3,-4.7225844E-2,-1.1782754E-2,2.483014E-2,2.6095152E-2,1.4389942E-2],"split_indices":[34,15,25,30,2,0,30,4,34,25,29,6,2,34,31,0,0,0,0,0,0,0,0,0,0,0,0,0,0,0,0],"split_type":[0,0,0,0,0,0,0,0,0,0,0,0,0,0,0,0,0,0,0,0,0,0,0,0,0,0,0,0,0,0,0],"sum_hessian":[4.4293106E2,2.6228595E2,1.806451E2,1.7430595E2,8.798E1,5.1265377E1,1.2937971E2,1.0772967E2,6.6576294E1,9.246401E0,7.8733604E1,4.8461338E1,2.804039E0,3.0428982E1,9.895074E1,5.0029917E0,1.0272668E2,4.897987E1,1.759642E1,5.521096E0,3.7253044E0,7.671642E1,2.0171804E0,7.6608677E0,4.0800472E1,1.1669135E0,1.6371255E0,1.0485394E1,1.994359E1,7.8660255E1,2.0290487E1],"tree_param":{"num_deleted":"0","num_feature":"38","num_nodes":"31","size_leaf_vector":"1"}},{"base_weights":[-4.4983868E-3,-4.3805474E-1,6.2170297E-1,-7.2797996E-1,1.14476435E-1,7.090283E-2,8.949097E-1,-9.0457416E-1,-2.060292E-1,8.416019E-1,-1.8596941E-1,-1.617887E-1,5.82676E-1,5.8955956E-1,1.0624975E0,-2.4709655E-2,-3.2684729E-3,1.1596285E-2,-1.6370388E-2,2.4676044E-2,-1.1623544E-2,-1.5558245E-2,4.9390104E-3,-1.5759142E-2,4.193708E-3,-1.3378679E-4,2.5112916E-2,-2.4020683E-2,2.207257E-2,5.2776973E-4,2.711379E-2],"categories":[],"categories_nodes":[],"categories_segments":[],"categories_sizes":[],"default_left":[0,0,0,0,0,0,0,0,0,0,0,0,0,0,0,0,0,0,0,0,0,0,0,0,0,0,0,0,0,0,0],"id":27,"left_children":[1,3,5,7,9,11,13,15,17,19,21,23,25,27,29,-1,-1,-1,-1,-1,-1,-1,-1,-1,-1,-1,-1,-1,-1,-1,-1],"loss_changes":[1.2256517E2,4.2922382E1,2.7604248E1,1.5807655E1,2.0553307E1,7.6370525E0,5.323967E0,8.182686E0,1.4288518E1,5.870764E0,1.1359984E1,6.980821E0,5.075331E0,2.2371023E1,1.6441498E0,0E0,0E0,0E0,0E0,0E0,0E0,0E0,0E0,0E0,0E0,0E0,0E0,0E0,0E0,0E0,0E0],"parents":[2147483647,0,0,1,1,2,2,3,3,4,4,5,5,6,6,7,7,8,8,9,9,10,10,11,11,12,12,13,13,14,14],"right_children":[2,4,6,8,10,12,14,16,18,20,22,24,26,28,30,-1,-1,-1,-1,-1,-1,-1,-1,-1,-1,-1,-1,-1,-1,-1,-1],"split_conditions":[2.6066608E1,2.9535854E-1,-5.357237E-1,5.346957E1,8.778539E-3,-4.335601E1,4.495212E1,1.9777227E1,1.2280984E1,1.5371996E1,1.86E0,4.087429E1,-1.2156435E0,-5.66697E1,-7.586496E-1,-2.4709655E-2,-3.2684729E-3,1.1596285E-2,-1.6370388E-2,2.4676044E-2,-1.1623544E-2,-1.5558245E-2,4.9390104E-3,-1.5759142E-2,4.193708E-3,-1.3378679E-4,2.5112916E-2,-2.4020683E-2,2.207257E-2,5.2776973E-4,2.711379E-2],"split_indices":[34,21,26,2,7,30,34,34,29,34,16,34,28,30,33,0,0,0,0,0,0,0,0,0,0,0,0,0,0,0,0],"split_type":[0,0,0,0,0,0,0,0,0,0,0,0,0,0,0,0,0,0,0,0,0,0,0,0,0,0,0,0,0,0,0],"sum_hessian":[4.4891135E2,2.6558286E2,1.8332849E2,1.7403242E2,9.155044E1,6.1448414E1,1.2188007E2,1.2918129E2,4.485114E1,2.6180613E1,6.536983E1,4.271879E1,1.8729628E1,4.5481464E1,7.639861E1,1.1611548E2,1.3065814E1,1.788646E1,2.6964678E1,2.3913128E1,2.2674847E0,3.0322157E1,3.504767E1,1.7273653E1,2.5445133E1,8.260835E0,1.0468792E1,6.711369E0,3.8770096E1,1.7311808E0,7.466743E1],"tree_param":{"num_deleted":"0","num_feature":"38","num_nodes":"31","size_leaf_vector":"1"}},{"base_weights":[-1.4894519E-2,-3.7525275E-1,7.206051E-1,-7.000546E-1,5.800068E-2,9.728553E-2,9.4876695E-1,-1.15455456E-1,-8.7900054E-1,-6.635673E-1,2.2120833E-1,-8.496947E-1,3.847189E-1,9.6464765E-1,-5.3893677E-3,-2.7852014E-2,9.4575165E-3,-2.4311861E-2,9.50175E-3,8.78009E-3,-2.2823235E-2,-2.0351296E-3,1.5847486E-2,1.0276276E-2,-3.2158725E-2,-1.9869443E-2,1.43300835E-2,3.9970563E-3,2.4965014E-2],"categories":[],"categories_nodes":[],"categories_segments":[],"categories_sizes":[],"default_left":[0,0,0,0,0,0,0,0,0,0,0,0,0,0,0,0,0,0,0,0,0,0,0,0,0,0,0,0,0],"id":28,"left_children":[1,3,5,7,9,11,13,15,17,19,21,23,25,27,-1,-1,-1,-1,-1,-1,-1,-1,-1,-1,-1,-1,-1,-1,-1],"loss_changes":[1.17182205E2,4.189457E1,2.0446388E1,1.754306E1,1.5252651E1,1.14058695E1,2.3077316E0,2.1058384E1,1.581134E1,6.514044E0,1.3322657E1,6.146581E0,7.6965475E0,2.546402E0,0E0,0E0,0E0,0E0,0E0,0E0,0E0,0E0,0E0,0E0,0E0,0E0,0E0,0E0,0E0],"parents":[2147483647,0,0,1,1,2,2,3,3,4,4,5,5,6,6,7,7,8,8,9,9,10,10,11,11,12,12,13,13],"right_children":[2,4,6,8,10,12,14,16,18,20,22,24,26,28,-1,-1,-1,-1,-1,-1,-1,-1,-1,-1,-1,-1,-1,-1,-1],"split_conditions":[3.3632465E1,1.707E-1,-3.029113E-1,1.0055866E1,-1.2989472E0,4.373E-2,-2.8035597E1,2.880564E-1,1.7143831E0,-3.0751712E0,-7.1392746E0,-3.4738945E1,2.2511072E1,-8.541113E-1,-5.3893677E-3,-2.7852014E-2,9.4575165E-3,-2.4311861E-2,9.50175E-3,8.78009E-3,-2.2823235E-2,-2.0351296E-3,1.5847486E-2,1.0276276E-2,-3.2158725E-2,-1.9869443E-2,1.43300835E-2,3.9970563E-3,2.4965014E-2],"split_indices":[34,15,32,29,32,15,35,8,27,32,30,6,0,25,0,0,0,0,0,0,0,0,0,0,0,0,0,0,0],"split_type":[0,0,0,0,0,0,0,0,0,0,0,0,0,0,0,0,0,0,0,0,0,0,0,0,0,0,0,0,0],"sum_hessian":[4.3962866E2,2.9558124E2,1.4404741E2,1.6860873E2,1.26972496E2,3.921308E1,1.04834335E2,4.014769E1,1.2846104E2,2.2573423E1,1.0439907E2,8.457625E0,3.0755457E1,1.037284E2,1.105931E0,1.2809559E1,2.733813E1,1.1993255E2,8.528504E0,4.268983E0,1.830444E1,6.069475E1,4.370432E1,2.1364098E0,6.3212156E0,3.588313E0,2.7167143E1,4.618791E0,9.910961E1],"tree_param":{"num_deleted":"0","num_feature":"38","num_nodes":"29","size_leaf_vector":"1"}},{"base_weights":[-2.2732481E-2,-5.2765197E-1,3.0005896E-1,-8.346635E-1,-7.999541E-2,-6.6137934E-1,4.1426274E-1,-9.796191E-1,-4.6837036E-2,-5.86443E-1,3.4689537E-1,1.0058735E-2,-1.0726495E0,-1.4780395E-1,5.509909E-1,-2.8134886E-2,-3.7906857E-3,1.896547E-2,-9.330829E-3,-3.260685E-2,-5.7838447E-3,2.4447644E-3,1.945995E-2,-1.7841302E-2,1.5631385E-2,-3.9329384E-2,-6.2463977E-3,-1.882214E-2,1.1756345E-2,1.7784914E-2,-2.7161546E-3],"categories":[],"categories_nodes":[],"categories_segments":[],"categories_sizes":[],"default_left":[0,0,0,0,0,0,0,0,0,0,0,0,0,0,0,0,0,0,0,0,0,0,0,0,0,0,0,0,0,0,0],"id":29,"left_children":[1,3,5,7,9,11,13,15,17,19,21,23,25,27,29,-1,-1,-1,-1,-1,-1,-1,-1,-1,-1,-1,-1,-1,-1,-1,-1],"loss_changes":[7.2262985E1,2.3591682E1,3.001257E1,1.1522926E1,1.58396435E1,8.158319E0,1.8783287E1,1.006086E1,4.897012E0,7.99055E0,4.0851164E0,6.0263243E0,6.783825E0,1.8563663E1,2.084431E1,0E0,0E0,0E0,0E0,0E0,0E0,0E0,0E0,0E0,0E0,0E0,0E0,0E0,0E0,0E0,0E0],"parents":[2147483647,0,0,1,1,2,2,3,3,4,4,5,5,6,6,7,7,8,8,9,9,10,10,11,11,12,12,13,13,14,14],"right_children":[2,4,6,8,10,12,14,16,18,20,22,24,26,28,30,-1,-1,-1,-1,-1,-1,-1,-1,-1,-1,-1,-1,-1,-1,-1,-1],"split_conditions":[-4.0764257E-1,2.7905732E-1,-9.6301407E-1,6.9636756E-1,-1.1485915E0,3.6208282E1,-4.0762287E-1,1E0,-3.4866524E1,-1.216458E0,4.9938755E1,-1.7752007E0,8.270998E-1,3.0086732E-1,7.2531515E-1,-2.8134886E-2,-3.7906857E-3,1.896547E-2,-9.330829E-3,-3.260685E-2,-5.7838447E-3,2.4447644E-3,1.945995E-2,-1.7841302E-2,1.5631385E-2,-3.9329384E-2,-6.2463977E-3,-1.882214E-2,1.1756345E-2,1.7784914E-2,-2.7161546E-3],"split_indices":[32,9,27,27,33,1,33,24,30,27,29,27,33,9,32,0,0,0,0,0,0,0,0,0,0,0,0,0,0,0,0],"split_type":[0,0,0,0,0,0,0,0,0,0,0,0,0,0,0,0,0,0,0,0,0,0,0,0,0,0,0,0,0,0,0],"sum_hessian":[4.406731E2,1.7165315E2,2.6901993E2,1.0102262E2,7.063052E1,2.7808287E1,2.4121165E2,8.494906E1,1.6073557E1,3.2189938E1,3.844059E1,1.0952437E1,1.685585E1,4.703243E1,1.9417921E2,7.173217E1,1.3216892E1,4.0504036E0,1.2023153E1,9.410168E0,2.2779768E1,2.5529102E1,1.2911489E1,4.862107E0,6.0903306E0,9.66765E0,7.1882E0,2.370415E1,2.3328278E1,1.562364E2,3.794282E1],"tree_param":{"num_deleted":"0","num_feature":"38","num_nodes":"31","size_leaf_vector":"1"}},{"base_weights":[-2.1808887E-2,-3.744167E-1,7.1799016E-1,-6.5399444E-1,5.2426867E-2,1.4730942E-1,9.5253927E-1,-7.2398525E-1,6.807346E-1,5.0738376E-1,-2.1860984E-1,-6.414842E-2,1.0052526E0,7.117649E-1,1.0857495E0,-2.1377541E-2,6.7195867E-4,-6.345959E-3,2.1699749E-2,1.7492844E-2,-1.6282542E-2,-1.976526E-2,1.1443606E-3,-2.07947E-2,6.474305E-3,2.7443115E-2,2.1256667E-3,-3.4014593E-4,2.6336802E-2,2.631087E-3,2.7496818E-2],"categories":[],"categories_nodes":[],"categories_segments":[],"categories_sizes":[],"default_left":[0,0,0,0,0,0,0,0,0,0,0,0,0,0,0,0,0,0,0,0,0,0,0,0,0,0,0,0,0,0,0],"id":30,"left_children":[1,3,5,7,9,11,13,15,17,19,21,23,25,27,29,-1,-1,-1,-1,-1,-1,-1,-1,-1,-1,-1,-1,-1,-1,-1,-1],"loss_changes":[1.1571383E2,3.596925E1,1.886802E1,1.7631424E1,1.4970673E1,8.04386E0,2.057869E0,1.7191132E1,2.0381398E0,1.0699124E1,1.1610765E1,9.245169E0,5.0452995E-1,1.0049145E1,5.922775E-1,0E0,0E0,0E0,0E0,0E0,0E0,0E0,0E0,0E0,0E0,0E0,0E0,0E0,0E0,0E0,0E0],"parents":[2147483647,0,0,1,1,2,2,3,3,4,4,5,5,6,6,7,7,8,8,9,9,10,10,11,11,12,12,13,13,14,14],"right_children":[2,4,6,8,10,12,14,16,18,20,22,24,26,28,30,-1,-1,-1,-1,-1,-1,-1,-1,-1,-1,-1,-1,-1,-1,-1,-1],"split_conditions":[3.3632465E1,1.87E-1,-5.357237E-1,1.7783741E0,8.695515E-3,-4.335601E1,-5.278502E1,1E0,5.912236E-3,1.0465536E1,-9.6301407E-1,4.087429E1,3.4340277E-2,5.6670216E1,4.2040707E1,-2.1377541E-2,6.7195867E-4,-6.345959E-3,2.1699749E-2,1.7492844E-2,-1.6282542E-2,-1.976526E-2,1.1443606E-3,-2.07947E-2,6.474305E-3,2.7443115E-2,2.1256667E-3,-3.4014593E-4,2.6336802E-2,2.631087E-3,2.7496818E-2],"split_indices":[34,15,26,27,7,30,30,24,9,30,27,34,7,34,2,0,0,0,0,0,0,0,0,0,0,0,0,0,0,0,0],"split_type":[0,0,0,0,0,0,0,0,0,0,0,0,0,0,0,0,0,0,0,0,0,0,0,0,0,0,0,0,0,0,0],"sum_hessian":[4.410797E2,2.9923407E2,1.4184566E2,1.8053085E2,1.1870322E2,4.2057785E1,9.9787865E1,1.7217223E2,8.358626E0,4.4030247E1,7.4672966E1,3.461295E1,7.444836E0,3.8748215E1,6.1039654E1,1.465366E2,2.563563E1,1.2289224E0,7.129704E0,3.827778E1,5.752468E0,2.290604E1,5.176693E1,9.738978E0,2.487397E1,6.4384284E0,1.0064077E0,1.27142315E1,2.6033983E1,1.1232816E0,5.991637E1],"tree_param":{"num_deleted":"0","num_feature":"38","num_nodes":"31","size_leaf_vector":"1"}},{"base_weights":[8.826256E-3,5.879889E-1,-3.6998856E-1,-3.825816E-1,7.643846E-1,-1.005884E0,-1.9118749E-1,-8.313779E-1,2.124651E-1,-2.608251E-2,7.871012E-1,-1.0939764E0,6.2866636E-2,1.0696316E0,-3.141854E-1,-3.7015479E-3,-3.1607967E-2,1.3870932E-2,-2.7896797E-2,1.1001152E-2,2.3189792E-2,-3.0955598E-2,-4.8762374E-3,-2.1511085E-2,1.9941427E-2,-0E0,2.8567707E-2,-1.624178E-2,-3.058221E-4],"categories":[],"categories_nodes":[],"categories_segments":[],"categories_sizes":[],"default_left":[0,0,0,0,0,0,0,0,0,0,0,0,0,0,0,0,0,0,0,0,0,0,0,0,0,0,0,0,0],"id":31,"left_children":[1,3,5,7,9,11,13,15,17,-1,19,21,23,25,27,-1,-1,-1,-1,-1,-1,-1,-1,-1,-1,-1,-1,-1,-1],"loss_changes":[9.735064E1,3.046806E1,3.0114582E1,7.708405E0,7.162422E0,5.692238E0,3.3082726E1,4.4057026E0,6.6066046E0,0E0,6.548401E0,6.5608444E0,4.679229E0,1.5271816E0,1.9507168E1,0E0,0E0,0E0,0E0,0E0,0E0,0E0,0E0,0E0,0E0,0E0,0E0,0E0,0E0],"parents":[2147483647,0,0,1,1,2,2,3,3,4,4,5,5,6,6,7,7,8,8,10,10,11,11,12,12,13,13,14,14],"right_children":[2,4,6,8,10,12,14,16,18,-1,20,22,24,26,28,-1,-1,-1,-1,-1,-1,-1,-1,-1,-1,-1,-1,-1,-1],"split_conditions":[-2.2793354E1,-1.6771171E0,2.0234E-2,4.650685E-1,3.0419028E-6,5.587833E0,3.0733296E-4,3.419294E1,3.2744476E-1,-2.608251E-2,-2.5617244E-4,1.9505192E0,3.4246965E-5,-7.611042E-1,1.87E-1,-3.7015479E-3,-3.1607967E-2,1.3870932E-2,-2.7896797E-2,1.1001152E-2,2.3189792E-2,-3.0955598E-2,-4.8762374E-3,-2.1511085E-2,1.9941427E-2,-0E0,2.8567707E-2,-1.624178E-2,-3.058221E-4],"split_indices":[35,26,15,11,7,35,7,2,8,0,3,26,7,27,15,0,0,0,0,0,0,0,0,0,0,0,0,0,0],"split_type":[0,0,0,0,0,0,0,0,0,0,0,0,0,0,0,0,0,0,0,0,0,0,0,0,0,0,0,0,0],"sum_hessian":[4.4103394E2,1.742194E2,2.668145E2,2.647289E1,1.477465E2,5.7115154E1,2.0969937E2,1.4892446E1,1.1580445E1,1.0541605E0,1.4669235E2,5.282399E1,4.291166E0,1.7677166E1,1.920222E2,6.5422683E0,8.350178E0,9.869033E0,1.7114125E0,4.4023727E1,1.02668625E2,4.500093E1,7.8230557E0,1.7428126E0,2.548353E0,1.1800357E0,1.649713E1,9.009429E1,1.0192792E2],"tree_param":{"num_deleted":"0","num_feature":"38","num_nodes":"29","size_leaf_vector":"1"}},{"base_weights":[1.5697319E-2,-3.027484E-1,6.8423605E-1,-5.911755E-1,1.1722286E-1,1.3927715E-1,9.4254124E-1,-9.722961E-1,-3.8021085E-1,-3.9497006E-1,3.3090448E-1,-6.867211E-1,3.2909298E-1,-9.61653E-3,9.699205E-1,6.35647E-3,-2.774377E-2,2.441535E-2,-1.397293E-2,5.781705E-3,-1.6467925E-2,-8.805583E-3,1.2254337E-2,3.8616417E-4,-2.817266E-2,-0E0,2.162443E-2,2.4710817E-2,-6.014018E-3],"categories":[],"categories_nodes":[],"categories_segments":[],"categories_sizes":[],"default_left":[0,0,0,0,0,0,0,0,0,0,0,0,0,0,0,0,0,0,0,0,0,0,0,0,0,0,0,0,0],"id":32,"left_children":[1,3,5,7,9,11,13,15,17,19,21,23,25,-1,27,-1,-1,-1,-1,-1,-1,-1,-1,-1,-1,-1,-1,-1,-1],"loss_changes":[9.2742775E1,3.585881E1,1.9511162E1,1.3469601E1,1.3407868E1,7.6048994E0,3.9966965E0,1.0806877E1,2.8569023E1,6.1997876E0,9.620619E0,2.9398808E0,6.934497E0,0E0,2.4802628E0,0E0,0E0,0E0,0E0,0E0,0E0,0E0,0E0,0E0,0E0,0E0,0E0,0E0,0E0],"parents":[2147483647,0,0,1,1,2,2,3,3,4,4,5,5,6,6,7,7,8,8,9,9,10,10,11,11,12,12,14,14],"right_children":[2,4,6,8,10,12,14,16,18,20,22,24,26,-1,28,-1,-1,-1,-1,-1,-1,-1,-1,-1,-1,-1,-1,-1,-1],"split_conditions":[3.3632465E1,1.707E-1,-2.3961936E-1,2.0234E-2,-1.1485915E0,2.3658161E1,4.9219944E-4,-5.5543993E-2,2.908075E-4,4.498308E-1,-9.174134E-1,-2.2348533E0,6.035629E-1,-9.61653E-3,-2.8035597E1,6.35647E-3,-2.774377E-2,2.441535E-2,-1.397293E-2,5.781705E-3,-1.6467925E-2,-8.805583E-3,1.2254337E-2,3.8616417E-4,-2.817266E-2,-0E0,2.162443E-2,2.4710817E-2,-6.014018E-3],"split_indices":[34,15,32,15,33,0,9,29,7,9,27,28,9,0,35,0,0,0,0,0,0,0,0,0,0,0,0,0,0],"split_type":[0,0,0,0,0,0,0,0,0,0,0,0,0,0,0,0,0,0,0,0,0,0,0,0,0,0,0,0,0],"sum_hessian":[4.328862E2,2.9359805E2,1.3928815E2,1.7388547E2,1.19712585E2,4.555875E1,9.37294E1,6.0116272E1,1.137692E2,3.4778328E1,8.493425E1,7.778782E0,3.777997E1,1.4777799E0,9.225162E1,5.8734307E0,5.4242844E1,1.24999075E1,1.01269295E2,1.02416315E1,2.4536697E1,1.5641741E1,6.929251E1,3.39323E0,4.385552E0,2.4154602E1,1.3625368E1,9.117829E1,1.0733262E0],"tree_param":{"num_deleted":"0","num_feature":"38","num_nodes":"29","size_leaf_vector":"1"}},{"base_weights":[-6.6287415E-3,-4.2807397E-1,5.776768E-1,-7.1034944E-1,-3.978474E-3,-1.9187966E-1,7.375938E-1,2.626892E-1,-8.089144E-1,-7.2097903E-1,2.5870508E-1,-6.497663E-1,4.437992E-1,4.4808632E-1,1.0331274E0,1.7716667E-2,-2.624225E-2,-3.0057637E-2,-1.583464E-2,1.3768466E-2,-2.2855697E-2,1.35645E-2,-6.219094E-3,-6.384851E-3,-3.5041884E-2,-1.5411558E-2,1.7442254E-2,-2.992913E-2,1.4546421E-2,1.2863963E-2,2.8323624E-2],"categories":[],"categories_nodes":[],"categories_segments":[],"categories_sizes":[],"default_left":[0,0,0,0,0,0,0,0,0,0,0,0,0,0,0,0,0,0,0,0,0,0,0,0,0,0,0,0,0,0,0],"id":33,"left_children":[1,3,5,7,9,11,13,15,17,19,21,23,25,27,29,-1,-1,-1,-1,-1,-1,-1,-1,-1,-1,-1,-1,-1,-1,-1,-1],"loss_changes":[1.0801884E2,3.0446983E1,2.2850842E1,1.4997772E1,1.9751383E1,9.866019E0,1.2298286E1,9.685459E0,8.443474E0,7.609684E0,1.1222786E1,5.160943E0,4.417919E0,1.8341887E1,2.9233704E0,0E0,0E0,0E0,0E0,0E0,0E0,0E0,0E0,0E0,0E0,0E0,0E0,0E0,0E0,0E0,0E0],"parents":[2147483647,0,0,1,1,2,2,3,3,4,4,5,5,6,6,7,7,8,8,9,9,10,10,11,11,12,12,13,13,14,14],"right_children":[2,4,6,8,10,12,14,16,18,20,22,24,26,28,30,-1,-1,-1,-1,-1,-1,-1,-1,-1,-1,-1,-1,-1,-1,-1,-1],"split_conditions":[2.3419687E1,1.87E-1,-1.1691236E0,-3.9388272E-1,-1.8834081E0,4.937547E-1,4.9124523E1,5.970999E-1,4.048081E1,2.11509E-3,2.1964389E-1,3.303961E1,-3.440117E1,1.2139E-2,-1.6024461E-1,1.7716667E-2,-2.624225E-2,-3.0057637E-2,-1.583464E-2,1.3768466E-2,-2.2855697E-2,1.35645E-2,-6.219094E-3,-6.384851E-3,-3.5041884E-2,-1.5411558E-2,1.7442254E-2,-2.992913E-2,1.4546421E-2,1.2863963E-2,2.8323624E-2],"split_indices":[34,15,28,34,31,9,34,8,2,8,8,0,6,15,32,0,0,0,0,0,0,0,0,0,0,0,0,0,0,0,0],"split_type":[0,0,0,0,0,0,0,0,0,0,0,0,0,0,0,0,0,0,0,0,0,0,0,0,0,0,0,0,0,0,0],"sum_hessian":[4.3610553E2,2.5366321E2,1.824423E2,1.5162753E2,1.0203567E2,3.1237135E1,1.5120518E2,1.3654115E1,1.3797342E2,2.6852848E1,7.518282E1,1.8232536E1,1.30046E1,7.820462E1,7.300056E1,1.0694191E1,2.9599235E0,4.0046944E1,9.792648E1,3.1567574E0,2.369609E1,4.8281536E1,2.6901285E1,1.3189347E1,5.0431886E0,2.077695E0,1.0926905E1,5.047189E0,7.315743E1,1.323674E1,5.9763817E1],"tree_param":{"num_deleted":"0","num_feature":"38","num_nodes":"31","size_leaf_vector":"1"}},{"base_weights":[6.8401704E-3,-3.8046527E-1,5.3413814E-1,-5.8916616E-1,6.9052845E-2,4.689742E-2,7.894489E-1,-5.1874924E-1,-1.590415E0,9.3544704E-1,-2.2845241E-1,-1.9739613E-1,5.4831964E-1,8.5407305E-1,-3.8187015E-1,-1.5704712E-2,1.8348122E-2,-1.3650708E-2,-4.546605E-2,2.663968E-2,-1.5383849E-2,-1.430162E-2,7.704343E-3,8.368381E-5,-2.4971182E-2,1.7494176E-2,-2.36351E-2,2.2168947E-2,-9.650155E-3,-3.2952826E-2,6.2106135E-3],"categories":[],"categories_nodes":[],"categories_segments":[],"categories_sizes":[],"default_left":[0,0,0,0,0,0,0,0,0,0,0,0,0,0,0,0,0,0,0,0,0,0,0,0,0,0,0,0,0,0,0],"id":34,"left_children":[1,3,5,7,9,11,13,15,17,19,21,23,25,27,29,-1,-1,-1,-1,-1,-1,-1,-1,-1,-1,-1,-1,-1,-1,-1,-1],"loss_changes":[8.9039856E1,2.3673225E1,2.2844208E1,1.0833195E1,2.1140818E1,8.140513E0,9.628578E0,2.2877937E1,9.919529E-1,5.1276836E0,1.1504569E1,7.2701273E0,5.7623E0,5.161621E0,4.7477784E0,0E0,0E0,0E0,0E0,0E0,0E0,0E0,0E0,0E0,0E0,0E0,0E0,0E0,0E0,0E0,0E0],"parents":[2147483647,0,0,1,1,2,2,3,3,4,4,5,5,6,6,7,7,8,8,9,9,10,10,11,11,12,12,13,13,14,14],"right_children":[2,4,6,8,10,12,14,16,18,20,22,24,26,28,30,-1,-1,-1,-1,-1,-1,-1,-1,-1,-1,-1,-1,-1,-1,-1,-1],"split_conditions":[2.3009596E1,2.951E-1,-5.357237E-1,2.8181E-1,8.124261E-3,5.638814E-1,1.3521627E0,1.87E-1,2.4126601E-1,1.3024595E0,7.417E0,4.7943797E-3,4.3412815E1,7.360173E1,5.9029068E1,-1.5704712E-2,1.8348122E-2,-1.3650708E-2,-4.546605E-2,2.663968E-2,-1.5383849E-2,-1.430162E-2,7.704343E-3,8.368381E-5,-2.4971182E-2,1.7494176E-2,-2.36351E-2,2.2168947E-2,-9.650155E-3,-3.2952826E-2,6.2106135E-3],"split_indices":[34,15,26,16,7,20,32,15,20,26,15,7,2,29,29,0,0,0,0,0,0,0,0,0,0,0,0,0,0,0,0],"split_type":[0,0,0,0,0,0,0,0,0,0,0,0,0,0,0,0,0,0,0,0,0,0,0,0,0,0,0,0,0,0,0],"sum_hessian":[4.3331934E2,2.4992177E2,1.8339757E2,1.7055542E2,7.936635E1,6.3721157E1,1.19676414E2,1.6128574E2,9.269671E0,1.9660275E1,5.9706074E1,4.3242264E1,2.0478893E1,1.1383346E2,5.842958E0,1.4899663E2,1.2289106E1,2.5318928E0,6.737778E0,1.85729E1,1.087374E0,3.646031E1,2.3245766E1,3.551615E1,7.7261114E0,1.9281857E1,1.1970372E0,1.1134964E2,2.4838195E0,1.8439531E0,3.999005E0],"tree_param":{"num_deleted":"0","num_feature":"38","num_nodes":"31","size_leaf_vector":"1"}},{"base_weights":[-0E0,-3.2111564E-1,6.791161E-1,-9.6845084E-1,-1.5451498E-1,3.9444808E-2,8.616712E-1,5.4262555E-1,-1.0750383E0,1.1100676E0,-2.4668649E-1,-2.8038493E-1,5.809683E-1,1.0531082E0,6.1076236E-1,-6.535036E-3,2.3556927E-2,-3.0373652E-2,-1.1364742E-2,-1.2079682E-3,3.0285059E-2,-1.35495365E-2,9.6674263E-4,-3.662541E-4,-3.2687422E-2,1.9427577E-2,-1.5598242E-2,2.7075818E-2,2.9224392E-3,2.1505443E-2,-6.1268914E-3],"categories":[],"categories_nodes":[],"categories_segments":[],"categories_sizes":[],"default_left":[0,0,0,0,0,0,0,0,0,0,0,0,0,0,0,0,0,0,0,0,0,0,0,0,0,0,0,0,0,0,0],"id":35,"left_children":[1,3,5,7,9,11,13,15,17,19,21,23,25,27,29,-1,-1,-1,-1,-1,-1,-1,-1,-1,-1,-1,-1,-1,-1,-1,-1],"loss_changes":[9.486974E1,3.1551096E1,1.617414E1,1.04905205E1,2.7848114E1,5.869162E0,4.2073975E0,1.9183823E0,4.0310974E0,2.0983276E0,1.8756409E1,5.62583E0,3.624154E0,1.3824387E0,1.106624E1,0E0,0E0,0E0,0E0,0E0,0E0,0E0,0E0,0E0,0E0,0E0,0E0,0E0,0E0,0E0,0E0],"parents":[2147483647,0,0,1,1,2,2,3,3,4,4,5,5,6,6,7,7,8,8,9,9,10,10,11,11,12,12,13,13,14,14],"right_children":[2,4,6,8,10,12,14,16,18,20,22,24,26,28,30,-1,-1,-1,-1,-1,-1,-1,-1,-1,-1,-1,-1,-1,-1,-1,-1],"split_conditions":[3.3632465E1,2.0234E-2,-9.353168E-1,-2.508072E0,1.7413979E-4,5.62665E-1,5.445088E1,6.9510446E-5,7.463574E-1,-1.7759233E1,1.87E-1,4.0974645E-3,-1.5172757E1,1.8522089E0,-4.4512955E1,-6.535036E-3,2.3556927E-2,-3.0373652E-2,-1.1364742E-2,-1.2079682E-3,3.0285059E-2,-1.35495365E-2,9.6674263E-4,-3.662541E-4,-3.2687422E-2,1.9427577E-2,-1.5598242E-2,2.7075818E-2,2.9224392E-3,2.1505443E-2,-6.1268914E-3],"split_indices":[34,15,26,34,7,10,29,7,33,6,15,7,5,31,35,0,0,0,0,0,0,0,0,0,0,0,0,0,0,0,0],"split_type":[0,0,0,0,0,0,0,0,0,0,0,0,0,0,0,0,0,0,0,0,0,0,0,0,0,0,0,0,0,0,0],"sum_hessian":[4.3245734E2,2.9410074E2,1.3835658E2,5.879453E1,2.3530623E2,3.1191296E1,1.0716528E2,3.461726E0,5.53328E1,1.4936579E1,2.2036964E2,1.988766E1,1.1303637E1,5.8203014E1,4.8962273E1,1.2156147E0,2.2461114E0,4.4003464E1,1.1329337E1,1.1768594E0,1.3759719E1,1.078965E2,1.12473145E2,1.6924778E1,2.9628816E0,1.0189528E1,1.1141088E0,5.6099205E1,2.1038094E0,3.7997223E1,1.0965049E1],"tree_param":{"num_deleted":"0","num_feature":"38","num_nodes":"31","size_leaf_vector":"1"}},{"base_weights":[1.3510841E-2,-2.7457717E-1,6.312495E-1,-5.43657E-1,1.4266519E-1,3.108631E-2,9.028015E-1,-9.635929E-1,-3.493428E-1,-3.466304E-1,3.4853724E-1,-5.987536E-1,2.4346367E-1,-1.8441977E-1,9.367117E-1,-7.3431144E-3,-3.0171994E-2,2.7785946E-2,-1.3273274E-2,2.020536E-2,-1.1289489E-2,1.46102505E-2,-2.6363048E-3,-2.256528E-2,1.1156616E-2,-1.1179372E-3,1.6957833E-2,7.099966E-3,-1.7479805E-2,2.4305942E-2,-5.125388E-4],"categories":[],"categories_nodes":[],"categories_segments":[],"categories_sizes":[],"default_left":[0,0,0,0,0,0,0,0,0,0,0,0,0,0,0,0,0,0,0,0,0,0,0,0,0,0,0,0,0,0,0],"id":36,"left_children":[1,3,5,7,9,11,13,15,17,19,21,23,25,27,29,-1,-1,-1,-1,-1,-1,-1,-1,-1,-1,-1,-1,-1,-1,-1,-1],"loss_changes":[7.6431915E1,3.300116E1,2.2137466E1,1.398444E1,1.1805369E1,6.042699E0,3.76194E0,8.43689E0,3.3636612E1,4.6508374E0,8.928335E0,4.1759167E0,4.359146E0,1.2249436E0,3.22818E0,0E0,0E0,0E0,0E0,0E0,0E0,0E0,0E0,0E0,0E0,0E0,0E0,0E0,0E0,0E0,0E0],"parents":[2147483647,0,0,1,1,2,2,3,3,4,4,5,5,6,6,7,7,8,8,9,9,10,10,11,11,12,12,13,13,14,14],"right_children":[2,4,6,8,10,12,14,16,18,20,22,24,26,28,30,-1,-1,-1,-1,-1,-1,-1,-1,-1,-1,-1,-1,-1,-1,-1,-1],"split_conditions":[3.280772E1,2.25E-1,-5.357237E-1,2.1015E-2,-1.8379902E0,3.08E-2,-2.4328966E1,1.4332966E1,2.908075E-4,2.0714803E-4,2.1964389E-1,5.736653E1,5.188911E0,2.8377044E-1,-2.952513E1,-7.3431144E-3,-3.0171994E-2,2.7785946E-2,-1.3273274E-2,2.020536E-2,-1.1289489E-2,1.46102505E-2,-2.6363048E-3,-2.256528E-2,1.1156616E-2,-1.1179372E-3,1.6957833E-2,7.099966E-3,-1.7479805E-2,2.4305942E-2,-5.125388E-4],"split_indices":[34,16,26,16,26,16,6,29,7,8,8,34,36,8,35,0,0,0,0,0,0,0,0,0,0,0,0,0,0,0,0],"split_type":[0,0,0,0,0,0,0,0,0,0,0,0,0,0,0,0,0,0,0,0,0,0,0,0,0,0,0,0,0,0,0],"sum_hessian":[4.2671533E2,2.9138538E2,1.3532993E2,1.7705093E2,1.1433445E2,4.27233E1,9.260663E1,5.4218063E1,1.2283288E2,3.3452766E1,8.088168E1,1.0058179E1,3.266512E1,2.5372999E0,9.006933E1,1.5319039E1,3.889902E1,1.2784088E1,1.1004879E2,1.9817488E0,3.1471016E1,5.3126377E1,2.7755306E1,8.003783E0,2.054396E0,2.0208805E1,1.2456316E1,1.5318877E0,1.0054122E0,8.692719E1,3.1421413E0],"tree_param":{"num_deleted":"0","num_feature":"38","num_nodes":"31","size_leaf_vector":"1"}},{"base_weights":[-2.000654E-2,6.281477E-1,-2.9083878E-1,-2.8397936E-1,8.164055E-1,-9.064054E-1,-1.3229185E-1,-6.312462E-1,3.1042615E-1,1.5103398E-1,9.280324E-1,4.29559E-1,-1.0458698E0,1.1383343E0,-2.3743297E-1,1.289285E-2,-2.1745153E-2,-1.772604E-2,1.581875E-2,1.4094243E-2,-1.3389199E-2,2.3672905E-2,-3.378963E-3,-1.2646916E-2,2.6646404E-2,-2.8876204E-2,-2.1077388E-3,6.0251015E-3,2.9291978E-2,-1.6363306E-2,-1.8634284E-3],"categories":[],"categories_nodes":[],"categories_segments":[],"categories_sizes":[],"default_left":[0,0,0,0,0,0,0,0,0,0,0,0,0,0,0,0,0,0,0,0,0,0,0,0,0,0,0,0,0,0,0],"id":37,"left_children":[1,3,5,7,9,11,13,15,17,19,21,23,25,27,29,-1,-1,-1,-1,-1,-1,-1,-1,-1,-1,-1,-1,-1,-1,-1,-1],"loss_changes":[7.499257E1,2.1967026E1,2.916407E1,4.911921E0,7.49041E0,1.2084976E1,3.250968E1,4.634802E0,3.5422873E0,5.136657E0,2.0409317E0,4.719408E0,5.6325226E0,4.8158646E-2,1.508916E1,0E0,0E0,0E0,0E0,0E0,0E0,0E0,0E0,0E0,0E0,0E0,0E0,0E0,0E0,0E0,0E0],"parents":[2147483647,0,0,1,1,2,2,3,3,4,4,5,5,6,6,7,7,8,8,9,9,10,10,11,11,12,12,13,13,14,14],"right_children":[2,4,6,8,10,12,14,16,18,20,22,24,26,28,30,-1,-1,-1,-1,-1,-1,-1,-1,-1,-1,-1,-1,-1,-1,-1,-1],"split_conditions":[-3.1435884E1,-6.590594E-1,2.0234E-2,7.2272285E-3,-5.975E-1,-8.6021507E-1,2.908075E-4,5.010593E1,-3.334753E0,3.6558163E1,7.360173E1,5.1745824E-3,6.010731E1,-4.172662E0,-1.0935788E0,1.289285E-2,-2.1745153E-2,-1.772604E-2,1.581875E-2,1.4094243E-2,-1.3389199E-2,2.3672905E-2,-3.378963E-3,-1.2646916E-2,2.6646404E-2,-2.8876204E-2,-2.1077388E-3,6.0251015E-3,2.9291978E-2,-1.6363306E-2,-1.8634284E-3],"split_indices":[35,33,15,7,25,29,7,29,31,1,29,9,2,29,25,0,0,0,0,0,0,0,0,0,0,0,0,0,0,0,0],"split_type":[0,0,0,0,0,0,0,0,0,0,0,0,0,0,0,0,0,0,0,0,0,0,0,0,0,0,0,0,0,0,0],"sum_hessian":[4.247473E2,1.2456195E2,3.0018536E2,2.1106537E1,1.03455414E2,6.009616E1,2.4008922E2,1.3378273E1,7.7282643E0,1.5431006E1,8.8024414E1,5.3571925E0,5.4738968E1,1.729951E1,2.227897E2,1.9712594E0,1.1407013E1,1.407276E0,6.320988E0,9.8738E0,5.557206E0,8.672036E1,1.3040496E0,2.2130432E0,3.1441493E0,4.8829178E1,5.9097905E0,1.1104864E0,1.6189022E1,6.1297733E1,1.6149197E2],"tree_param":{"num_deleted":"0","num_feature":"38","num_nodes":"31","size_leaf_vector":"1"}},{"base_weights":[-4.751804E-3,-3.7154067E-1,5.126489E-1,-6.247965E-1,5.9762157E-2,3.3996098E-2,7.8874534E-1,-1.0223167E0,-4.2681155E-1,7.607817E-1,-2.1752937E-1,1.1897103E-1,-3.7493587E-2,9.4681513E-1,3.5695902E-1,-2.8312067E-2,4.9232272E-3,3.2193933E-3,-1.9995222E-2,2.2824505E-2,-1.6631769E-2,-2.5510896E-2,-3.4883065E-4,-2.9857033E-3,1.5692E-2,2.4458619E-2,-1.4388524E-2,-1.1496003E-2,1.8499166E-2],"categories":[],"categories_nodes":[],"categories_segments":[],"categories_sizes":[],"default_left":[0,0,0,0,0,0,0,0,0,0,0,0,0,0,0,0,0,0,0,0,0,0,0,0,0,0,0,0,0],"id":38,"left_children":[1,3,5,7,9,11,13,15,17,19,21,23,-1,25,27,-1,-1,-1,-1,-1,-1,-1,-1,-1,-1,-1,-1,-1,-1],"loss_changes":[8.040315E1,2.720137E1,2.3099064E1,1.1609032E1,1.8311275E1,8.663696E0,7.0212708E0,7.226898E0,2.2355003E1,6.6090593E0,1.0897305E1,7.8577137E0,0E0,4.634262E0,1.0500319E1,0E0,0E0,0E0,0E0,0E0,0E0,0E0,0E0,0E0,0E0,0E0,0E0,0E0,0E0],"parents":[2147483647,0,0,1,1,2,2,3,3,4,4,5,5,6,6,7,7,8,8,9,9,10,10,11,11,13,13,14,14],"right_children":[2,4,6,8,10,12,14,16,18,20,22,24,-1,26,28,-1,-1,-1,-1,-1,-1,-1,-1,-1,-1,-1,-1,-1,-1],"split_conditions":[2.3419687E1,2.9505435E-1,-5.357237E-1,1.588121E-1,8.695515E-3,7.32562E1,9.7286564E-1,3.795657E1,3.843987E-1,1.5371996E1,-3.5288196E0,5.696025E-1,-3.7493587E-2,9.46245E-1,5.924557E1,-2.8312067E-2,4.9232272E-3,3.2193933E-3,-1.9995222E-2,2.2824505E-2,-1.6631769E-2,-2.5510896E-2,-3.4883065E-4,-2.9857033E-3,1.5692E-2,2.4458619E-2,-1.4388524E-2,-1.1496003E-2,1.8499166E-2],"split_indices":[34,18,26,8,7,29,31,29,8,34,31,21,0,25,2,0,0,0,0,0,0,0,0,0,0,0,0,0,0],"split_type":[0,0,0,0,0,0,0,0,0,0,0,0,0,0,0,0,0,0,0,0,0,0,0,0,0,0,0,0,0],"sum_hessian":[4.2114172E2,2.4676682E2,1.7437491E2,1.5525285E2,9.151397E1,6.445506E1,1.09919846E2,4.964878E1,1.0560407E2,2.5398375E1,6.61156E1,6.2269463E1,2.1856022E0,7.915888E1,3.0760962E1,4.5694534E1,3.9542437E0,4.2653652E1,6.295042E1,2.3435062E1,1.9633123E0,1.2218434E1,5.3897163E1,4.2943047E1,1.9326418E1,7.807217E1,1.0867181E0,9.653054E0,2.1107908E1],"tree_param":{"num_deleted":"0","num_feature":"38","num_nodes":"29","size_leaf_vector":"1"}},{"base_weights":[-1.9259332E-2,5.337152E-1,-3.3760735E-1,-8.3362594E-2,7.8154635E-1,-5.757798E-1,4.853828E-2,1.182601E-1,-3.8957313E-2,-3.6291784E-1,8.3712107E-1,-6.4518166E-1,4.0542963E-1,-8.94351E-1,1.8001045E-1,-1.1510168E-2,9.208645E-3,-2.7787482E-2,9.785118E-3,1.4626155E-2,2.4969794E-2,9.05881E-3,-1.7848298E-2,2.0671723E-2,-2.1612333E-2,7.5931447E-3,-3.765228E-2,-3.4030962E-3,1.0244484E-2],"categories":[],"categories_nodes":[],"categories_segments":[],"categories_sizes":[],"default_left":[0,0,0,0,0,0,0,0,0,0,0,0,0,0,0,0,0,0,0,0,0,0,0,0,0,0,0,0,0],"id":39,"left_children":[1,3,5,7,9,11,13,15,-1,17,19,21,23,25,27,-1,-1,-1,-1,-1,-1,-1,-1,-1,-1,-1,-1,-1,-1],"loss_changes":[7.430983E1,2.373207E1,2.473982E1,1.3835617E1,7.4537277E0,1.1671082E1,1.2942203E1,6.136516E0,0E0,3.9852977E0,3.3857956E0,1.1154434E1,7.172101E0,1.0070315E1,6.769951E0,0E0,0E0,0E0,0E0,0E0,0E0,0E0,0E0,0E0,0E0,0E0,0E0,0E0,0E0],"parents":[2147483647,0,0,1,1,2,2,3,3,4,4,5,5,6,6,7,7,9,9,10,10,11,11,12,12,13,13,14,14],"right_children":[2,4,6,8,10,12,14,16,-1,18,20,22,24,26,28,-1,-1,-1,-1,-1,-1,-1,-1,-1,-1,-1,-1,-1,-1],"split_conditions":[-2.2793354E1,-4.346478E-1,2.25E-1,6.99284E1,-1.3374352E0,1.7143831E0,-3.5288196E0,6.790837E-2,-3.8957313E-2,-5.66697E1,-5.1968384E1,-5.3932586E0,8.341334E1,5.0416344E-1,-3.123633E-3,-1.1510168E-2,9.208645E-3,-2.7787482E-2,9.785118E-3,1.4626155E-2,2.4969794E-2,9.05881E-3,-1.7848298E-2,2.0671723E-2,-2.1612333E-2,7.5931447E-3,-3.765228E-2,-3.4030962E-3,1.0244484E-2],"split_indices":[35,32,16,29,28,27,31,9,0,30,30,29,0,9,4,0,0,0,0,0,0,0,0,0,0,0,0,0,0],"split_type":[0,0,0,0,0,0,0,0,0,0,0,0,0,0,0,0,0,0,0,0,0,0,0,0,0,0,0,0,0],"sum_hessian":[4.1960373E2,1.5287111E2,2.667326E2,4.3935303E1,1.0893581E2,1.6474152E2,1.0199109E2,3.9643948E1,4.2913556E0,4.628627E0,1.0430718E2,1.5436992E2,1.0371612E1,1.1464715E1,9.0526375E1,1.1512444E1,2.8131504E1,2.080737E0,2.54789E0,4.334582E1,6.0961357E1,9.413205E0,1.4495671E2,8.186962E0,2.18465E0,4.041207E0,7.4235077E0,3.8142082E1,5.2384293E1],"tree_param":{"num_deleted":"0","num_feature":"38","num_nodes":"29","size_leaf_vector":"1"}},{"base_weights":[1.6960636E-2,-3.1322467E-1,5.8999175E-1,-5.699802E-1,2.8633868E-2,2.6181424E-1,9.4191074E-1,-1.0360181E0,-3.8693658E-1,-7.065858E-1,1.9846497E-1,-2.07476E-1,7.5364864E-1,4.8060843E-1,1.0698068E0,-2.9097466E-2,-0E0,-1.7594175E-2,9.675434E-4,-5.3908452E-3,-3.554681E-2,2.6928816E-2,2.169948E-3,-2.5745967E-2,9.813124E-4,-3.273711E-3,2.241919E-2,1.6032273E-3,2.0779561E-2,1.5688575E-3,2.7154878E-2],"categories":[],"categories_nodes":[],"categories_segments":[],"categories_sizes":[],"default_left":[0,0,0,0,0,0,0,0,0,0,0,0,0,0,0,0,0,0,0,0,0,0,0,0,0,0,0,0,0,0,0],"id":40,"left_children":[1,3,5,7,9,11,13,15,17,19,21,23,25,27,29,-1,-1,-1,-1,-1,-1,-1,-1,-1,-1,-1,-1,-1,-1,-1,-1],"loss_changes":[7.892528E1,2.3290442E1,1.7175655E1,1.2240971E1,1.4430019E1,1.8925526E1,3.48098E0,5.4223213E0,1.5049618E1,7.0450354E0,9.0001745E0,8.734845E0,5.277519E0,2.5228724E0,7.1891785E-1,0E0,0E0,0E0,0E0,0E0,0E0,0E0,0E0,0E0,0E0,0E0,0E0,0E0,0E0,0E0,0E0],"parents":[2147483647,0,0,1,1,2,2,3,3,4,4,5,5,6,6,7,7,8,8,9,9,10,10,11,11,12,12,13,13,14,14],"right_children":[2,4,6,8,10,12,14,16,18,20,22,24,26,28,30,-1,-1,-1,-1,-1,-1,-1,-1,-1,-1,-1,-1,-1,-1,-1,-1],"split_conditions":[2.73439E1,2.197E-1,4.6893353E1,4.000009E1,-1.216458E0,-4.455128E1,-1.6024461E-1,1.9777227E1,-9.853748E0,1.1207154E0,-8.340666E0,-6.055794E1,-1.1449336E0,-5.4993008E1,7.001323E-4,-2.9097466E-2,-0E0,-1.7594175E-2,9.675434E-4,-5.3908452E-3,-3.554681E-2,2.6928816E-2,2.169948E-3,-2.5745967E-2,9.813124E-4,-3.273711E-3,2.241919E-2,1.6032273E-3,2.0779561E-2,1.5688575E-3,2.7154878E-2],"split_indices":[34,23,34,2,27,30,32,34,30,9,34,30,32,30,9,0,0,0,0,0,0,0,0,0,0,0,0,0,0,0,0],"split_type":[0,0,0,0,0,0,0,0,0,0,0,0,0,0,0,0,0,0,0,0,0,0,0,0,0,0,0,0,0,0,0],"sum_hessian":[4.1442242E2,2.6318686E2,1.5123557E2,1.4997328E2,1.1321358E2,7.957771E1,7.165785E1,4.0430645E1,1.0954263E2,2.036284E1,9.285073E1,4.100272E1,3.8574997E1,1.7066936E1,5.4590916E1,3.576703E1,4.663614E0,6.244569E1,4.7096943E1,1.316113E1,7.2017107E0,9.101019E0,8.374972E1,8.6040325E0,3.2398685E1,5.2900176E0,3.328498E1,8.633478E0,8.433458E0,1.072404E0,5.3518513E1],"tree_param":{"num_deleted":"0","num_feature":"38","num_nodes":"31","size_leaf_vector":"1"}},{"base_weights":[-8.944704E-3,-2.4211842E-1,7.482823E-1,-4.098478E-1,1.4489755E-1,-0E0,8.6950713E-1,-5.645302E-1,2.3144862E-2,-2.855529E-1,6.1189514E-1,-4.238517E-1,2.3104347E-2,3.8176128E-1,9.654032E-1,-1.884634E-2,-1.662294E-3,1.0754247E-2,-1.1327105E-2,-2.1042068E-2,-1.6593402E-3,-4.179987E-3,1.9491069E-2,-2.4483291E-2,1.2711435E-2,1.6466059E-2,-4.9621756E-3,1.8394254E-3,2.469731E-2],"categories":[],"categories_nodes":[],"categories_segments":[],"categories_sizes":[],"default_left":[0,0,0,0,0,0,0,0,0,0,0,0,0,0,0,0,0,0,0,0,0,0,0,0,0,0,0,0,0],"id":41,"left_children":[1,3,5,7,9,11,13,15,17,19,21,23,-1,25,27,-1,-1,-1,-1,-1,-1,-1,-1,-1,-1,-1,-1,-1,-1],"loss_changes":[7.4173386E1,2.0971523E1,8.973255E0,1.51268425E1,1.9955172E1,6.4133067E0,3.3662949E0,1.54904175E1,1.1929032E1,6.1455507E0,6.4410095E0,6.511627E0,0E0,2.8352458E0,1.2051544E0,0E0,0E0,0E0,0E0,0E0,0E0,0E0,0E0,0E0,0E0,0E0,0E0,0E0,0E0],"parents":[2147483647,0,0,1,1,2,2,3,3,4,4,5,5,6,6,7,7,8,8,9,9,10,10,11,11,13,13,14,14],"right_children":[2,4,6,8,10,12,14,16,18,20,22,24,-1,26,28,-1,-1,-1,-1,-1,-1,-1,-1,-1,-1,-1,-1,-1,-1],"split_conditions":[3.9754505E1,2.951E-1,-8.021843E-1,3.7140656E-1,-3.4944147E-3,-1.0586447E-5,-3.5004014E-1,2.1354006E1,2.859891E1,-1.097711E0,-9.6301407E-1,8.452787E-3,2.3104347E-2,-8.6640444E-4,1.293607E-3,-1.884634E-2,-1.662294E-3,1.0754247E-2,-1.1327105E-2,-2.1042068E-2,-1.6593402E-3,-4.179987E-3,1.9491069E-2,-2.4483291E-2,1.2711435E-2,1.6466059E-2,-4.9621756E-3,1.8394254E-3,2.469731E-2],"split_indices":[34,15,25,33,4,4,33,34,29,27,27,7,0,4,8,0,0,0,0,0,0,0,0,0,0,0,0,0,0],"split_type":[0,0,0,0,0,0,0,0,0,0,0,0,0,0,0,0,0,0,0,0,0,0,0,0,0,0,0,0,0],"sum_hessian":[4.1774274E2,3.2016913E2,9.757362E1,2.2349153E2,9.6677605E1,1.3778935E1,8.3794685E1,1.6454533E2,5.8946194E1,5.045873E1,4.6218872E1,9.9327545E0,3.846181E0,1.5003263E1,6.879142E1,1.1859451E2,4.5950825E1,3.1963358E1,2.6982836E1,1.309188E1,3.7366848E1,8.08352E0,3.8135353E1,6.2503934E0,3.6823606E0,1.0154484E1,4.84878E0,1.9380077E0,6.685342E1],"tree_param":{"num_deleted":"0","num_feature":"38","num_nodes":"29","size_leaf_vector":"1"}},{"base_weights":[1.110066E-2,-3.0090782E-1,5.24618E-1,-5.222328E-1,1.7050913E-1,1.20488614E-1,8.446676E-1,-6.758914E-1,-8.635066E-2,-1.1620528E0,2.901068E-1,2.4071762E-1,-9.2084825E-1,5.870611E-1,1.0647867E0,1.6152538E-2,-1.7952116E-2,9.77726E-3,-1.7766768E-2,-3.1873543E-2,-6.528468E-3,1.3923119E-2,-9.4805466E-4,-2.4256092E-3,1.559437E-2,-2.9620225E-2,1.4506666E-3,-1.3368218E-2,2.3525437E-2,2.54144E-3,2.7091268E-2],"categories":[],"categories_nodes":[],"categories_segments":[],"categories_sizes":[],"default_left":[0,0,0,0,0,0,0,0,0,0,0,0,0,0,0,0,0,0,0,0,0,0,0,0,0,0,0,0,0,0,0],"id":42,"left_children":[1,3,5,7,9,11,13,15,17,19,21,23,25,27,29,-1,-1,-1,-1,-1,-1,-1,-1,-1,-1,-1,-1,-1,-1,-1,-1],"loss_changes":[6.711695E1,2.7319881E1,2.0256538E1,1.1747536E1,1.3743109E1,9.190778E0,4.0139084E0,7.917404E0,1.4691229E1,1.3683414E-1,6.925399E0,8.586154E0,2.1656785E0,1.803395E1,5.6788254E-1,0E0,0E0,0E0,0E0,0E0,0E0,0E0,0E0,0E0,0E0,0E0,0E0,0E0,0E0,0E0,0E0],"parents":[2147483647,0,0,1,1,2,2,3,3,4,4,5,5,6,6,7,7,8,8,9,9,10,10,11,11,12,12,13,13,14,14],"right_children":[2,4,6,8,10,12,14,16,18,20,22,24,26,28,30,-1,-1,-1,-1,-1,-1,-1,-1,-1,-1,-1,-1,-1,-1,-1,-1],"split_conditions":[2.6066608E1,2.951E-1,-1.1413331E-1,3.7140656E-1,2.5390905E1,6.99284E1,5.1992836E1,-6.2645525E-3,2.2483423E1,1.5854192E1,1.5277838E1,-2.3552117E-1,5.9120674E1,-5.4517765E1,-7.586496E-1,1.6152538E-2,-1.7952116E-2,9.77726E-3,-1.7766768E-2,-3.1873543E-2,-6.528468E-3,1.3923119E-2,-9.4805466E-4,-2.4256092E-3,1.559437E-2,-2.9620225E-2,1.4506666E-3,-1.3368218E-2,2.3525437E-2,2.54144E-3,2.7091268E-2],"split_indices":[34,15,32,33,1,29,34,3,29,34,29,27,0,30,33,0,0,0,0,0,0,0,0,0,0,0,0,0,0,0,0],"split_type":[0,0,0,0,0,0,0,0,0,0,0,0,0,0,0,0,0,0,0,0,0,0,0,0,0,0,0,0,0,0,0],"sum_hessian":[4.1617978E2,2.590978E2,1.5708197E2,1.7636734E2,8.273048E1,7.0351006E1,8.6730965E1,1.2969986E2,4.6667473E1,5.81147E0,7.691901E1,6.4051384E1,6.299623E0,4.236841E1,4.436256E1,3.3627195E0,1.2633714E2,2.6628857E1,2.0038616E1,4.5860977E0,1.2253726E0,4.208494E1,3.4834064E1,3.441622E1,2.9635162E1,4.8267274E0,1.4728955E0,9.935016E0,3.243339E1,1.1135875E0,4.3248974E1],"tree_param":{"num_deleted":"0","num_feature":"38","num_nodes":"31","size_leaf_vector":"1"}},{"base_weights":[-1.7089006E-2,-3.0577958E-1,5.144908E-1,-5.208674E-1,2.3481272E-2,2.83188E-3,7.707237E-1,-9.944286E-1,-3.339551E-1,9.369232E-1,-8.71185E-2,-2.660079E-1,5.6765586E-1,9.1647816E-1,4.0108725E-1,-2.8577542E-2,-1.4924906E-3,-5.0480636E-3,-2.5450796E-2,-3.0940743E-3,2.679781E-2,-3.3984464E-2,1.9114207E-4,1.098676E-3,-1.9983793E-2,1.766519E-2,-1.6195394E-2,-1.1818461E-2,2.3864696E-2,2.0592673E-2,-1.7160399E-2],"categories":[],"categories_nodes":[],"categories_segments":[],"categories_sizes":[],"default_left":[0,0,0,0,0,0,0,0,0,0,0,0,0,0,0,0,0,0,0,0,0,0,0,0,0,0,0,0,0,0,0],"id":43,"left_children":[1,3,5,7,9,11,13,15,17,19,21,23,25,27,29,-1,-1,-1,-1,-1,-1,-1,-1,-1,-1,-1,-1,-1,-1,-1,-1],"loss_changes":[6.439886E1,1.9336575E1,1.927494E1,1.4025459E1,1.1160472E1,7.924725E0,4.6828804E0,6.1611214E0,1.0475759E1,1.9761658E0,1.1957287E1,5.925953E0,3.4524698E0,4.300991E0,1.466859E1,0E0,0E0,0E0,0E0,0E0,0E0,0E0,0E0,0E0,0E0,0E0,0E0,0E0,0E0,0E0,0E0],"parents":[2147483647,0,0,1,1,2,2,3,3,4,4,5,5,6,6,7,7,8,8,9,9,10,10,11,11,12,12,13,13,14,14],"right_children":[2,4,6,8,10,12,14,16,18,20,22,24,26,28,30,-1,-1,-1,-1,-1,-1,-1,-1,-1,-1,-1,-1,-1,-1,-1,-1],"split_conditions":[2.83665E1,1.87E-1,-3.029113E-1,4.000009E1,3.211263E-3,7.936675E-3,3.211263E-3,1.9777227E1,1.212E-1,4.4318893E1,2.9547E-1,5.9631992E1,6.7511123E-1,4.77895E-4,5.6455887E1,-2.8577542E-2,-1.4924906E-3,-5.0480636E-3,-2.5450796E-2,-3.0940743E-3,2.679781E-2,-3.3984464E-2,1.9114207E-4,1.098676E-3,-1.9983793E-2,1.766519E-2,-1.6195394E-2,-1.1818461E-2,2.3864696E-2,2.0592673E-2,-1.7160399E-2],"split_indices":[34,15,32,2,7,7,7,34,15,2,10,29,8,10,29,0,0,0,0,0,0,0,0,0,0,0,0,0,0,0,0],"split_type":[0,0,0,0,0,0,0,0,0,0,0,0,0,0,0,0,0,0,0,0,0,0,0,0,0,0,0,0,0,0,0],"sum_hessian":[4.171435E2,2.7081143E2,1.4633206E2,1.6353217E2,1.0727928E2,4.9397423E1,9.693465E1,4.4538353E1,1.18993805E2,1.0635156E1,9.664412E1,3.3813763E1,1.5583658E1,6.794781E1,2.8986835E1,3.808411E1,6.4542446E0,1.012765E2,1.7717308E1,1.1292573E0,9.505898E0,5.570057E0,9.1074066E1,2.202135E1,1.1792413E1,1.4547163E1,1.0364953E0,1.3482904E0,6.659952E1,2.1167955E1,7.8188806E0],"tree_param":{"num_deleted":"0","num_feature":"38","num_nodes":"31","size_leaf_vector":"1"}},{"base_weights":[2.1324364E-2,-1.8652631E-1,6.790617E-1,-6.9353217E-1,-5.7343777E-2,9.366242E-2,9.298628E-1,5.021249E-1,-7.8676033E-1,1.1163641E0,-1.4698373E-1,-7.3288417E-1,3.9739078E-1,-4.3621943E-3,9.551512E-1,2.717998E-2,-1.6325323E-2,-2.392788E-2,1.7443685E-3,-0E0,2.9866008E-2,-8.048757E-3,3.1473022E-3,-3.1670555E-2,4.8190104E-3,1.4787311E-2,-1.2246757E-2,-1.032531E-3,2.4513531E-2],"categories":[],"categories_nodes":[],"categories_segments":[],"categories_sizes":[],"default_left":[0,0,0,0,0,0,0,0,0,0,0,0,0,0,0,0,0,0,0,0,0,0,0,0,0,0,0,0,0],"id":44,"left_children":[1,3,5,7,9,11,13,15,17,19,21,23,25,-1,27,-1,-1,-1,-1,-1,-1,-1,-1,-1,-1,-1,-1,-1,-1],"loss_changes":[5.5742805E1,2.0147413E1,1.4162312E1,7.51791E0,2.6236702E1,8.111698E0,2.2019463E0,4.5095396E0,8.731827E0,1.4927769E0,1.1143123E1,4.7158422E0,4.4434752E0,0E0,1.84301E0,0E0,0E0,0E0,0E0,0E0,0E0,0E0,0E0,0E0,0E0,0E0,0E0,0E0,0E0],"parents":[2147483647,0,0,1,1,2,2,3,3,4,4,5,5,6,6,7,7,8,8,9,9,10,10,11,11,12,12,14,14],"right_children":[2,4,6,8,10,12,14,16,18,20,22,24,26,-1,28,-1,-1,-1,-1,-1,-1,-1,-1,-1,-1,-1,-1,-1,-1],"split_conditions":[3.8567394E1,2.0234E-2,-5.357237E-1,-2.9958198E0,2.908075E-4,4.222E-2,4.9219944E-4,3.644665E-1,6.317027E1,-6.626493E-1,2.951E-1,-6.123773E-5,4.1596424E1,-4.3621943E-3,1.293607E-3,2.717998E-2,-1.6325323E-2,-2.392788E-2,1.7443685E-3,-0E0,2.9866008E-2,-8.048757E-3,3.1473022E-3,-3.1670555E-2,4.8190104E-3,1.4787311E-2,-1.2246757E-2,-1.032531E-3,2.4513531E-2],"split_indices":[34,15,26,29,7,16,9,8,1,25,15,3,1,0,8,0,0,0,0,0,0,0,0,0,0,0,0,0,0],"split_type":[0,0,0,0,0,0,0,0,0,0,0,0,0,0,0,0,0,0,0,0,0,0,0,0,0,0,0,0,0],"sum_hessian":[4.0487674E2,3.0824725E2,9.662949E1,6.1281387E1,2.4696585E2,2.9637138E1,6.6992355E1,3.9426193E0,5.7338768E1,1.6387623E1,2.3057823E2,7.3820415E0,2.2255096E1,1.2394854E0,6.575287E1,2.7252936E0,1.2173257E0,4.7796658E1,9.5421095E0,1.195974E0,1.51916485E1,1.4057497E2,9.0003265E1,4.4462132E0,2.9358282E0,1.8708412E1,3.5466838E0,1.5156772E0,6.423719E1],"tree_param":{"num_deleted":"0","num_feature":"38","num_nodes":"29","size_leaf_vector":"1"}},{"base_weights":[-3.197356E-3,-2.9339567E-1,4.9728376E-1,-4.728429E-1,3.4399305E-2,-1.8115199E-1,6.593658E-1,-6.1224437E-1,-6.573073E-2,6.9117236E-1,-2.1146919E-1,3.9264083E-1,-4.22924E-1,4.7511953E-1,9.9140143E-1,-1.7607966E-2,6.7319027E-3,8.256259E-3,-1.4726064E-2,2.214427E-2,-2.6475916E-2,-1.49912825E-2,6.8421597E-3,-5.1019243E-3,1.8625239E-2,-3.5393236E-3,-2.762249E-2,1.699425E-2,-8.934194E-3,-5.2502723E-3,2.5778273E-2],"categories":[],