{"learner":{"attributes":{"best_iteration":"1","best_score":"0.5902332621082621","scikit_learn":"{\"_estimator_type\": \"classifier\"}"},"feature_names":["rsi_9","rsi_14","rsi_24","tsi_fast_12_7_7","tsi_fast_12_7_7_signal","macd_dif_pct","macd_dea_pct","atr_pct","r_squared","trend_direction_num","pct_ema9","pct_ema21","pct_wma9","pct_kama9","pct_support","pct_resist","pct_boll_mid","ema9_ema21_pct","kama9_kama21_pct","support_atr","resist_atr","boll_width_atr"],"feature_types":["float","float","float","float","float","float","float","float","float","int","float","float","float","float","float","float","float","float","float","float","float","float"],"gradient_booster":{"model":{"cats":{"enc":[],"feature_segments":[],"sorted_idx":[]},"gbtree_model_param":{"num_parallel_tree":"1","num_trees":"52"},"iteration_indptr":[0,1,2,3,4,5,6,7,8,9,10,11,12,13,14,15,16,17,18,19,20,21,22,23,24,25,26,27,28,29,30,31,32,33,34,35,36,37,38,39,40,41,42,43,44,45,46,47,48,49,50,51,52],"tree_info":[0,0,0,0,0,0,0,0,0,0,0,0,0,0,0,0,0,0,0,0,0,0,0,0,0,0,0,0,0,0,0,0,0,0,0,0,0,0,0,0,0,0,0,0,0,0,0,0,0,0,0,0],"trees":[{"base_weights":[1.4142329E-2,-7.2733635E-1,1.0503676E0,4.167328E-1,-9.225267E-1,1.3264378E0,2.8798807E-1,-4.7128E-3,1.36798E0,-1.1216264E0,-3.5127804E-1,2.372338E-1,1.4254868E0,3.9275956E-1,-4.123521E-2,3.157508E-2,-7.0617036E-3,3.5416897E-2,6.8060844E-3,-1.1239326E-2,-3.201286E-2,-2.6555032E-2,-4.7471984E-3,-6.8785064E-3,2.5286624E-2,3.636985E-2,1.3049944E-2,-1.1809162E-2,1.2448638E-2],"categories":[],"categories_nodes":[],"categories_segments":[],"categories_sizes":[],"default_left":[0,0,0,0,0,0,0,0,0,0,0,0,0,0,0,0,0,0,0,0,0,0,0,0,0,0,0,0,0],"id":0,"left_children":[1,3,5,7,9,11,13,15,17,19,21,23,25,27,-1,-1,-1,-1,-1,-1,-1,-1,-1,-1,-1,-1,-1,-1,-1],"loss_changes":[5.063313E2,8.631584E1,5.7199768E1,2.2914162E1,3.6710144E1,2.1117676E1,1.5907397E1,1.4654948E1,2.6428223E-1,2.5018402E1,9.587955E0,7.745886E0,3.6932983E0,6.869131E0,0E0,0E0,0E0,0E0,0E0,0E0,0E0,0E0,0E0,0E0,0E0,0E0,0E0,0E0,0E0],"parents":[2147483647,0,0,1,1,2,2,3,3,4,4,5,5,6,6,7,7,8,8,9,9,10,10,11,11,12,12,13,13],"right_children":[2,4,6,8,10,12,14,16,18,20,22,24,26,28,-1,-1,-1,-1,-1,-1,-1,-1,-1,-1,-1,-1,-1,-1,-1],"split_conditions":[2.542391E1,1.0712874E0,1.2930275E0,5.290447E1,0E0,4.2386833E1,2.3499706E0,5.2220935E-1,1.1026828E0,2.640264E0,-1.2093023E1,-6.746907E-1,1.0273836E0,1.3371785E0,-4.123521E-2,3.157508E-2,-7.0617036E-3,3.5416897E-2,6.8060844E-3,-1.1239326E-2,-3.201286E-2,-2.6555032E-2,-4.7471984E-3,-6.8785064E-3,2.5286624E-2,3.636985E-2,1.3049944E-2,-1.1809162E-2,1.2448638E-2],"split_indices":[19,7,7,2,9,2,7,7,10,14,15,13,10,7,0,0,0,0,0,0,0,0,0,0,0,0,0,0,0],"split_type":[0,0,0,0,0,0,0,0,0,0,0,0,0,0,0,0,0,0,0,0,0,0,0,0,0,0,0,0,0],"sum_hessian":[6.563601E2,3.8276254E2,2.7359756E2,5.5496002E1,3.2726654E2,2.0005966E2,7.353791E1,3.928112E1,1.6214882E1,2.4162457E2,8.5641975E1,1.7128395E1,1.8293126E2,7.079737E1,2.7405434E0,6.1662226E0,3.31149E1,1.50729885E1,1.141893E0,4.7274372E1,1.9435019E2,1.4387853E1,7.125413E1,1.0733794E1,6.394601E0,1.7630829E2,6.6229796E0,7.0797367E0,6.3717632E1],"tree_param":{"num_deleted":"0","num_feature":"22","num_nodes":"29","size_leaf_vector":"1"}},{"base_weights":[1.4477619E-2,-7.023666E-1,1.0546377E0,5.989667E-1,-8.5953313E-1,1.3097764E0,3.3794522E-1,-2.5469515E-1,1.0386734E0,-1.0413563E0,-3.2607538E-1,4.052673E-1,1.3931026E0,5.211325E-1,-1.0438277E0,-3.0667445E-2,8.044323E-3,2.9557148E-2,-6.7523005E-3,-8.844859E-3,-3.0305529E-2,-2.3600737E-2,-3.7774832E-3,-4.5803944E-3,2.510731E-2,3.7258927E-2,2.5088161E-2,-1.079432E-2,1.5400088E-2,-3.788449E-2,1.8766964E-2],"categories":[],"categories_nodes":[],"categories_segments":[],"categories_sizes":[],"default_left":[0,0,0,0,0,0,0,0,0,0,0,0,0,0,0,0,0,0,0,0,0,0,0,0,0,0,0,0,0,0,0],"id":1,"left_children":[1,3,5,7,9,11,13,15,17,19,21,23,25,27,29,-1,-1,-1,-1,-1,-1,-1,-1,-1,-1,-1,-1,-1,-1,-1,-1],"loss_changes":[4.9092776E2,8.040144E1,4.8384857E1,1.6447386E1,3.3207E1,1.3976807E1,1.8977432E1,9.277985E0,5.865246E0,2.9718414E1,9.498615E0,6.878088E0,4.636322E0,6.226259E0,9.037567E0,0E0,0E0,0E0,0E0,0E0,0E0,0E0,0E0,0E0,0E0,0E0,0E0,0E0,0E0,0E0,0E0],"parents":[2147483647,0,0,1,1,2,2,3,3,4,4,5,5,6,6,7,7,8,8,9,9,10,10,11,11,12,12,13,13,14,14],"right_children":[2,4,6,8,10,12,14,16,18,20,22,24,26,28,30,-1,-1,-1,-1,-1,-1,-1,-1,-1,-1,-1,-1,-1,-1,-1,-1],"split_conditions":[2.542391E1,9.442844E-1,1.2930275E0,-4.5759013E-1,0E0,4.0271526E1,2.2301587E2,8.131303E-1,8.834344E-1,2.5273483E0,2.6658876E0,-4.3853558E1,1.0653526E0,-4.2679195E1,5.6831946E0,-3.0667445E-2,8.044323E-3,2.9557148E-2,-6.7523005E-3,-8.844859E-3,-3.0305529E-2,-2.3600737E-2,-3.7774832E-3,-4.5803944E-3,2.510731E-2,3.7258927E-2,2.5088161E-2,-1.079432E-2,1.5400088E-2,-3.788449E-2,1.8766964E-2],"split_indices":[19,7,7,11,9,1,14,7,7,14,21,20,7,3,21,0,0,0,0,0,0,0,0,0,0,0,0,0,0,0,0],"split_type":[0,0,0,0,0,0,0,0,0,0,0,0,0,0,0,0,0,0,0,0,0,0,0,0,0,0,0,0,0,0,0],"sum_hessian":[6.5576556E2,3.884113E2,2.6735428E2,4.1392467E1,3.470188E2,1.9626843E2,7.108585E1,1.4180844E1,2.7211624E1,2.5774432E2,8.927449E1,1.7299936E1,1.7896849E2,6.3543686E1,7.542167E0,4.797963E0,9.382881E0,2.4702974E1,2.5086493E0,5.2213524E1,2.0553079E2,1.8313251E1,7.096124E1,9.097746E0,8.20219E0,1.4007101E2,3.8897476E1,5.2401266E0,5.830356E1,6.1769514E0,1.365216E0],"tree_param":{"num_deleted":"0","num_feature":"22","num_nodes":"31","size_leaf_vector":"1"}},{"base_weights":[-2.9126683E-3,1.108525E0,-5.250769E-1,-1.1885608E-2,1.3544605E0,-8.362154E-1,1.7425555E-1,6.0298365E-1,-8.776021E-1,1.0591049E-1,1.4294277E0,-7.500773E-2,-9.775617E-1,6.95615E-1,-9.6287775E-1,2.7335126E-2,-2.1579762E-3,-2.7911121E-2,9.733575E-3,1.9301897E-2,-1.666387E-2,1.6937057E-2,3.6282063E-2,-2.2035932E-2,4.1554095E-3,-2.8441606E-2,-1.1441276E-2,1.1285021E-2,3.1082032E-2,-9.368326E-3,-3.4891237E-2],"categories":[],"categories_nodes":[],"categories_segments":[],"categories_sizes":[],"default_left":[0,0,0,0,0,0,0,0,0,0,0,0,0,0,0,0,0,0,0,0,0,0,0,0,0,0,0,0,0,0,0],"id":2,"left_children":[1,3,5,7,9,11,13,15,17,19,21,23,25,27,29,-1,-1,-1,-1,-1,-1,-1,-1,-1,-1,-1,-1,-1,-1,-1,-1],"loss_changes":[3.8275552E2,5.823578E1,9.7917755E1,2.1557766E1,1.5835632E1,3.32565E1,8.335773E1,8.200511E0,5.738922E0,6.4813437E0,1.1868286E0,1.0030691E1,2.0975586E1,1.1973236E1,1.0402889E1,0E0,0E0,0E0,0E0,0E0,0E0,0E0,0E0,0E0,0E0,0E0,0E0,0E0,0E0,0E0,0E0],"parents":[2147483647,0,0,1,1,2,2,3,3,4,4,5,5,6,6,7,7,8,8,9,9,10,10,11,11,12,12,13,13,14,14],"right_children":[2,4,6,8,10,12,14,16,18,20,22,24,26,28,30,-1,-1,-1,-1,-1,-1,-1,-1,-1,-1,-1,-1,-1,-1,-1,-1],"split_conditions":[1.0712874E0,-5.270864E-1,6.4024284E1,-4.9380326E0,-2.2784128E1,2.7075335E-2,1.8541895E0,8.120301E-1,6.339791E0,2.0064598E-1,9.50324E0,-1.2303449E0,4.9976364E1,5.1539825E1,3.2374775E-1,2.7335126E-2,-2.1579762E-3,-2.7911121E-2,9.733575E-3,1.9301897E-2,-1.666387E-2,1.6937057E-2,3.6282063E-2,-2.2035932E-2,4.1554095E-3,-2.8441606E-2,-1.1441276E-2,1.1285021E-2,3.1082032E-2,-9.368326E-3,-3.4891237E-2],"split_indices":[7,15,14,15,4,8,7,14,3,8,14,5,2,2,8,0,0,0,0,0,0,0,0,0,0,0,0,0,0,0,0],"split_type":[0,0,0,0,0,0,0,0,0,0,0,0,0,0,0,0,0,0,0,0,0,0,0,0,0,0,0,0,0,0,0],"sum_hessian":[6.570187E2,2.094815E2,4.4753717E2,3.785513E1,1.7162637E2,3.0965692E2,1.3788023E2,2.22975E1,1.5557628E1,9.974561E0,1.6165182E2,4.8916904E1,2.6074002E2,9.494294E1,4.293729E1,1.2667704E1,9.629797E0,1.3286275E1,2.2713525E0,5.425651E0,4.5489097E0,5.8697276E0,1.5578209E2,1.0564235E1,3.8352673E1,1.9802328E2,6.271674E1,6.742916E1,2.751378E1,1.932754E1,2.3609753E1],"tree_param":{"num_deleted":"0","num_feature":"22","num_nodes":"31","size_leaf_vector":"1"}},{"base_weights":[1.5295521E-2,-6.614115E-1,1.028037E0,5.954676E-1,-7.9915065E-1,1.2839206E0,2.721039E-1,-1.7786638E-1,9.614076E-1,-9.811479E-1,-2.6040876E-1,-1.7740221E-1,1.3375907E0,-6.608987E-1,4.3806303E-1,1.3296281E-2,-1.9299664E-2,-2.1943117E-2,2.7206277E-2,-8.520244E-3,-2.9017845E-2,-2.1457512E-2,-1.9535644E-3,1.24972155E-2,-2.2320312E-2,3.6060523E-2,2.4000922E-2,1.5478963E-2,-2.6562383E-2,1.6275339E-2,-1.2600957E-2],"categories":[],"categories_nodes":[],"categories_segments":[],"categories_sizes":[],"default_left":[0,0,0,0,0,0,0,0,0,0,0,0,0,0,0,0,0,0,0,0,0,0,0,0,0,0,0,0,0,0,0],"id":3,"left_children":[1,3,5,7,9,11,13,15,17,19,21,23,25,27,29,-1,-1,-1,-1,-1,-1,-1,-1,-1,-1,-1,-1,-1,-1,-1,-1],"loss_changes":[4.55468E2,6.9596756E1,5.0888123E1,1.1624149E1,3.480298E1,1.5989258E1,1.1050106E1,6.4026575E0,7.6667347E0,3.0173157E1,9.922768E0,4.550211E0,5.544647E0,6.4817643E0,1.2381995E1,0E0,0E0,0E0,0E0,0E0,0E0,0E0,0E0,0E0,0E0,0E0,0E0,0E0,0E0,0E0,0E0],"parents":[2147483647,0,0,1,1,2,2,3,3,4,4,5,5,6,6,7,7,8,8,9,9,10,10,11,11,12,12,13,13,14,14],"right_children":[2,4,6,8,10,12,14,16,18,20,22,24,26,28,30,-1,-1,-1,-1,-1,-1,-1,-1,-1,-1,-1,-1,-1,-1,-1,-1],"split_conditions":[2.542391E1,9.2771333E-1,1.2930275E0,-3.0609062E-1,0E0,3.552729E1,-1.6192645E0,-1.206946E0,1.625785E0,2.7777777E0,-1.2487001E0,3.29067E1,1.0653526E0,-4.1194234E0,1.8782805E0,1.3296281E-2,-1.9299664E-2,-2.1943117E-2,2.7206277E-2,-8.520244E-3,-2.9017845E-2,-2.1457512E-2,-1.9535644E-3,1.24972155E-2,-2.2320312E-2,3.6060523E-2,2.4000922E-2,1.5478963E-2,-2.6562383E-2,1.6275339E-2,-1.2600957E-2],"split_indices":[19,7,7,12,9,1,10,11,21,14,5,1,7,11,7,0,0,0,0,0,0,0,0,0,0,0,0,0,0,0,0],"split_type":[0,0,0,0,0,0,0,0,0,0,0,0,0,0,0,0,0,0,0,0,0,0,0,0,0,0,0,0,0,0,0],"sum_hessian":[6.6195404E2,3.970201E2,2.6493393E2,3.8713215E1,3.5830692E2,1.9715619E2,6.777775E1,1.2561692E1,2.6151522E1,2.668924E2,9.14145E1,6.8122573E0,1.9034393E2,9.558946E0,5.8218803E1,5.709379E0,6.8523126E0,1.1398937E0,2.501163E1,5.9398746E1,2.0749365E2,2.0102247E1,7.131225E1,3.6287303E0,3.183527E0,1.4590192E2,4.4442005E1,2.0551255E0,7.50382E0,4.7899517E1,1.0319287E1],"tree_param":{"num_deleted":"0","num_feature":"22","num_nodes":"31","size_leaf_vector":"1"}},{"base_weights":[1.2238912E-2,-6.271482E-1,9.8437506E-1,4.871765E-1,-7.728778E-1,1.2509098E0,2.4550088E-1,-4.2765772E-1,9.354051E-1,-9.633024E-1,-2.259307E-1,2.2246943E-1,1.3554022E0,5.9175944E-1,-4.6022373E-1,-3.4075405E-2,5.3699086E-3,-1.6669957E-2,2.5985256E-2,-8.879676E-3,-2.8239725E-2,2.5124121E-2,-8.983376E-3,1.7094536E-2,-1.13338E-2,3.4650322E-2,1.1274372E-2,8.616332E-3,3.3495095E-2,-9.247951E-4,-3.2107204E-2],"categories":[],"categories_nodes":[],"categories_segments":[],"categories_sizes":[],"default_left":[0,0,0,0,0,0,0,0,0,0,0,0,0,0,0,0,0,0,0,0,0,0,0,0,0,0,0,0,0,0,0],"id":4,"left_children":[1,3,5,7,9,11,13,15,17,19,21,23,25,27,29,-1,-1,-1,-1,-1,-1,-1,-1,-1,-1,-1,-1,-1,-1,-1,-1],"loss_changes":[4.091021E2,6.497975E1,5.088475E1,1.969057E1,3.6220993E1,2.0031403E1,1.770555E1,1.0201353E1,6.2332726E0,2.5650574E1,1.5617205E1,6.4454136E0,3.807312E0,8.15247E0,8.173234E0,0E0,0E0,0E0,0E0,0E0,0E0,0E0,0E0,0E0,0E0,0E0,0E0,0E0,0E0,0E0,0E0],"parents":[2147483647,0,0,1,1,2,2,3,3,4,4,5,5,6,6,7,7,8,8,9,9,10,10,11,11,12,12,13,13,14,14],"right_children":[2,4,6,8,10,12,14,16,18,20,22,24,26,28,30,-1,-1,-1,-1,-1,-1,-1,-1,-1,-1,-1,-1,-1,-1,-1,-1],"split_conditions":[2.542391E1,9.442844E-1,1.2930275E0,-1.7141163E1,0E0,4.2386833E1,3.2374775E-1,8.131303E-1,1.625785E0,1.7164522E0,2.6199804E-4,5.138293E1,1.0273836E0,4.780221E-1,1.8230107E0,-3.4075405E-2,5.3699086E-3,-1.6669957E-2,2.5985256E-2,-8.879676E-3,-2.8239725E-2,2.5124121E-2,-8.983376E-3,1.7094536E-2,-1.13338E-2,3.4650322E-2,1.1274372E-2,8.616332E-3,3.3495095E-2,-9.247951E-4,-3.2107204E-2],"split_indices":[19,7,7,3,9,2,8,7,21,19,8,19,10,18,7,0,0,0,0,0,0,0,0,0,0,0,0,0,0,0,0],"split_type":[0,0,0,0,0,0,0,0,0,0,0,0,0,0,0,0,0,0,0,0,0,0,0,0,0,0,0,0,0,0,0],"sum_hessian":[6.555254E2,3.9565573E2,2.598697E2,4.532731E1,3.5032843E2,1.9021648E2,6.96532E1,1.4851653E1,3.0475655E1,2.5898724E2,9.134118E1,1.8007458E1,1.7220903E2,4.6962852E1,2.2690348E1,5.516989E0,9.334664E0,1.3702867E0,2.910537E1,5.661661E1,2.0237064E2,8.027767E0,8.331341E1,1.0781037E1,7.22642E0,1.6579489E2,6.414139E0,3.6829403E1,1.0133448E1,1.5968683E1,6.7216635E0],"tree_param":{"num_deleted":"0","num_feature":"22","num_nodes":"31","size_leaf_vector":"1"}},{"base_weights":[-2.3886608E-2,9.9295926E-1,-6.5998065E-1,1.274157E0,2.1899728E-1,5.945816E-1,-8.1602824E-1,3.4442887E-1,1.3514607E0,4.3255964E-1,-8.685349E-1,-4.060154E-1,1.0260789E0,-9.7556984E-1,-3.409266E-1,-7.0574856E-3,1.6015282E-2,5.528793E-3,3.391048E-2,-1.3111684E-2,1.4049778E-2,-2.9205052E-2,1.8063335E-2,1.4994849E-2,-2.6167838E-2,2.8634716E-2,-2.69113E-3,-1.1952856E-2,-2.7792284E-2,1.8887592E-2,-1.1287864E-2],"categories":[],"categories_nodes":[],"categories_segments":[],"categories_sizes":[],"default_left":[0,0,0,0,0,0,0,0,0,0,0,0,0,0,0,0,0,0,0,0,0,0,0,0,0,0,0,0,0,0,0],"id":5,"left_children":[1,3,5,7,9,11,13,15,17,19,21,23,25,27,29,-1,-1,-1,-1,-1,-1,-1,-1,-1,-1,-1,-1,-1,-1,-1,-1],"loss_changes":[4.3258313E2,5.549472E1,8.121051E1,1.2765533E1,1.6759727E1,2.0551401E1,2.7222687E1,3.2977285E0,4.2407227E-1,7.776968E0,6.808733E0,1.0386932E1,4.6898117E0,1.7675018E1,1.1848502E1,0E0,0E0,0E0,0E0,0E0,0E0,0E0,0E0,0E0,0E0,0E0,0E0,0E0,0E0,0E0,0E0],"parents":[2147483647,0,0,1,1,2,2,3,3,4,4,5,5,6,6,7,7,8,8,9,9,10,10,11,11,12,12,13,13,14,14],"right_children":[2,4,6,8,10,12,14,16,18,20,22,24,26,28,30,-1,-1,-1,-1,-1,-1,-1,-1,-1,-1,-1,-1,-1,-1,-1,-1],"split_conditions":[-2.2765486E1,1.2930275E0,9.2771333E-1,4.039906E1,2.1005292E2,-1.7141163E1,0E0,-5.7967842E1,-9.72815E-1,-1.6427445E0,6.1669735E1,-5.0677667E0,8.7685233E-1,2.7777777E0,2.6199804E-4,-7.0574856E-3,1.6015282E-2,5.528793E-3,3.391048E-2,-1.3111684E-2,1.4049778E-2,-2.9205052E-2,1.8063335E-2,1.4994849E-2,-2.6167838E-2,2.8634716E-2,-2.69113E-3,-1.1952856E-2,-2.7792284E-2,1.8887592E-2,-1.1287864E-2],"split_indices":[20,7,7,1,14,3,9,20,6,12,1,15,7,14,8,0,0,0,0,0,0,0,0,0,0,0,0,0,0,0,0],"split_type":[0,0,0,0,0,0,0,0,0,0,0,0,0,0,0,0,0,0,0,0,0,0,0,0,0,0,0,0,0,0,0],"sum_hessian":[6.6622943E2,2.5604117E2,4.101883E2,1.8709572E2,6.894544E1,4.49017E1,3.652866E2,1.5005918E1,1.7208981E2,5.835998E1,1.0585463E1,1.3482414E1,3.1419285E1,2.722752E2,9.301136E1,4.726932E0,1.0278986E1,1.0986311E0,1.7099118E2,6.3877916E0,5.197219E1,9.251384E0,1.3340787E0,5.2179127E0,8.264502E0,2.8495352E1,2.923934E0,5.991537E1,2.1235985E2,7.7443314E0,8.526703E1],"tree_param":{"num_deleted":"0","num_feature":"22","num_nodes":"31","size_leaf_vector":"1"}},{"base_weights":[-1.6493665E-2,-6.536968E-1,9.5568156E-1,4.7477227E-1,-7.736629E-1,1.2313006E0,1.9360813E-1,-4.46083E-1,9.441403E-1,-3.1860247E-3,-8.929583E-1,2.0716186E-1,1.3306941E0,4.0224275E-1,-6.6105145E-1,-3.030461E-2,4.1662846E-3,2.184744E-3,2.6070524E-2,-2.3766795E-2,6.1115376E-3,-4.6029747E-3,-2.4985772E-2,2.3428908E-2,-5.382875E-3,-3.039451E-3,3.353477E-2,-2.8026998E-3,1.7061371E-2,7.0286873E-3,-3.4631386E-2],"categories":[],"categories_nodes":[],"categories_segments":[],"categories_sizes":[],"default_left":[0,0,0,0,0,0,0,0,0,0,0,0,0,0,0,0,0,0,0,0,0,0,0,0,0,0,0,0,0,0,0],"id":6,"left_children":[1,3,5,7,9,11,13,15,17,19,21,23,25,27,29,-1,-1,-1,-1,-1,-1,-1,-1,-1,-1,-1,-1,-1,-1,-1,-1],"loss_changes":[4.0676596E2,5.4214966E1,5.4147415E1,1.7388153E1,3.292E1,1.8885956E1,1.2923373E1,6.9046326E0,1.9853592E0,1.2004691E1,2.3106766E1,6.03601E0,3.0272827E0,8.47496E0,1.0351585E1,0E0,0E0,0E0,0E0,0E0,0E0,0E0,0E0,0E0,0E0,0E0,0E0,0E0,0E0,0E0,0E0],"parents":[2147483647,0,0,1,1,2,2,3,3,4,4,5,5,6,6,7,7,8,8,9,9,10,10,11,11,12,12,13,13,14,14],"right_children":[2,4,6,8,10,12,14,16,18,20,22,24,26,28,30,-1,-1,-1,-1,-1,-1,-1,-1,-1,-1,-1,-1,-1,-1,-1,-1],"split_conditions":[2.542391E1,9.2771333E-1,1.2930275E0,-1.7141163E1,2.593027E-2,4.2590115E1,1.8782805E0,8.2539E-1,-3.681936E-1,-1.2148101E0,8.6628985E-1,-7.3157793E-1,-9.55835E-1,3.8790485E1,1.6385747E2,-3.030461E-2,4.1662846E-3,2.184744E-3,2.6070524E-2,-2.3766795E-2,6.1115376E-3,-4.6029747E-3,-2.4985772E-2,2.3428908E-2,-5.382875E-3,-3.039451E-3,3.353477E-2,-2.8026998E-3,1.7061371E-2,7.0286873E-3,-3.4631386E-2],"split_indices":[19,7,7,3,8,2,7,7,11,6,19,6,6,1,14,0,0,0,0,0,0,0,0,0,0,0,0,0,0,0,0],"split_type":[0,0,0,0,0,0,0,0,0,0,0,0,0,0,0,0,0,0,0,0,0,0,0,0,0,0,0,0,0,0,0],"sum_hessian":[6.5406995E2,3.9542264E2,2.586473E2,3.754788E1,3.5787476E2,1.8926442E2,6.93829E1,1.262678E1,2.4921097E1,4.8273064E1,3.096017E2,1.7187033E1,1.7207738E2,5.641609E1,1.2966809E1,5.1185045E0,7.5082755E0,2.9317856E0,2.1989311E1,9.321783E0,3.895128E1,4.1017246E1,2.6858447E2,5.806687E0,1.1380345E1,1.091271E0,1.7098611E2,2.004499E1,3.63711E1,5.92089E0,7.0459194E0],"tree_param":{"num_deleted":"0","num_feature":"22","num_nodes":"31","size_leaf_vector":"1"}},{"base_weights":[-1.4899039E-2,-6.1575055E-1,9.374505E-1,3.242426E-1,-7.698745E-1,1.2178296E0,2.0409782E-1,-1.1946062E-1,1.0080817E0,-9.4888645E-1,-2.434808E-1,3.3670264E-1,1.3017178E0,-9.2203367E-1,3.4603503E-1,2.885422E-2,-9.327494E-3,2.766797E-2,-1.5612315E-4,-1.1769773E-2,-2.7077368E-2,1.9945053E-2,-8.6015975E-3,2.3788799E-2,-2.0145986E-3,3.4561772E-2,2.3871064E-2,1.3801402E-2,-3.634701E-2,1.328577E-2,-1.441675E-2],"categories":[],"categories_nodes":[],"categories_segments":[],"categories_sizes":[],"default_left":[0,0,0,0,0,0,0,0,0,0,0,0,0,0,0,0,0,0,0,0,0,0,0,0,0,0,0,0,0,0,0],"id":7,"left_children":[1,3,5,7,9,11,13,15,17,19,21,23,25,27,29,-1,-1,-1,-1,-1,-1,-1,-1,-1,-1,-1,-1,-1,-1,-1,-1],"loss_changes":[3.806668E2,5.9474808E1,5.244261E1,1.7932869E1,3.2653793E1,1.2998901E1,1.1998066E1,1.2249382E1,2.4367638E0,1.5949326E1,9.8382015E0,4.8069077E0,2.786316E0,7.7408257E0,1.1633005E1,0E0,0E0,0E0,0E0,0E0,0E0,0E0,0E0,0E0,0E0,0E0,0E0,0E0,0E0,0E0,0E0],"parents":[2147483647,0,0,1,1,2,2,3,3,4,4,5,5,6,6,7,7,8,8,9,9,10,10,11,11,12,12,13,13,14,14],"right_children":[2,4,6,8,10,12,14,16,18,20,22,24,26,28,30,-1,-1,-1,-1,-1,-1,-1,-1,-1,-1,-1,-1,-1,-1,-1,-1],"split_conditions":[2.542391E1,1.0712874E0,1.298869E0,3.5481007E0,0E0,4.039906E1,-1.6427445E0,5.980908E-1,1E0,1.8542054E0,2.6199804E-4,7.6300575E1,1.0791006E0,-4.1194234E0,1.9254334E0,2.885422E-2,-9.327494E-3,2.766797E-2,-1.5612315E-4,-1.1769773E-2,-2.7077368E-2,1.9945053E-2,-8.6015975E-3,2.3788799E-2,-2.0145986E-3,3.4561772E-2,2.3871064E-2,1.3801402E-2,-3.634701E-2,1.328577E-2,-1.441675E-2],"split_indices":[19,7,7,4,9,1,12,7,9,19,8,15,7,11,7,0,0,0,0,0,0,0,0,0,0,0,0,0,0,0,0],"split_type":[0,0,0,0,0,0,0,0,0,0,0,0,0,0,0,0,0,0,0,0,0,0,0,0,0,0,0,0,0,0,0],"sum_hessian":[6.6268964E2,4.066761E2,2.5601352E2,5.699333E1,3.4968277E2,1.8448509E2,7.152843E1,3.512769E1,2.1865639E1,2.600228E2,8.965996E1,1.6707392E1,1.677777E2,7.127705E0,6.440073E1,5.001785E0,3.0125904E1,1.9909712E1,1.9559257E0,5.844109E1,2.0158173E2,7.0164886E0,8.264346E1,6.1786685E0,1.0528723E1,1.3271257E2,3.5065125E1,1.8268644E0,5.300841E0,5.417515E1,1.0225571E1],"tree_param":{"num_deleted":"0","num_feature":"22","num_nodes":"31","size_leaf_vector":"1"}},{"base_weights":[9.48853E-3,-5.777371E-1,9.536418E-1,-3.6188316E-1,-8.5233766E-1,-5.1683504E-2,1.1174334E0,1.0225582E0,-4.498819E-1,-1.2623261E0,-6.440986E-1,-8.5091066E-1,1.8442951E-1,7.2599447E-1,1.2398306E0,3.1679064E-2,-7.959026E-3,-2.4309633E-2,-7.737619E-3,-3.9706465E-2,-2.2301247E-2,-2.7744267E-2,-1.0664548E-2,2.9871657E-3,-4.0323325E-2,1.2696259E-2,-1.646451E-2,2.3116356E-2,-3.4115885E-3,3.2673143E-2,1.5615406E-2],"categories":[],"categories_nodes":[],"categories_segments":[],"categories_sizes":[],"default_left":[0,0,0,0,0,0,0,0,0,0,0,0,0,0,0,0,0,0,0,0,0,0,0,0,0,0,0,0,0,0,0],"id":8,"left_children":[1,3,5,7,9,11,13,15,17,19,21,23,25,27,29,-1,-1,-1,-1,-1,-1,-1,-1,-1,-1,-1,-1,-1,-1,-1,-1],"loss_changes":[3.653448E2,2.3553146E1,4.1795258E1,2.8546513E1,1.3915009E1,7.170295E0,9.051819E0,5.233431E0,1.54050255E1,4.9466553E0,1.1446091E1,6.8083572E0,8.379961E0,9.688585E0,5.4997406E0,0E0,0E0,0E0,0E0,0E0,0E0,0E0,0E0,0E0,0E0,0E0,0E0,0E0,0E0,0E0,0E0],"parents":[2147483647,0,0,1,1,2,2,3,3,4,4,5,5,6,6,7,7,8,8,9,9,10,10,11,11,12,12,13,13,14,14],"right_children":[2,4,6,8,10,12,14,16,18,20,22,24,26,28,30,-1,-1,-1,-1,-1,-1,-1,-1,-1,-1,-1,-1,-1,-1,-1,-1],"split_conditions":[2.542391E1,3.536726E-1,-1.5096463E0,-6.055413E0,2.8836615E0,-1.9031148E0,-1.401093E-1,5.288618E0,-1.1583264E0,5.9005895E0,-2.8969818E1,-2.4268618E0,3.7747334E1,1.4103314E2,1.6313081E0,3.1679064E-2,-7.959026E-3,-2.4309633E-2,-7.737619E-3,-3.9706465E-2,-2.2301247E-2,-2.7744267E-2,-1.0664548E-2,2.9871657E-3,-4.0323325E-2,1.2696259E-2,-1.646451E-2,2.3116356E-2,-3.4115885E-3,3.2673143E-2,1.5615406E-2],"split_indices":[19,8,11,14,21,10,5,21,5,19,3,10,1,15,16,0,0,0,0,0,0,0,0,0,0,0,0,0,0,0,0],"split_type":[0,0,0,0,0,0,0,0,0,0,0,0,0,0,0,0,0,0,0,0,0,0,0,0,0,0,0,0,0,0,0],"sum_hessian":[6.562949E2,4.048765E2,2.514184E2,2.2857727E2,1.7629921E2,3.5262497E1,2.161559E2,1.2767639E1,2.1580965E2,5.7005024E1,1.1929419E2,7.366369E0,2.7896128E1,5.3829956E1,1.6232596E2,1.0921475E1,1.8461633E0,4.391913E1,1.7189052E2,2.7900003E1,2.910502E1,3.613722E1,8.315697E1,3.6646051E0,3.7017636E0,2.062053E1,7.2755985E0,4.3770092E1,1.0059864E1,1.4489911E2,1.7426842E1],"tree_param":{"num_deleted":"0","num_feature":"22","num_nodes":"31","size_leaf_vector":"1"}},{"base_weights":[8.727761E-3,-5.900798E-1,9.4107205E-1,2.6090643E-1,-7.4794346E-1,1.2215741E0,2.575031E-1,-3.0070448E-1,8.697359E-1,-3.4513423E-1,-8.4925574E-1,5.000386E-1,1.2855884E0,4.754017E-1,-4.5846877E-1,7.752759E-3,-1.9741552E-2,-9.832841E-3,2.4205951E-2,-1.6433263E-2,2.113423E-3,-4.015442E-2,-1.9454278E-2,2.4806602E-2,-4.2735734E-3,3.2757808E-2,1.711275E-2,-1.4739381E-2,1.4798011E-2,8.639158E-3,-3.0322352E-2],"categories":[],"categories_nodes":[],"categories_segments":[],"categories_sizes":[],"default_left":[0,0,0,0,0,0,0,0,0,0,0,0,0,0,0,0,0,0,0,0,0,0,0,0,0,0,0,0,0,0,0],"id":9,"left_children":[1,3,5,7,9,11,13,15,17,19,21,23,25,27,29,-1,-1,-1,-1,-1,-1,-1,-1,-1,-1,-1,-1,-1,-1,-1,-1],"loss_changes":[3.6611563E2,5.3933594E1,4.86248E1,2.2052471E1,1.3259918E1,7.3651733E0,1.2201126E1,1.0468629E1,4.385607E0,9.539829E0,1.2574554E1,5.93002E0,1.0966797E0,7.812949E0,1.1778498E1,0E0,0E0,0E0,0E0,0E0,0E0,0E0,0E0,0E0,0E0,0E0,0E0,0E0,0E0,0E0,0E0],"parents":[2147483647,0,0,1,1,2,2,3,3,4,4,5,5,6,6,7,7,8,8,9,9,10,10,11,11,12,12,13,13,14,14],"right_children":[2,4,6,8,10,12,14,16,18,20,22,24,26,28,30,-1,-1,-1,-1,-1,-1,-1,-1,-1,-1,-1,-1,-1,-1,-1,-1],"split_conditions":[2.3365618E1,1.1079192E0,1.2930275E0,-7.1834385E-2,2.7777777E0,4.039906E1,1.8541895E0,-5.0677667E0,2.0711253E0,4.049391E1,-8.438225E0,5.3715305E1,6.9440994E1,-1.6427445E0,1.3645595E2,7.752759E-3,-1.9741552E-2,-9.832841E-3,2.4205951E-2,-1.6433263E-2,2.113423E-3,-4.015442E-2,-1.9454278E-2,2.4806602E-2,-4.2735734E-3,3.2757808E-2,1.711275E-2,-1.4739381E-2,1.4798011E-2,8.639158E-3,-3.0322352E-2],"split_indices":[19,7,7,17,14,1,7,15,21,1,15,19,0,12,15,0,0,0,0,0,0,0,0,0,0,0,0,0,0,0,0],"split_type":[0,0,0,0,0,0,0,0,0,0,0,0,0,0,0,0,0,0,0,0,0,0,0,0,0,0,0,0,0,0,0],"sum_hessian":[6.5311884E2,3.979204E2,2.5519843E2,6.2034233E1,3.358862E2,1.8011778E2,7.508065E1,3.2525223E1,2.9509012E1,6.885201E1,2.6703418E2,1.573851E1,1.6437927E2,5.800416E1,1.7076488E1,1.4581158E1,1.7944063E1,1.7799145E0,2.7729097E1,3.961323E1,2.9238781E1,2.0394072E1,2.466401E2,8.805469E0,6.9330416E0,1.5625192E2,8.127348E0,5.1152096E0,5.2888954E1,8.543336E0,8.533152E0],"tree_param":{"num_deleted":"0","num_feature":"22","num_nodes":"31","size_leaf_vector":"1"}},{"base_weights":[1.0124956E-2,-5.5592513E-1,9.366374E-1,-7.1159637E-1,-8.289301E-2,1.7379963E-1,1.1237144E0,3.6872808E-2,-8.3662814E-1,-7.117416E-1,6.9036804E-2,-8.132403E-1,3.7169346E-1,-7.27786E-1,1.1532034E0,1.2299138E-2,-1.7991982E-2,-2.626577E-2,-1.3967061E-2,1.0187344E-2,-2.2014117E-2,3.4853208E-3,-2.7250072E-2,-3.2919235E-4,-3.447284E-2,-1.5521315E-2,1.3366043E-2,1.8825408E-4,-2.936216E-2,3.0313402E-2,1.2422053E-2],"categories":[],"categories_nodes":[],"categories_segments":[],"categories_sizes":[],"default_left":[0,0,0,0,0,0,0,0,0,0,0,0,0,0,0,0,0,0,0,0,0,0,0,0,0,0,0,0,0,0,0],"id":10,"left_children":[1,3,5,7,9,11,13,15,17,19,21,23,25,27,29,-1,-1,-1,-1,-1,-1,-1,-1,-1,-1,-1,-1,-1,-1,-1,-1],"loss_changes":[3.4183694E2,2.9630821E1,3.489795E1,2.8570847E1,9.853193E0,1.0180139E1,1.1954788E1,1.5809675E1,1.4581024E1,4.3022766E0,6.8758984E0,3.7878852E0,7.3617277E0,1.39312E0,6.664459E0,0E0,0E0,0E0,0E0,0E0,0E0,0E0,0E0,0E0,0E0,0E0,0E0,0E0,0E0,0E0,0E0],"parents":[2147483647,0,0,1,1,2,2,3,3,4,4,5,5,6,6,7,7,8,8,9,9,10,10,11,11,12,12,13,13,14,14],"right_children":[2,4,6,8,10,12,14,16,18,20,22,24,26,28,30,-1,-1,-1,-1,-1,-1,-1,-1,-1,-1,-1,-1,-1,-1,-1,-1],"split_conditions":[2.542391E1,0E0,-1.042469E0,9.1427135E-1,-1.2487001E0,-1.9031148E0,-1.1764389E0,4.629577E-1,-5.504681E-1,-2.613722E0,3.7718356E0,-1.2303449E0,2.7788064E-2,4.517355E1,1.6841437E0,1.2299138E-2,-1.7991982E-2,-2.626577E-2,-1.3967061E-2,1.0187344E-2,-2.2014117E-2,3.4853208E-3,-2.7250072E-2,-3.2919235E-4,-3.447284E-2,-1.5521315E-2,1.3366043E-2,1.8825408E-4,-2.936216E-2,3.0313402E-2,1.2422053E-2],"split_indices":[19,9,16,19,5,10,6,8,16,6,16,5,8,1,16,0,0,0,0,0,0,0,0,0,0,0,0,0,0,0,0],"split_type":[0,0,0,0,0,0,0,0,0,0,0,0,0,0,0,0,0,0,0,0,0,0,0,0,0,0,0,0,0,0,0],"sum_hessian":[6.491345E2,4.032079E2,2.4592665E2,3.027185E2,1.0048938E2,4.9032154E1,1.9689449E2,4.3347435E1,2.5937106E2,1.8749977E1,8.17394E1,7.4292846E0,4.1602867E1,2.5510137E0,1.9434348E2,2.743259E1,1.59148445E1,1.4429681E2,1.1507426E2,2.1389992E0,1.6610977E1,7.8219864E1,3.5195413E0,3.7013044E0,3.7279801E0,5.2651386E0,3.633773E1,1.3624682E0,1.1885455E0,1.7708093E2,1.7262545E1],"tree_param":{"num_deleted":"0","num_feature":"22","num_nodes":"31","size_leaf_vector":"1"}},{"base_weights":[-1.2316543E-2,-4.3461028E-1,5.5674094E-1,-7.377716E-1,-7.2219014E-2,-3.516348E-1,7.652909E-1,-9.1700417E-1,-2.2093472E-1,-5.344266E-1,2.4641901E-1,-1.1271902E0,2.2821662E-3,9.002066E-1,-5.078324E-1,-8.830997E-3,-2.9167598E-2,-1.850231E-2,3.6301706E-3,2.3515498E-2,-1.5064614E-2,1.7628407E-2,-8.7778075E-3,7.07023E-3,-3.1570893E-2,1.2416628E-2,-1.0088745E-2,2.7400143E-3,2.6630187E-2,-2.390461E-2,7.465745E-3],"categories":[],"categories_nodes":[],"categories_segments":[],"categories_sizes":[],"default_left":[0,0,0,0,0,0,0,0,0,0,0,0,0,0,0,0,0,0,0,0,0,0,0,0,0,0,0,0,0,0,0],"id":11,"left_children":[1,3,5,7,9,11,13,15,17,19,21,23,25,27,29,-1,-1,-1,-1,-1,-1,-1,-1,-1,-1,-1,-1,-1,-1,-1,-1],"loss_changes":[1.561879E2,4.0849678E1,5.2827805E1,1.8419243E1,2.5469955E1,1.4521717E1,3.9385544E1,2.0442947E1,1.0483593E1,7.796377E0,2.8404638E1,3.7251205E0,7.742976E0,2.6412292E1,8.528299E0,0E0,0E0,0E0,0E0,0E0,0E0,0E0,0E0,0E0,0E0,0E0,0E0,0E0,0E0,0E0,0E0],"parents":[2147483647,0,0,1,1,2,2,3,3,4,4,5,5,6,6,7,7,8,8,9,9,10,10,11,11,12,12,13,13,14,14],"right_children":[2,4,6,8,10,12,14,16,18,20,22,24,26,28,30,-1,-1,-1,-1,-1,-1,-1,-1,-1,-1,-1,-1,-1,-1,-1,-1],"split_conditions":[3.6311054E1,-2.4482016E-1,-1.8174222E0,0E0,-3.818695E-1,-1.9031148E0,1.1026828E0,2.7777777E0,-1.1249772E0,2.6199804E-4,3.26379E-1,2.8798988E-3,1.533919E-1,-4.622764E-1,6.730134E1,-8.830997E-3,-2.9167598E-2,-1.850231E-2,3.6301706E-3,2.3515498E-2,-1.5064614E-2,1.7628407E-2,-8.7778075E-3,7.07023E-3,-3.1570893E-2,1.2416628E-2,-1.0088745E-2,2.7400143E-3,2.6630187E-2,-2.390461E-2,7.465745E-3],"split_indices":[15,6,16,9,12,10,10,14,5,8,10,8,8,6,1,0,0,0,0,0,0,0,0,0,0,0,0,0,0,0,0],"split_type":[0,0,0,0,0,0,0,0,0,0,0,0,0,0,0,0,0,0,0,0,0,0,0,0,0,0,0,0,0,0,0],"sum_hessian":[6.473869E2,3.7189154E2,2.7549536E2,2.016103E2,1.7028122E2,5.118384E1,2.2431151E2,1.4880614E2,5.2804157E1,6.9255104E1,1.01026115E2,1.5236827E1,3.5947018E1,2.0323372E2,2.1077785E1,4.6763813E1,1.02042336E2,2.1402548E1,3.1401608E1,2.2589912E0,6.699612E1,5.7113808E1,4.3912308E1,1.1487069E0,1.40881195E1,1.6185429E1,1.9761587E1,3.5569767E1,1.6766396E2,1.3471156E1,7.6066284E0],"tree_param":{"num_deleted":"0","num_feature":"22","num_nodes":"31","size_leaf_vector":"1"}},{"base_weights":[-2.9206948E-2,-5.691037E-1,8.8096684E-1,3.1589532E-1,-7.1476585E-1,1.1401207E0,2.051039E-1,-8.121158E-2,9.8521996E-1,-8.7852514E-1,-2.2514884E-1,1.5884537E-1,1.2371933E0,2.846398E-1,-3.1692136E-2,9.9573955E-3,-2.3115456E-2,-4.9320506E-3,2.8962595E-2,-5.455054E-3,-2.4010671E-2,-1.4922296E-2,1.5722711E-3,-9.042384E-3,2.3070913E-2,3.2874186E-2,2.1936461E-2,-1.5199487E-2,8.9917295E-3],"categories":[],"categories_nodes":[],"categories_segments":[],"categories_sizes":[],"default_left":[0,0,0,0,0,0,0,0,0,0,0,0,0,0,0,0,0,0,0,0,0,0,0,0,0,0,0,0,0],"id":12,"left_children":[1,3,5,7,9,11,13,15,17,19,21,23,25,27,-1,-1,-1,-1,-1,-1,-1,-1,-1,-1,-1,-1,-1,-1,-1],"loss_changes":[3.22364E2,5.342256E1,4.233725E1,1.587829E1,2.802565E1,1.6383026E1,8.498091E0,1.5956875E1,4.935131E0,1.3928604E1,9.809372E0,7.4258003E0,2.7572174E0,4.7434335E0,0E0,0E0,0E0,0E0,0E0,0E0,0E0,0E0,0E0,0E0,0E0,0E0,0E0,0E0,0E0],"parents":[2147483647,0,0,1,1,2,2,3,3,4,4,5,5,6,6,7,7,8,8,9,9,10,10,11,11,12,12,13,13],"right_children":[2,4,6,8,10,12,14,16,18,20,22,24,26,28,-1,-1,-1,-1,-1,-1,-1,-1,-1,-1,-1,-1,-1,-1,-1],"split_conditions":[2.542391E1,1.0712874E0,1.2930275E0,-5.2343566E-2,0E0,4.2590115E1,2.3499706E0,-3.9653928E0,-1.6087572E-1,9.1427135E-1,4.3649445E0,-6.746907E-1,1.0891278E0,-1.5359842E0,-3.1692136E-2,9.9573955E-3,-2.3115456E-2,-4.9320506E-3,2.8962595E-2,-5.455054E-3,-2.4010671E-2,-1.4922296E-2,1.5722711E-3,-9.042384E-3,2.3070913E-2,3.2874186E-2,2.1936461E-2,-1.5199487E-2,8.9917295E-3],"split_indices":[19,7,7,15,9,2,7,15,6,19,19,13,7,6,0,0,0,0,0,0,0,0,0,0,0,0,0,0,0],"split_type":[0,0,0,0,0,0,0,0,0,0,0,0,0,0,0,0,0,0,0,0,0,0,0,0,0,0,0,0,0],"sum_hessian":[6.534486E2,4.1052844E2,2.4292018E2,5.7707756E1,3.5282068E2,1.7483879E2,6.808139E1,3.684228E1,2.0865475E1,2.6346448E2,8.9356224E1,1.6140196E1,1.586986E2,6.565257E1,2.428822E0,2.3850126E1,1.2992153E1,2.57006E0,1.8295416E1,2.9732681E1,2.3373178E2,3.8553047E1,5.080318E1,9.928871E0,6.211325E0,1.2742051E2,3.1278088E1,4.271215E0,6.1381355E1],"tree_param":{"num_deleted":"0","num_feature":"22","num_nodes":"29","size_leaf_vector":"1"}},{"base_weights":[-1.6357614E-2,-5.4241925E-1,8.674865E-1,3.2527912E-1,-6.820081E-1,1.1483933E0,1.7223027E-1,-4.198816E-2,1.1544911E0,-8.262784E-1,-2.6604185E-1,-2.2993833E-1,1.2161851E0,3.4531245E-1,-6.300823E-1,2.4801213E-2,-7.827323E-3,3.1097291E-2,6.924968E-3,-5.346985E-3,-2.3338811E-2,-1.9773182E-2,-2.1677492E-3,1.1589955E-2,-2.0016259E-2,-6.4221927E-4,3.0666698E-2,-1.680455E-2,1.1395335E-2,-2.5099013E-2,2.1477293E-2],"categories":[],"categories_nodes":[],"categories_segments":[],"categories_sizes":[],"default_left":[0,0,0,0,0,0,0,0,0,0,0,0,0,0,0,0,0,0,0,0,0,0,0,0,0,0,0,0,0,0,0],"id":13,"left_children":[1,3,5,7,9,11,13,15,17,19,21,23,25,27,29,-1,-1,-1,-1,-1,-1,-1,-1,-1,-1,-1,-1,-1,-1,-1,-1],"loss_changes":[3.0244348E2,4.9724716E1,4.700467E1,1.7625164E1,2.0720688E1,1.6580994E1,1.0178269E1,1.1796876E1,7.899666E-1,1.67361E1,8.549345E0,4.122424E0,2.3051147E0,7.0917954E0,8.395363E0,0E0,0E0,0E0,0E0,0E0,0E0,0E0,0E0,0E0,0E0,0E0,0E0,0E0,0E0,0E0,0E0],"parents":[2147483647,0,0,1,1,2,2,3,3,4,4,5,5,6,6,7,7,8,8,9,9,10,10,11,11,12,12,13,13,14,14],"right_children":[2,4,6,8,10,12,14,16,18,20,22,24,26,28,30,-1,-1,-1,-1,-1,-1,-1,-1,-1,-1,-1,-1,-1,-1,-1,-1],"split_conditions":[2.542391E1,1.0712874E0,1.2930275E0,5.3023464E1,0E0,3.9635075E1,2.1005292E2,5.980908E-1,0E0,1.2097161E0,-1.1178366E0,3.29067E1,-9.72815E-1,3.4926426E1,5.6831946E0,2.4801213E-2,-7.827323E-3,3.1097291E-2,6.924968E-3,-5.346985E-3,-2.3338811E-2,-1.9773182E-2,-2.1677492E-3,1.1589955E-2,-2.0016259E-2,-6.4221927E-4,3.0666698E-2,-1.680455E-2,1.1395335E-2,-2.5099013E-2,2.1477293E-2],"split_indices":[19,7,7,2,9,2,14,7,9,19,17,1,6,2,21,0,0,0,0,0,0,0,0,0,0,0,0,0,0,0,0],"split_type":[0,0,0,0,0,0,0,0,0,0,0,0,0,0,0,0,0,0,0,0,0,0,0,0,0,0,0,0,0,0,0],"sum_hessian":[6.479313E2,4.06562E2,2.413693E2,5.6002018E1,3.5056E2,1.7120544E2,7.016384E1,3.9583584E1,1.6418436E1,2.591543E2,9.1405685E1,7.810908E0,1.6339455E2,5.842499E1,1.1738847E1,7.4276023E0,3.215598E1,1.4304308E1,2.1141272E0,3.9348457E1,2.1980583E2,2.200582E1,6.939987E1,3.557075E0,4.253833E0,1.2720609E0,1.6212248E2,4.987461E0,5.343753E1,9.775337E0,1.9635096E0],"tree_param":{"num_deleted":"0","num_feature":"22","num_nodes":"31","size_leaf_vector":"1"}},{"base_weights":[-1.9255305E-3,-5.182702E-1,8.374827E-1,1.1652954E-1,-6.071952E-1,1.3268456E-1,1.0131267E0,-6.067946E-1,3.30206E-1,-9.458954E-2,-7.060647E-1,-2.3464039E-1,4.7375727E-1,1.107958E0,1.299161E-1,-2.2103714E-2,1.4319173E-2,-2.2924518E-2,1.2535098E-2,8.618424E-3,-2.0050978E-2,-2.1458484E-2,-8.173905E-3,-3.268262E-2,2.5720763E-4,-2.0263505E-3,2.169105E-2,1.6950328E-2,3.02634E-2,2.0141037E-2,-2.0591978E-2],"categories":[],"categories_nodes":[],"categories_segments":[],"categories_sizes":[],"default_left":[0,0,0,0,0,0,0,0,0,0,0,0,0,0,0,0,0,0,0,0,0,0,0,0,0,0,0,0,0,0,0],"id":14,"left_children":[1,3,5,7,9,11,13,15,17,19,21,23,25,27,29,-1,-1,-1,-1,-1,-1,-1,-1,-1,-1,-1,-1,-1,-1,-1,-1],"loss_changes":[2.8229117E2,2.2911041E1,3.041246E1,8.040276E0,1.7782013E1,6.568693E0,1.6291367E1,4.5731387E0,9.084824E0,1.8720018E1,1.663469E1,6.800624E0,6.0838313E0,6.6265717E0,1.4260243E1,0E0,0E0,0E0,0E0,0E0,0E0,0E0,0E0,0E0,0E0,0E0,0E0,0E0,0E0,0E0,0E0],"parents":[2147483647,0,0,1,1,2,2,3,3,4,4,5,5,6,6,7,7,8,8,9,9,10,10,11,11,12,12,13,13,14,14],"right_children":[2,4,6,8,10,12,14,16,18,20,22,24,26,28,30,-1,-1,-1,-1,-1,-1,-1,-1,-1,-1,-1,-1,-1,-1,-1,-1],"split_conditions":[2.3365618E1,1.8763894E-2,4.049391E1,-1.2303449E0,1.4354067E0,5.2126837E0,1.6313081E0,1.457182E-2,2.0711253E0,4.629577E-1,4.9976364E1,-2.8670687E1,-3.9144882E1,4.608487E1,-3.1672026E1,-2.2103714E-2,1.4319173E-2,-2.2924518E-2,1.2535098E-2,8.618424E-3,-2.0050978E-2,-2.1458484E-2,-8.173905E-3,-3.268262E-2,2.5720763E-4,-2.0263505E-3,2.169105E-2,1.6950328E-2,3.02634E-2,2.0141037E-2,-2.0591978E-2],"split_indices":[19,8,1,5,14,21,16,8,21,8,2,4,3,2,20,0,0,0,0,0,0,0,0,0,0,0,0,0,0,0,0],"split_type":[0,0,0,0,0,0,0,0,0,0,0,0,0,0,0,0,0,0,0,0,0,0,0,0,0,0,0,0,0,0,0],"sum_hessian":[6.4877673E2,4.0206885E2,2.4670789E2,4.921496E1,3.528539E2,4.9785885E1,1.96922E2,1.0570991E1,3.8643967E1,5.762783E1,2.9522607E2,2.4024597E1,2.5761288E1,1.774274E2,1.9494595E1,8.890819E0,1.6801722E0,3.9102588E0,3.473371E1,3.5874756E1,2.1753073E1,2.0926463E2,8.596144E1,3.4936616E0,2.0530935E1,1.1018975E1,1.4742312E1,3.627059E1,1.4115681E2,1.1589059E1,7.9055357E0],"tree_param":{"num_deleted":"0","num_feature":"22","num_nodes":"31","size_leaf_vector":"1"}},{"base_weights":[1.8638715E-2,-4.3666077E-1,8.8634944E-1,-6.130515E-1,-1.4894092E-1,1.5828283E-1,1.0978355E0,7.501695E-1,-6.572268E-1,1.0940477E0,-2.4923785E-1,-9.5349973E-1,3.0255222E-1,1.177069E0,2.6606128E-1,3.1179884E-2,-1.9063596E-2,-6.715376E-3,-2.0695966E-2,3.052335E-2,-6.7246985E-4,-1.95708E-3,-1.6102036E-2,-1.533093E-3,-3.5937395E-2,-2.310092E-2,9.301143E-3,3.1343412E-3,3.0024944E-2,-1.4899484E-2,2.3175811E-2],"categories":[],"categories_nodes":[],"categories_segments":[],"categories_sizes":[],"default_left":[0,0,0,0,0,0,0,0,0,0,0,0,0,0,0,0,0,0,0,0,0,0,0,0,0,0,0,0,0,0,0],"id":15,"left_children":[1,3,5,7,9,11,13,15,17,19,21,23,25,27,29,-1,-1,-1,-1,-1,-1,-1,-1,-1,-1,-1,-1,-1,-1,-1,-1],"loss_changes":[2.579692E2,2.153395E1,3.4253204E1,1.6577568E1,2.0797121E1,8.684685E0,1.0904602E1,7.936709E0,1.6656967E1,1.9344244E0,1.0223089E1,2.4259825E0,4.422053E0,3.6533508E0,1.0385174E1,0E0,0E0,0E0,0E0,0E0,0E0,0E0,0E0,0E0,0E0,0E0,0E0,0E0,0E0,0E0,0E0],"parents":[2147483647,0,0,1,1,2,2,3,3,4,4,5,5,6,6,7,7,8,8,9,9,10,10,11,11,12,12,13,13,14,14],"right_children":[2,4,6,8,10,12,14,16,18,20,22,24,26,28,30,-1,-1,-1,-1,-1,-1,-1,-1,-1,-1,-1,-1,-1,-1,-1,-1],"split_conditions":[2.8347603E1,4.7663086E1,-8.458016E-1,9.46513E-4,-4.0331492E0,-1.9031148E0,1.6841437E0,4.4795036E0,2.7777777E0,8.139899E-1,3.1362787E1,-2.309042E0,2.278476E0,-1.0483521E0,5.9007805E1,3.1179884E-2,-1.9063596E-2,-6.715376E-3,-2.0695966E-2,3.052335E-2,-6.7246985E-4,-1.95708E-3,-1.6102036E-2,-1.533093E-3,-3.5937395E-2,-2.310092E-2,9.301143E-3,3.1343412E-3,3.0024944E-2,-1.4899484E-2,2.3175811E-2],"split_indices":[19,2,16,8,14,10,16,20,14,18,14,10,21,6,2,0,0,0,0,0,0,0,0,0,0,0,0,0,0,0,0],"split_type":[0,0,0,0,0,0,0,0,0,0,0,0,0,0,0,0,0,0,0,0,0,0,0,0,0,0,0,0,0,0,0],"sum_hessian":[6.502863E2,4.2684537E2,2.2344096E2,2.63491E2,1.6335437E2,5.09129E1,1.7252806E2,7.5472727E0,2.5594373E2,1.1160744E1,1.5219363E2,4.9306674E0,4.5982235E1,1.569202E2,1.5607863E1,5.902275E0,1.644998E0,7.928495E1,1.7665878E2,1.000183E1,1.1589136E0,1.0747249E2,4.4721146E1,2.321904E0,2.6087637E0,1.5311972E0,4.4451035E1,3.7643228E0,1.5315588E2,6.763465E0,8.8443985E0],"tree_param":{"num_deleted":"0","num_feature":"22","num_nodes":"31","size_leaf_vector":"1"}},{"base_weights":[-1.0897527E-3,8.385947E-1,-4.50541E-1,1.0974987E0,2.0880802E-1,5.1643205E-1,-6.082273E-1,3.388717E-2,1.1783457E0,5.401282E-1,-4.8234913E-1,-7.618178E-2,1.0248058E0,-7.556771E-1,-1.7352906E-1,9.996629E-3,-1.8505527E-2,3.149694E-2,2.106401E-2,-7.854297E-3,1.7072631E-2,1.1698391E-2,-3.1544764E-2,1.7372854E-2,-1.5262E-2,2.9444186E-2,-9.190015E-3,-8.438821E-3,-2.1577697E-2,-1.3921062E-2,1.0462798E-3],"categories":[],"categories_nodes":[],"categories_segments":[],"categories_sizes":[],"default_left":[0,0,0,0,0,0,0,0,0,0,0,0,0,0,0,0,0,0,0,0,0,0,0,0,0,0,0,0,0,0,0],"id":16,"left_children":[1,3,5,7,9,11,13,15,17,19,21,23,25,27,29,-1,-1,-1,-1,-1,-1,-1,-1,-1,-1,-1,-1,-1,-1,-1,-1],"loss_changes":[2.4074513E2,3.582869E1,6.379483E1,1.3341324E1,1.557245E1,1.7938492E1,2.268663E1,3.9000835E0,2.405075E0,5.885412E0,1.7243763E1,1.2207416E1,7.433674E0,1.1485992E1,7.7225375E0,0E0,0E0,0E0,0E0,0E0,0E0,0E0,0E0,0E0,0E0,0E0,0E0,0E0,0E0,0E0,0E0],"parents":[2147483647,0,0,1,1,2,2,3,3,4,4,5,5,6,6,7,7,8,8,9,9,10,10,11,11,12,12,13,13,14,14],"right_children":[2,4,6,8,10,12,14,16,18,20,22,24,26,28,30,-1,-1,-1,-1,-1,-1,-1,-1,-1,-1,-1,-1,-1,-1,-1,-1],"split_conditions":[-2.2765486E1,1.2930275E0,1.0712874E0,-1.0603814E0,3.2374775E-1,-3.0670902E-1,0E0,1.5317522E2,1.0653526E0,-1.6427445E0,1.4350394E2,-1.1650884E0,4.1916782E-1,3.062914E0,3.2061598E0,9.996629E-3,-1.8505527E-2,3.149694E-2,2.106401E-2,-7.854297E-3,1.7072631E-2,1.1698391E-2,-3.1544764E-2,1.7372854E-2,-1.5262E-2,2.9444186E-2,-9.190015E-3,-8.438821E-3,-2.1577697E-2,-1.3921062E-2,1.0462798E-3],"split_indices":[20,7,7,11,8,11,9,14,7,12,14,13,8,14,21,0,0,0,0,0,0,0,0,0,0,0,0,0,0,0,0],"split_type":[0,0,0,0,0,0,0,0,0,0,0,0,0,0,0,0,0,0,0,0,0,0,0,0,0,0,0,0,0,0,0],"sum_hessian":[6.354105E2,2.2106297E2,4.1434756E2,1.5586357E2,6.5199394E1,5.7591286E1,3.567563E2,1.1228245E1,1.4463533E2,4.4362225E1,2.0837173E1,2.701188E1,3.0579405E1,2.6550644E2,9.124984E1,8.138326E0,3.089919E0,1.132594E2,3.137593E1,6.028718E0,3.8333508E1,9.565857E0,1.1271317E1,1.0819413E1,1.6192467E1,2.7797903E1,2.7815032E0,5.556416E1,2.0994228E2,3.225274E1,5.89971E1],"tree_param":{"num_deleted":"0","num_feature":"22","num_nodes":"31","size_leaf_vector":"1"}},{"base_weights":[-1.14153195E-2,-5.032873E-1,8.033007E-1,7.555499E-2,-5.925041E-1,2.4226496E-1,9.9068016E-1,-3.1800896E-1,5.136781E-1,-2.4694908E-1,-7.221517E-1,4.2466912E-1,-8.3623266E-1,1.0944444E0,1.3476714E-1,-2.2255203E-2,-8.535791E-5,-2.4260562E-2,1.7500436E-2,1.3090436E-3,-1.8387338E-2,-2.4532592E-2,-1.0863049E-2,-8.771496E-3,1.596673E-2,5.3086877E-3,-2.8877152E-2,1.22400625E-2,2.9857779E-2,-2.389147E-2,1.4129265E-2],"categories":[],"categories_nodes":[],"categories_segments":[],"categories_sizes":[],"default_left":[0,0,0,0,0,0,0,0,0,0,0,0,0,0,0,0,0,0,0,0,0,0,0,0,0,0,0,0,0,0,0],"id":17,"left_children":[1,3,5,7,9,11,13,15,17,19,21,23,25,27,29,-1,-1,-1,-1,-1,-1,-1,-1,-1,-1,-1,-1,-1,-1,-1,-1],"loss_changes":[2.5702914E2,2.0769012E1,2.4943771E1,9.616806E0,1.5213142E1,1.2675713E1,1.5708786E1,5.1907926E0,8.14941E0,1.4277979E1,1.8042023E1,9.319686E0,3.5461054E0,8.773666E0,1.0563105E1,0E0,0E0,0E0,0E0,0E0,0E0,0E0,0E0,0E0,0E0,0E0,0E0,0E0,0E0,0E0,0E0],"parents":[2147483647,0,0,1,1,2,2,3,3,4,4,5,5,6,6,7,7,8,8,9,9,10,10,11,11,12,12,13,13,14,14],"right_children":[2,4,6,8,10,12,14,16,18,20,22,24,26,28,30,-1,-1,-1,-1,-1,-1,-1,-1,-1,-1,-1,-1,-1,-1,-1,-1],"split_conditions":[2.3365618E1,2.7075335E-2,-4.571509E-1,8.885085E-1,3.062914E0,-1.4410275E1,1.6313081E0,9.415868E0,-1.4853964E1,4.8830622E-1,-2.3394181E-1,-1.4681575E0,-3.49822E1,-4.1146293E-1,2.5532557E1,-2.2255203E-2,-8.535791E-5,-2.4260562E-2,1.7500436E-2,1.3090436E-3,-1.8387338E-2,-2.4532592E-2,-1.0863049E-2,-8.771496E-3,1.596673E-2,5.3086877E-3,-2.8877152E-2,1.22400625E-2,2.9857779E-2,-2.389147E-2,1.4129265E-2],"split_indices":[19,8,5,20,14,4,16,15,15,8,5,5,20,10,3,0,0,0,0,0,0,0,0,0,0,0,0,0,0,0,0],"split_type":[0,0,0,0,0,0,0,0,0,0,0,0,0,0,0,0,0,0,0,0,0,0,0,0,0,0,0,0,0,0,0],"sum_hessian":[6.38856E2,3.9874167E2,2.4011436E2,5.312735E1,3.4561432E2,6.099696E1,1.791174E2,2.8054384E1,2.5072966E1,9.553325E1,2.5008109E2,5.292645E1,8.070512E0,1.5932318E2,1.9794233E1,8.995848E0,1.9058537E1,2.1268477E0,2.2946117E1,5.9832405E1,3.5700844E1,1.2972086E2,1.2036022E2,1.1165257E1,4.1761192E1,1.9099777E0,6.160534E0,2.3807568E1,1.3551561E2,5.087141E0,1.4707092E1],"tree_param":{"num_deleted":"0","num_feature":"22","num_nodes":"31","size_leaf_vector":"1"}},{"base_weights":[2.134834E-2,-4.3734342E-1,8.210239E-1,7.00461E-2,-5.304483E-1,3.245471E-1,1.0447866E0,-2.9621524E-1,4.949412E-1,-9.13597E-1,-3.8231382E-1,-5.848796E-1,4.3556798E-1,1.1546035E0,1.7422286E-1,-2.7705112E-2,7.5808465E-3,-2.7794207E-2,1.601327E-2,1.9559104E-2,-2.4043297E-2,-7.2515304E-3,-2.0790596E-2,7.126521E-3,-3.1625174E-2,-8.951325E-3,1.4079197E-2,-3.4661167E-3,2.9640803E-2,-2.3820858E-2,1.6548421E-2],"categories":[],"categories_nodes":[],"categories_segments":[],"categories_sizes":[],"default_left":[0,0,0,0,0,0,0,0,0,0,0,0,0,0,0,0,0,0,0,0,0,0,0,0,0,0,0,0,0,0,0],"id":18,"left_children":[1,3,5,7,9,11,13,15,17,19,21,23,25,27,29,-1,-1,-1,-1,-1,-1,-1,-1,-1,-1,-1,-1,-1,-1,-1,-1],"loss_changes":[2.3555722E2,1.9368195E1,2.5430817E1,1.0207699E1,1.9000801E1,7.864329E0,1.4964752E1,1.764472E1,7.9787607E0,8.758408E0,9.989342E0,5.6494675E0,7.114932E0,6.029648E0,1.1580452E1,0E0,0E0,0E0,0E0,0E0,0E0,0E0,0E0,0E0,0E0,0E0,0E0,0E0,0E0,0E0,0E0],"parents":[2147483647,0,0,1,1,2,2,3,3,4,4,5,5,6,6,7,7,8,8,9,9,10,10,11,11,12,12,13,13,14,14],"right_children":[2,4,6,8,10,12,14,16,18,20,22,24,26,28,30,-1,-1,-1,-1,-1,-1,-1,-1,-1,-1,-1,-1,-1,-1,-1,-1],"split_conditions":[2.542391E1,9.1427135E-1,-4.3521637E-1,-1.1624959E1,-1.0232285E0,-1.9031148E0,1.6313081E0,3.856032E0,1.9809036E0,-4.2868524E0,1.1146497E0,-2.4268618E0,-1.4681575E0,-2.2784128E1,1.4445454E-1,-2.7705112E-2,7.5808465E-3,-2.7794207E-2,1.601327E-2,1.9559104E-2,-2.4043297E-2,-7.2515304E-3,-2.0790596E-2,7.126521E-3,-3.1625174E-2,-8.951325E-3,1.4079197E-2,-3.4661167E-3,2.9640803E-2,-2.3820858E-2,1.6548421E-2],"split_indices":[19,19,11,4,10,10,16,21,21,5,12,10,5,4,6,0,0,0,0,0,0,0,0,0,0,0,0,0,0,0,0],"split_type":[0,0,0,0,0,0,0,0,0,0,0,0,0,0,0,0,0,0,0,0,0,0,0,0,0,0,0,0,0,0,0],"sum_hessian":[6.395101E2,4.0669492E2,2.3281516E2,6.2940235E1,3.4375467E2,7.345912E1,1.5935603E2,3.388746E1,2.9052774E1,9.378581E1,2.4996887E2,7.290406E0,6.616872E1,1.4102719E2,1.832884E1,1.3994536E1,1.9892923E1,1.6399878E0,2.7412786E1,1.9837623E0,9.180205E1,2.0934735E2,4.062152E1,3.465649E0,3.824757E0,8.731383E0,5.7437332E1,3.1231964E0,1.3790399E2,5.099531E0,1.322931E1],"tree_param":{"num_deleted":"0","num_feature":"22","num_nodes":"31","size_leaf_vector":"1"}},{"base_weights":[1.7509334E-2,-4.249765E-1,8.103901E-1,-6.425305E-1,-2.0274033E-1,4.899524E-3,9.589115E-1,-8.785779E-1,-4.0965968E-1,1.0776241E0,-2.8911814E-1,1.8481304E-1,-9.7472733E-1,1.0292622E0,2.616939E-1,4.50427E-4,-2.4168195E-2,-1.2644527E-2,1.2802844E-2,3.0084988E-2,-2.2126655E-3,-2.34235E-2,-5.1536756E-3,-2.3870463E-3,2.3118408E-2,-3.494945E-2,1.8859347E-3,1.1915289E-3,2.6862998E-2,-1.5945556E-2,1.9733455E-2],"categories":[],"categories_nodes":[],"categories_segments":[],"categories_sizes":[],"default_left":[0,0,0,0,0,0,0,0,0,0,0,0,0,0,0,0,0,0,0,0,0,0,0,0,0,0,0,0,0,0,0],"id":19,"left_children":[1,3,5,7,9,11,13,15,17,19,21,23,25,27,29,-1,-1,-1,-1,-1,-1,-1,-1,-1,-1,-1,-1,-1,-1,-1,-1],"loss_changes":[2.2354411E2,1.9512413E1,2.7204224E1,1.071386E1,2.2927998E1,6.6669264E0,8.96814E0,8.087105E0,9.74814E0,2.1739302E0,9.984144E0,6.915882E0,2.871149E0,7.5681E0,9.93756E0,0E0,0E0,0E0,0E0,0E0,0E0,0E0,0E0,0E0,0E0,0E0,0E0,0E0,0E0,0E0,0E0],"parents":[2147483647,0,0,1,1,2,2,3,3,4,4,5,5,6,6,7,7,8,8,9,9,10,10,11,11,12,12,13,13,14,14],"right_children":[2,4,6,8,10,12,14,16,18,20,22,24,26,28,30,-1,-1,-1,-1,-1,-1,-1,-1,-1,-1,-1,-1,-1,-1,-1,-1],"split_conditions":[2.542391E1,-3.9125594E-1,-1.5096463E0,3.8327408E0,-4.0331492E0,4.1746227E1,1.6313081E0,-1.8641144E0,4.608487E1,8.647453E-1,2.0874991E0,3.909227E1,4.118687E1,-1.1682706E0,5.734481E1,4.50427E-4,-2.4168195E-2,-1.2644527E-2,1.2802844E-2,3.0084988E-2,-2.2126655E-3,-2.34235E-2,-5.1536756E-3,-2.3870463E-3,2.3118408E-2,-3.494945E-2,1.8859347E-3,1.1915289E-3,2.6862998E-2,-1.5945556E-2,1.9733455E-2],"split_indices":[19,17,11,21,14,2,16,6,2,5,21,2,19,18,2,0,0,0,0,0,0,0,0,0,0,0,0,0,0,0,0],"split_type":[0,0,0,0,0,0,0,0,0,0,0,0,0,0,0,0,0,0,0,0,0,0,0,0,0,0,0,0,0,0,0],"sum_hessian":[6.34485E2,4.075302E2,2.2695477E2,2.0446472E2,2.030655E2,3.5646393E1,1.9130838E2,9.9536446E1,1.0492827E2,1.1817689E1,1.9124782E2,3.1092857E1,4.5535374E0,1.7308154E2,1.8226833E1,8.901091E0,9.063535E1,9.5649254E1,9.279015E0,1.0707064E1,1.110626E0,2.0057508E1,1.711903E2,2.3273554E1,7.819303E0,3.0064888E0,1.5470487E0,7.8434043E0,1.6523814E2,6.5683255E0,1.1658509E1],"tree_param":{"num_deleted":"0","num_feature":"22","num_nodes":"31","size_leaf_vector":"1"}},{"base_weights":[-4.2605544E-3,-4.0890718E-1,8.5305274E-1,3.1652096E-1,-5.271905E-1,1.0731195E0,1.2741198E-1,6.2786955E-1,-4.875734E-1,5.609948E-1,-5.774998E-1,1.388917E-1,1.1797941E0,2.6976043E-1,-8.590135E-1,4.5510517E-3,2.6291257E-2,2.1603724E-2,-2.1166934E-2,-1.8167894E-2,2.1498188E-2,-2.0975541E-2,-1.1621673E-2,-1.1314512E-2,1.8935477E-2,2.9962039E-2,2.6953744E-3,-9.396788E-3,1.0374068E-2,-3.243634E-2,9.270449E-3],"categories":[],"categories_nodes":[],"categories_segments":[],"categories_sizes":[],"default_left":[0,0,0,0,0,0,0,0,0,0,0,0,0,0,0,0,0,0,0,0,0,0,0,0,0,0,0,0,0,0,0],"id":20,"left_children":[1,3,5,7,9,11,13,15,17,19,21,23,25,27,29,-1,-1,-1,-1,-1,-1,-1,-1,-1,-1,-1,-1,-1,-1,-1,-1],"loss_changes":[2.2185637E2,3.7530807E1,3.244278E1,1.5839935E1,2.091381E1,1.5305054E1,7.163533E0,8.145136E0,9.6105995E0,7.4125414E0,9.921989E0,6.9379835E0,2.5194244E0,4.3458624E0,4.1895847E0,0E0,0E0,0E0,0E0,0E0,0E0,0E0,0E0,0E0,0E0,0E0,0E0,0E0,0E0,0E0,0E0],"parents":[2147483647,0,0,1,1,2,2,3,3,4,4,5,5,6,6,7,7,8,8,9,9,10,10,11,11,12,12,13,13,14,14],"right_children":[2,4,6,8,10,12,14,16,18,20,22,24,26,28,30,-1,-1,-1,-1,-1,-1,-1,-1,-1,-1,-1,-1,-1,-1,-1,-1],"split_conditions":[3.0769114E1,1.0712874E0,1.2930275E0,3.744027E-1,1.6600126E-3,4.2590115E1,1.8541895E0,-1.3950244E0,-1.1487195E0,2.293359E0,2.8933234E0,-4.9856973E-1,-2.7929056E1,1.3523544E0,-3.0210552E1,4.5510517E-3,2.6291257E-2,2.1603724E-2,-2.1166934E-2,-1.8167894E-2,2.1498188E-2,-2.0975541E-2,-1.1621673E-2,-1.1314512E-2,1.8935477E-2,2.9962039E-2,2.6953744E-3,-9.396788E-3,1.0374068E-2,-3.243634E-2,9.270449E-3],"split_indices":[19,7,7,8,8,2,7,15,12,21,21,12,20,7,20,0,0,0,0,0,0,0,0,0,0,0,0,0,0,0,0],"split_type":[0,0,0,0,0,0,0,0,0,0,0,0,0,0,0,0,0,0,0,0,0,0,0,0,0,0,0,0,0,0,0],"sum_hessian":[6.370442E2,4.3331754E2,2.0372664E2,6.0324566E1,3.7299298E2,1.5573592E2,4.7990726E1,4.3781475E1,1.6543093E1,1.5811343E1,3.5718164E2,1.6363014E1,1.3937291E2,4.285264E1,5.1380887E0,2.235641E1,2.1425064E1,3.030192E0,1.35129E1,2.5654223E0,1.3245921E1,1.0473237E2,2.5244926E2,8.460089E0,7.902925E0,1.3674242E2,2.6304862E0,7.3623934E0,3.5490246E1,3.79499E0,1.3430988E0],"tree_param":{"num_deleted":"0","num_feature":"22","num_nodes":"31","size_leaf_vector":"1"}},{"base_weights":[1.6702548E-2,8.1075025E-1,-4.011137E-1,9.406291E-2,9.8915774E-1,-5.43201E-1,-1.1403954E-1,3.1729573E-1,-3.7083754E-1,1.0192388E0,-4.296924E-1,-1.5424311E-1,-6.866502E-1,1.1260768E0,-2.2723943E-1,-9.106251E-3,1.6714616E-2,-2.1328796E-2,9.779725E-3,2.6840866E-2,1.1194867E-2,1.0291377E-2,-2.9524421E-2,-2.0708945E-2,7.439612E-4,7.1236873E-3,-1.8146439E-2,3.153304E-2,-0E0,-1.0336948E-3,-1.728033E-2],"categories":[],"categories_nodes":[],"categories_segments":[],"categories_sizes":[],"default_left":[0,0,0,0,0,0,0,0,0,0,0,0,0,0,0,0,0,0,0,0,0,0,0,0,0,0,0,0,0,0,0],"id":21,"left_children":[1,3,5,7,9,11,13,15,17,19,21,23,25,27,29,-1,-1,-1,-1,-1,-1,-1,-1,-1,-1,-1,-1,-1,-1,-1,-1],"loss_changes":[2.1157845E2,2.7888092E1,1.6892899E1,4.8570685E0,8.132614E0,1.5336906E1,1.9921652E1,7.8896103E0,6.057477E0,4.5888824E0,3.5506508E0,9.66243E0,8.051857E0,1.6964655E0,1.1068459E1,0E0,0E0,0E0,0E0,0E0,0E0,0E0,0E0,0E0,0E0,0E0,0E0,0E0,0E0,0E0,0E0],"parents":[2147483647,0,0,1,1,2,2,3,3,4,4,5,5,6,6,7,7,8,8,9,9,10,10,11,11,12,12,13,13,14,14],"right_children":[2,4,6,8,10,12,14,16,18,20,22,24,26,28,30,-1,-1,-1,-1,-1,-1,-1,-1,-1,-1,-1,-1,-1,-1,-1,-1],"split_conditions":[-2.2765486E1,-1.0855112E0,4.8420574E1,-2.0011913E1,2.8165393E2,1.021129E-1,-4.0331492E0,-1.418722E0,-4.6664092E-1,1.6313081E0,-4.203598E1,-3.399596E0,-2.8516653E0,3.510356E-1,8.647453E-1,-9.106251E-3,1.6714616E-2,-2.1328796E-2,9.779725E-3,2.6840866E-2,1.1194867E-2,1.0291377E-2,-2.9524421E-2,-2.0708945E-2,7.439612E-4,7.1236873E-3,-1.8146439E-2,3.153304E-2,-0E0,-1.0336948E-3,-1.728033E-2],"split_indices":[20,11,2,4,14,8,14,5,5,16,20,16,6,8,5,0,0,0,0,0,0,0,0,0,0,0,0,0,0,0,0],"split_type":[0,0,0,0,0,0,0,0,0,0,0,0,0,0,0,0,0,0,0,0,0,0,0,0,0,0,0,0,0,0,0],"sum_hessian":[6.3503613E2,2.1860342E2,4.164327E2,4.407879E1,1.7452463E2,2.775508E2,1.3888191E2,3.0203648E1,1.3875141E1,1.7132889E2,3.1957383E0,7.569667E1,2.0185413E2,1.0570092E1,1.2831183E2,1.0159764E1,2.0043884E1,8.482213E0,5.392928E0,1.5523465E2,1.6094242E1,1.7219464E0,1.4737918E0,1.5371627E1,6.0325043E1,7.4145684E0,1.9443956E2,9.2273655E0,1.3427261E0,9.277342E1,3.5538403E1],"tree_param":{"num_deleted":"0","num_feature":"22","num_nodes":"31","size_leaf_vector":"1"}},{"base_weights":[1.2563446E-2,-4.1584393E-1,8.168519E-1,3.676381E-1,-5.380621E-1,1.1663096E0,4.2640713E-1,8.583336E-2,1.1556969E0,-6.5863204E-1,-1.9201292E-1,-2.4054763E-1,3.0697007E-2,5.6990033E-1,-3.8797548E-1,2.6945645E-2,-4.331372E-3,1.2154347E-2,3.1450365E-2,-5.9013623E-3,-1.8163225E-2,-1.2803279E-2,1.891191E-3,-2.8229926E-2,2.011379E-2,9.885355E-3,2.5457794E-2,1.8021103E-2,-3.0565469E-2],"categories":[],"categories_nodes":[],"categories_segments":[],"categories_sizes":[],"default_left":[0,0,0,0,0,0,0,0,0,0,0,0,0,0,0,0,0,0,0,0,0,0,0,0,0,0,0,0,0],"id":22,"left_children":[1,3,5,7,9,11,13,15,17,19,21,23,-1,25,27,-1,-1,-1,-1,-1,-1,-1,-1,-1,-1,-1,-1,-1,-1],"loss_changes":[2.1695363E2,3.9600166E1,2.905632E1,1.2201467E1,1.4600159E1,1.0410141E1,1.2640318E1,1.1335325E1,2.8886795E-2,7.2323303E0,8.149306E0,6.6227775E0,0E0,6.405966E0,1.6448711E1,0E0,0E0,0E0,0E0,0E0,0E0,0E0,0E0,0E0,0E0,0E0,0E0,0E0,0E0],"parents":[2147483647,0,0,1,1,2,2,3,3,4,4,5,5,6,6,7,7,8,8,9,9,10,10,11,11,13,13,14,14],"right_children":[2,4,6,8,10,12,14,16,18,20,22,24,-1,26,28,-1,-1,-1,-1,-1,-1,-1,-1,-1,-1,-1,-1,-1,-1],"split_conditions":[2.542391E1,1.0712874E0,1.0712874E0,3.4840032E-1,0E0,-7.522209E-1,1.8541895E0,4.7773027E-1,-1.3950244E0,1.2097161E0,4.3649445E0,4.1298668E1,3.0697007E-2,5.2272083E1,1.25765305E2,2.6945645E-2,-4.331372E-3,1.2154347E-2,3.1450365E-2,-5.9013623E-3,-1.8163225E-2,-1.2803279E-2,1.891191E-3,-2.8229926E-2,2.011379E-2,9.885355E-3,2.5457794E-2,1.8021103E-2,-3.0565469E-2],"split_indices":[19,7,7,18,9,10,7,7,15,19,19,2,0,2,15,0,0,0,0,0,0,0,0,0,0,0,0,0,0],"split_type":[0,0,0,0,0,0,0,0,0,0,0,0,0,0,0,0,0,0,0,0,0,0,0,0,0,0,0,0,0],"sum_hessian":[6.269505E2,4.0939053E2,2.1755995E2,5.4781822E1,3.546087E2,1.1330752E2,1.04252426E2,4.1507496E1,1.3274327E1,2.6189603E2,9.27127E1,4.52439E0,1.0878313E2,8.907124E1,1.5181184E1,7.8250318E0,3.3682465E1,2.8804357E0,1.0393892E1,3.7264076E1,2.2463194E2,4.1848602E1,5.08641E1,2.4403946E0,2.0839956E0,6.604221E1,2.3029032E1,6.544407E0,8.636777E0],"tree_param":{"num_deleted":"0","num_feature":"22","num_nodes":"29","size_leaf_vector":"1"}},{"base_weights":[-1.2461909E-2,-4.1505584E-1,7.483768E-1,1.3349614E-1,-4.9079692E-1,4.176897E-2,9.3233883E-1,-7.73674E-1,3.6385897E-1,-6.540664E-1,-2.2480352E-1,-9.791638E-2,6.7479944E-1,1.0139718E0,1.897924E-1,-3.303842E-2,-4.9028345E-3,1.1594961E-2,-2.0579908E-2,2.2028668E-2,-1.7080247E-2,2.1851564E-2,-7.683584E-3,2.0993985E-3,-2.2084167E-2,-2.3820817E-3,2.242874E-2,1.6179945E-2,2.8882513E-2,-2.8975476E-2,1.2757997E-2],"categories":[],"categories_nodes":[],"categories_segments":[],"categories_sizes":[],"default_left":[0,0,0,0,0,0,0,0,0,0,0,0,0,0,0,0,0,0,0,0,0,0,0,0,0,0,0,0,0,0,0],"id":23,"left_children":[1,3,5,7,9,11,13,15,17,19,21,23,25,27,29,-1,-1,-1,-1,-1,-1,-1,-1,-1,-1,-1,-1,-1,-1,-1,-1],"loss_changes":[1.9623766E2,1.7533325E1,2.8664078E1,1.1130697E1,1.5732437E1,4.322453E0,1.0279236E1,2.9284449E0,5.467705E0,1.0943428E1,1.32121315E1,5.8513007E0,1.704495E0,7.03096E0,8.97131E0,0E0,0E0,0E0,0E0,0E0,0E0,0E0,0E0,0E0,0E0,0E0,0E0,0E0,0E0,0E0,0E0],"parents":[2147483647,0,0,1,1,2,2,3,3,4,4,5,5,6,6,7,7,8,8,9,9,10,10,11,11,12,12,13,13,14,14],"right_children":[2,4,6,8,10,12,14,16,18,20,22,24,26,28,30,-1,-1,-1,-1,-1,-1,-1,-1,-1,-1,-1,-1,-1,-1,-1,-1],"split_conditions":[2.542391E1,1.8763894E-2,-1.126667E0,-1.2148101E0,4.7825497E1,-2.5051815E1,1.6313081E0,-1.4999987E0,7.435452E-1,-5.3141804E0,-2.3976016E0,-2.8561308E1,2.7788064E-2,4.7589146E1,5.2272083E1,-3.303842E-2,-4.9028345E-3,1.1594961E-2,-2.0579908E-2,2.2028668E-2,-1.7080247E-2,2.1851564E-2,-7.683584E-3,2.0993985E-3,-2.2084167E-2,-2.3820817E-3,2.242874E-2,1.6179945E-2,2.8882513E-2,-2.8975476E-2,1.2757997E-2],"split_indices":[19,8,11,6,2,20,16,13,6,13,19,20,8,2,2,0,0,0,0,0,0,0,0,0,0,0,0,0,0,0,0],"split_type":[0,0,0,0,0,0,0,0,0,0,0,0,0,0,0,0,0,0,0,0,0,0,0,0,0,0,0,0,0,0,0],"sum_hessian":[6.38143E2,4.1779248E2,2.2035051E2,5.040737E1,3.673851E2,4.5958855E1,1.7439165E2,9.499224E0,4.090815E1,2.2624254E2,1.4114256E2,3.842163E1,7.537222E0,1.5656912E2,1.7822536E1,3.9267085E0,5.5725155E0,3.853976E1,2.3683898E0,3.4428854E0,2.2279965E2,8.905413E0,1.3223714E2,3.2036427E1,6.385207E0,1.7543645E0,5.7828574E0,4.576396E1,1.1080515E2,2.7092009E0,1.5113336E1],"tree_param":{"num_deleted":"0","num_feature":"22","num_nodes":"31","size_leaf_vector":"1"}},{"base_weights":[-1.8311977E-2,-4.206942E-1,7.292772E-1,-5.4745406E-1,-8.885527E-2,2.9112518E-1,1.0184854E0,1.9229073E-2,-6.3522726E-1,4.7151974E-1,-2.8767917E-1,-6.920693E-1,4.085187E-1,1.1184925E0,2.895911E-1,-1.207875E-2,8.907066E-3,-1.9371325E-2,-1.0761984E-2,1.7709447E-2,-3.7315108E-3,-2.1577362E-2,-1.6600725E-3,9.272866E-3,-2.3217378E-2,1.8711263E-2,3.4309612E-3,-2.2986426E-4,2.8505845E-2,-1.230749E-2,1.9385342E-2],"categories":[],"categories_nodes":[],"categories_segments":[],"categories_sizes":[],"default_left":[0,0,0,0,0,0,0,0,0,0,0,0,0,0,0,0,0,0,0,0,0,0,0,0,0,0,0,0,0,0,0],"id":24,"left_children":[1,3,5,7,9,11,13,15,17,19,21,23,25,27,29,-1,-1,-1,-1,-1,-1,-1,-1,-1,-1,-1,-1,-1,-1,-1,-1],"loss_changes":[1.8892836E2,1.705236E1,2.7325844E1,1.47532425E1,1.2932559E1,1.0648719E1,9.038223E0,7.099422E0,6.7549973E0,4.6615124E0,1.0727669E1,2.9985251E0,7.220007E0,2.9519806E0,7.2724957E0,0E0,0E0,0E0,0E0,0E0,0E0,0E0,0E0,0E0,0E0,0E0,0E0,0E0,0E0,0E0,0E0],"parents":[2147483647,0,0,1,1,2,2,3,3,4,4,5,5,6,6,7,7,8,8,9,9,10,10,11,11,12,12,13,13,14,14],"right_children":[2,4,6,8,10,12,14,16,18,20,22,24,26,28,30,-1,-1,-1,-1,-1,-1,-1,-1,-1,-1,-1,-1,-1,-1,-1,-1],"split_conditions":[2.542391E1,4.9611794E1,4.7589146E1,2.593027E-2,5.3289285E0,-1.6427445E0,1.6313081E0,-1.4999987E0,3.8327408E0,1.1363788E0,3.5872295E0,1.1014496E-2,1.0658174E2,-2.9916537E-1,5.734481E1,-1.207875E-2,8.907066E-3,-1.9371325E-2,-1.0761984E-2,1.7709447E-2,-3.7315108E-3,-2.1577362E-2,-1.6600725E-3,9.272866E-3,-2.3217378E-2,1.8711263E-2,3.4309612E-3,-2.2986426E-4,2.8505845E-2,-1.230749E-2,1.9385342E-2],"split_indices":[19,2,2,8,14,12,16,13,21,13,15,8,14,5,2,0,0,0,0,0,0,0,0,0,0,0,0,0,0,0,0],"split_type":[0,0,0,0,0,0,0,0,0,0,0,0,0,0,0,0,0,0,0,0,0,0,0,0,0,0,0,0,0,0,0],"sum_hessian":[6.255284E2,4.0710858E2,2.1841982E2,2.937517E2,1.1335687E2,8.8021385E1,1.3039844E2,3.9380238E1,2.5437146E2,2.9087963E1,8.4268906E1,8.619084E0,7.94023E1,1.1393419E2,1.6464243E1,1.5466785E1,2.3913452E1,1.4879448E2,1.0557698E2,2.103842E1,8.049542E0,2.2232374E1,6.2036533E1,1.3580397E0,7.2610445E0,3.406339E1,4.5338913E1,2.082243E0,1.11851944E2,6.2240257E0,1.0240217E1],"tree_param":{"num_deleted":"0","num_feature":"22","num_nodes":"31","size_leaf_vector":"1"}},{"base_weights":[6.519165E-3,-3.9196894E-1,7.0068866E-1,3.4370503E-1,-5.073072E-1,9.9772465E-1,9.312726E-2,7.227876E-2,1.1307101E0,-8.723996E-1,-4.0285262E-1,-2.3027088E-1,1.071735E0,2.976837E-1,-4.7585434E-1,-6.492851E-3,1.6404374E-2,3.061578E-2,9.453951E-3,2.7337575E-2,-2.3638075E-2,-1.4554117E-3,-1.2772262E-2,1.1919925E-2,-1.9454135E-2,2.936776E-2,1.8044377E-2,-1.344221E-2,1.0129857E-2,-1.5217234E-2,1.7980868E-2],"categories":[],"categories_nodes":[],"categories_segments":[],"categories_sizes":[],"default_left":[0,0,0,0,0,0,0,0,0,0,0,0,0,0,0,0,0,0,0,0,0,0,0,0,0,0,0,0,0,0,0],"id":25,"left_children":[1,3,5,7,9,11,13,15,17,19,21,23,25,27,29,-1,-1,-1,-1,-1,-1,-1,-1,-1,-1,-1,-1,-1,-1,-1,-1],"loss_changes":[1.7511946E2,3.4357048E1,4.1444733E1,1.1553581E1,1.2694321E1,1.4478775E1,9.17154E0,8.497481E0,2.2429276E-1,1.2273411E1,1.008289E1,4.3073115E0,3.9824371E0,5.4646983E0,3.8650498E0,0E0,0E0,0E0,0E0,0E0,0E0,0E0,0E0,0E0,0E0,0E0,0E0,0E0,0E0,0E0,0E0],"parents":[2147483647,0,0,1,1,2,2,3,3,4,4,5,5,6,6,7,7,8,8,9,9,10,10,11,11,12,12,13,13,14,14],"right_children":[2,4,6,8,10,12,14,16,18,20,22,24,26,28,30,-1,-1,-1,-1,-1,-1,-1,-1,-1,-1,-1,-1,-1,-1,-1,-1],"split_conditions":[2.2727732E1,1.0712874E0,1.2856514E0,4.577875E-1,3.9748367E1,3.9748367E1,1.8541895E0,4.0907135E0,9.442844E-1,-7.059554E0,2.265421E0,3.29067E1,1.0653526E0,3.5215656E1,6.5962E1,-6.492851E-3,1.6404374E-2,3.061578E-2,9.453951E-3,2.7337575E-2,-2.3638075E-2,-1.4554117E-3,-1.2772262E-2,1.1919925E-2,-1.9454135E-2,2.936776E-2,1.8044377E-2,-1.344221E-2,1.0129857E-2,-1.5217234E-2,1.7980868E-2],"split_indices":[19,7,7,18,2,2,7,21,7,11,19,1,7,2,2,0,0,0,0,0,0,0,0,0,0,0,0,0,0,0,0],"split_type":[0,0,0,0,0,0,0,0,0,0,0,0,0,0,0,0,0,0,0,0,0,0,0,0,0,0,0,0,0,0,0],"sum_hessian":[6.303703E2,4.0074466E2,2.2962564E2,5.3846813E1,3.4689783E2,1.5355391E2,7.607173E1,4.1188107E1,1.2658707E1,7.48311E1,2.7206674E2,8.495697E0,1.4505821E2,5.654034E1,1.9531393E1,2.6609138E1,1.457897E1,1.0411E1,2.247706E0,1.98399E0,7.284711E1,6.563141E1,2.0643533E2,3.7030373E0,4.7926598E0,1.0949113E2,3.5567078E1,5.7477517E0,5.079259E1,1.8227001E1,1.3043917E0],"tree_param":{"num_deleted":"0","num_feature":"22","num_nodes":"31","size_leaf_vector":"1"}},{"base_weights":[2.6009928E-2,7.851604E-1,-3.420871E-1,2.9792616E-1,1.048879E0,4.901037E-1,-4.4369605E-1,-6.354142E-1,4.309708E-1,1.0924329E0,-2.7398376E-2,9.91475E-1,3.6034968E-2,2.2915588E-1,-5.3718716E-1,1.4384704E-2,-2.5814507E-2,1.2982966E-2,-1.5157235E-2,-5.2803527E-3,2.7638981E-2,-9.417312E-3,2.8562492E-2,1.8239338E-2,-1.9983016E-2,-1.7371897E-2,1.1601499E-2,-4.298206E-3,-1.605901E-2],"categories":[],"categories_nodes":[],"categories_segments":[],"categories_sizes":[],"default_left":[0,0,0,0,0,0,0,0,0,0,0,0,0,0,0,0,0,0,0,0,0,0,0,0,0,0,0,0,0],"id":26,"left_children":[1,3,5,7,9,11,13,15,17,19,-1,21,23,25,27,-1,-1,-1,-1,-1,-1,-1,-1,-1,-1,-1,-1,-1,-1],"loss_changes":[1.7401466E2,2.5590744E1,3.5728596E1,9.446144E0,1.3821655E1,1.0352544E1,2.3743683E1,5.4275265E0,6.3648205E0,2.6070557E0,0E0,5.1341724E0,1.5617542E1,1.0480267E1,1.2423576E1,0E0,0E0,0E0,0E0,0E0,0E0,0E0,0E0,0E0,0E0,0E0,0E0,0E0,0E0],"parents":[2147483647,0,0,1,1,2,2,3,3,4,4,5,5,6,6,7,7,8,8,9,9,11,11,12,12,13,13,14,14],"right_children":[2,4,6,8,10,12,14,16,18,20,-1,22,24,26,28,-1,-1,-1,-1,-1,-1,-1,-1,-1,-1,-1,-1,-1,-1],"split_conditions":[-2.2765486E1,-3.681936E-1,9.6095634E-1,-1.9031148E0,2.1820176E0,1.0959688E0,1.8763894E-2,-4.1194234E0,1.8782805E0,-7.28651E-1,-2.7398376E-2,-1.6087572E-1,-4.9380326E0,-1.2453376E0,2.7777777E0,1.4384704E-2,-2.5814507E-2,1.2982966E-2,-1.5157235E-2,-5.2803527E-3,2.7638981E-2,-9.417312E-3,2.8562492E-2,1.8239338E-2,-1.9983016E-2,-1.7371897E-2,1.1601499E-2,-4.298206E-3,-1.605901E-2],"split_indices":[20,11,7,10,7,20,8,11,7,17,0,6,15,6,14,0,0,0,0,0,0,0,0,0,0,0,0,0,0],"split_type":[0,0,0,0,0,0,0,0,0,0,0,0,0,0,0,0,0,0,0,0,0,0,0,0,0,0,0,0,0],"sum_hessian":[6.20016E2,2.0207083E2,4.1794513E2,7.206841E1,1.3000243E2,4.482966E1,3.7311548E2,8.285222E0,6.3783188E1,1.2808594E2,1.9164959E0,2.0469227E1,2.4360434E1,4.515812E1,3.2795734E2,1.8401607E0,6.445061E0,5.946394E1,4.319249E0,1.0053364E0,1.270806E2,1.7759374E0,1.8693289E1,1.3465381E1,1.0895052E1,8.550831E0,3.660729E1,7.429885E1,2.536585E2],"tree_param":{"num_deleted":"0","num_feature":"22","num_nodes":"29","size_leaf_vector":"1"}},{"base_weights":[-9.099236E-4,7.2675145E-1,-3.6127785E-1,1.0978035E-1,9.679753E-1,-5.096214E-1,-1.5838562E-1,2.096108E-1,-1.1039486E0,1.0060109E0,-2.6577288E-1,-9.787684E-1,-4.1763788E-1,9.833977E-1,-2.3324235E-1,-8.336945E-3,9.082931E-3,-3.7754286E-2,-2.8905282E-3,2.7916912E-2,1.702224E-2,1.0163282E-2,-2.8146992E-2,-2.6845668E-2,2.1965408E-3,-7.016304E-4,-1.4284539E-2,2.9716372E-2,1.291418E-3,-2.135308E-3,-1.4849816E-2],"categories":[],"categories_nodes":[],"categories_segments":[],"categories_sizes":[],"default_left":[0,0,0,0,0,0,0,0,0,0,0,0,0,0,0,0,0,0,0,0,0,0,0,0,0,0,0,0,0,0,0],"id":27,"left_children":[1,3,5,7,9,11,13,15,17,19,21,23,25,27,29,-1,-1,-1,-1,-1,-1,-1,-1,-1,-1,-1,-1,-1,-1,-1,-1],"loss_changes":[1.648952E2,3.0744606E1,1.2491486E1,7.495077E0,7.433197E0,9.779449E0,1.5596506E1,4.8946676E0,1.4973469E0,4.0596313E0,3.8001397E0,4.1300926E0,1.2192562E1,1.9445801E0,8.928642E0,0E0,0E0,0E0,0E0,0E0,0E0,0E0,0E0,0E0,0E0,0E0,0E0,0E0,0E0,0E0,0E0],"parents":[2147483647,0,0,1,1,2,2,3,3,4,4,5,5,6,6,7,7,8,8,9,9,10,10,11,11,12,12,13,13,14,14],"right_children":[2,4,6,8,10,12,14,16,18,20,22,24,26,28,30,-1,-1,-1,-1,-1,-1,-1,-1,-1,-1,-1,-1,-1,-1,-1,-1],"split_conditions":[-2.2765486E1,-6.708393E-1,-2.3479383E-1,2.1979076E2,2.8165393E2,2.4098969E0,-4.0331492E0,-3.4774826E1,5.548047E-1,3.8352475E-1,-3.5301014E1,4.9137962E1,1.021129E-1,1.3115019E0,5.76532E-1,-8.336945E-3,9.082931E-3,-3.7754286E-2,-2.8905282E-3,2.7916912E-2,1.702224E-2,1.0163282E-2,-2.8146992E-2,-2.6845668E-2,2.1965408E-3,-7.016304E-4,-1.4284539E-2,2.9716372E-2,1.291418E-3,-2.135308E-3,-1.4849816E-2],"split_indices":[20,11,6,15,14,21,14,4,8,10,20,2,8,16,6,0,0,0,0,0,0,0,0,0,0,0,0,0,0,0,0],"split_type":[0,0,0,0,0,0,0,0,0,0,0,0,0,0,0,0,0,0,0,0,0,0,0,0,0,0,0,0,0,0,0],"sum_hessian":[6.2636676E2,2.0693027E2,4.1943652E2,5.8812782E1,1.481175E2,2.4086859E2,1.7856792E2,5.5412895E1,3.3998868E0,1.4399913E2,4.118366E0,3.725178E1,2.036168E2,9.93384E0,1.6863408E2,1.1744653E1,4.366824E1,1.8513525E0,1.5485344E0,1.04840614E2,3.9158512E1,2.6310713E0,1.4872946E0,3.4281586E1,2.9701972E0,5.823706E1,1.4537975E2,7.758832E0,2.1750083E0,1.20953964E2,4.768012E1],"tree_param":{"num_deleted":"0","num_feature":"22","num_nodes":"31","size_leaf_vector":"1"}},{"base_weights":[-7.164554E-3,8.431431E-1,-3.0217642E-1,1.0750089E0,1.5864778E-1,3.0914545E-1,-4.6687722E-1,-2.2131188E-1,1.1501354E0,2.7732164E-2,-4.9285416E-2,4.687021E-2,9.3332064E-1,5.764957E-2,-5.4847896E-1,-1.9745585E-2,1.5049921E-2,7.6211677E-3,2.9609883E-2,1.25900125E-2,-1.051467E-2,-3.509262E-2,4.022014E-3,2.517441E-2,-8.494063E-3,-2.0269189E-2,6.75974E-3,-1.2557293E-2,-2.5780061E-2],"categories":[],"categories_nodes":[],"categories_segments":[],"categories_sizes":[],"default_left":[0,0,0,0,0,0,0,0,0,0,0,0,0,0,0,0,0,0,0,0,0,0,0,0,0,0,0,0,0],"id":28,"left_children":[1,3,5,7,9,11,13,15,17,-1,19,21,23,25,27,-1,-1,-1,-1,-1,-1,-1,-1,-1,-1,-1,-1,-1,-1],"loss_changes":[1.5643948E2,2.5145096E1,4.6843155E1,1.2074799E1,8.533052E0,1.6046486E1,1.5736855E1,4.180479E0,2.6646576E0,0E0,7.6253843E0,1.1938879E1,3.240179E0,9.509962E0,6.2328186E0,0E0,0E0,0E0,0E0,0E0,0E0,0E0,0E0,0E0,0E0,0E0,0E0,0E0,0E0],"parents":[2147483647,0,0,1,1,2,2,3,3,4,4,5,5,6,6,7,7,8,8,10,10,11,11,12,12,13,13,14,14],"right_children":[2,4,6,8,10,12,14,16,18,-1,20,22,24,26,28,-1,-1,-1,-1,-1,-1,-1,-1,-1,-1,-1,-1,-1,-1],"split_conditions":[1.0712874E0,-3.334422E0,-2.2765486E1,3.383934E1,-6.055413E0,5.1539825E1,2.593027E-2,3.9836967E1,-2.2784128E1,2.7732164E-2,-1.206946E0,-4.952629E1,2.1820176E0,-1.2148101E0,9.2379875E0,-1.9745585E-2,1.5049921E-2,7.6211677E-3,2.9609883E-2,1.25900125E-2,-1.051467E-2,-3.509262E-2,4.022014E-3,2.517441E-2,-8.494063E-3,-2.0269189E-2,6.75974E-3,-1.2557293E-2,-2.5780061E-2],"split_indices":[7,20,20,0,14,2,8,2,4,0,11,20,7,6,20,0,0,0,0,0,0,0,0,0,0,0,0,0,0],"split_type":[0,0,0,0,0,0,0,0,0,0,0,0,0,0,0,0,0,0,0,0,0,0,0,0,0,0,0,0,0],"sum_hessian":[6.2123083E2,1.593074E2,4.619234E2,1.183349E2,4.0972507E1,9.766646E1,3.6425693E2,6.2707825E0,1.1206412E2,6.428418E0,3.454409E1,6.986667E1,2.7799791E1,4.8925476E1,3.1533148E2,3.8125045E0,2.4582782E0,4.9799924E0,1.0708413E2,1.3584129E1,2.095996E1,3.9556296E0,6.591104E1,2.661049E1,1.1892996E0,8.815528E0,4.0109947E1,2.904052E2,2.4926254E1],"tree_param":{"num_deleted":"0","num_feature":"22","num_nodes":"29","size_leaf_vector":"1"}},{"base_weights":[-2.272729E-2,-3.9968255E-1,6.843898E-1,2.6265618E-1,-5.001733E-1,9.8441064E-1,1.10469155E-1,-2.0001087E-1,7.096278E-1,-8.085852E-1,-3.6662525E-1,2.5230178E-1,1.095414E0,3.3364794E-3,6.820734E-1,1.24357855E-2,-1.4636695E-2,2.1801522E-2,-1.7627453E-2,-3.720626E-2,-1.7280782E-2,-1.877878E-2,-6.0877525E-3,1.6246004E-2,-1.2538803E-2,2.8057847E-2,3.3435952E-3,7.977509E-3,-9.1643855E-3,2.3418186E-2,-1.2817927E-2],"categories":[],"categories_nodes":[],"categories_segments":[],"categories_sizes":[],"default_left":[0,0,0,0,0,0,0,0,0,0,0,0,0,0,0,0,0,0,0,0,0,0,0,0,0,0,0,0,0,0,0],"id":29,"left_children":[1,3,5,7,9,11,13,15,17,19,21,23,25,27,29,-1,-1,-1,-1,-1,-1,-1,-1,-1,-1,-1,-1,-1,-1,-1,-1],"loss_changes":[1.654301E2,2.7146675E1,3.690165E1,1.1416126E1,1.4002274E1,1.0998383E1,4.5611625E0,7.7723875E0,7.22624E0,6.82856E0,1.1420326E1,6.560033E0,2.8427277E0,7.7587495E0,4.253078E0,0E0,0E0,0E0,0E0,0E0,0E0,0E0,0E0,0E0,0E0,0E0,0E0,0E0,0E0,0E0,0E0],"parents":[2147483647,0,0,1,1,2,2,3,3,4,4,5,5,6,6,7,7,8,8,9,9,10,10,11,11,12,12,13,13,14,14],"right_children":[2,4,6,8,10,12,14,16,18,20,22,24,26,28,30,-1,-1,-1,-1,-1,-1,-1,-1,-1,-1,-1,-1,-1,-1,-1,-1],"split_conditions":[2.2727732E1,1.0712874E0,1.2930275E0,-1.6397785E-1,2.8933234E0,4.3189804E1,8.139899E-1,-6.382661E-1,1E0,4.017795E1,-3.232488E1,5.3715305E1,1.179766E0,-6.323162E-1,2.3442647E0,1.24357855E-2,-1.4636695E-2,2.1801522E-2,-1.7627453E-2,-3.720626E-2,-1.7280782E-2,-1.877878E-2,-6.0877525E-3,1.6246004E-2,-1.2538803E-2,2.8057847E-2,3.3435952E-3,7.977509E-3,-9.1643855E-3,2.3418186E-2,-1.2817927E-2],"split_indices":[19,7,7,18,21,2,18,5,9,2,3,19,10,6,18,0,0,0,0,0,0,0,0,0,0,0,0,0,0,0,0],"split_type":[0,0,0,0,0,0,0,0,0,0,0,0,0,0,0,0,0,0,0,0,0,0,0,0,0,0,0,0,0,0,0],"sum_hessian":[6.1810364E2,4.036366E2,2.1446701E2,5.2765297E1,3.508713E2,1.4011626E2,7.435075E1,2.6170433E1,2.6594862E1,1.0381172E2,2.470596E2,1.9126379E1,1.20989876E2,6.3863667E1,1.0487085E1,9.0885725E0,1.708186E1,2.4366539E1,2.2283232E0,1.2923848E1,9.088787E1,5.811258E1,1.8894702E2,1.2726951E1,6.399428E0,1.1738523E2,3.6046417E0,3.469568E1,2.916799E1,8.945048E0,1.5420372E0],"tree_param":{"num_deleted":"0","num_feature":"22","num_nodes":"31","size_leaf_vector":"1"}},{"base_weights":[-1.6527416E-2,7.107902E-1,-3.5681438E-1,8.7348044E-1,-3.7702778E-1,4.3935087E-1,-4.4744655E-1,1.1090064E0,5.2885145E-1,4.9484055E-2,-1.1991277E0,1.03302E0,-5.2254364E-2,-5.8455046E-2,-5.6299454E-1,-0E0,2.869887E-2,7.514868E-3,2.5694067E-2,8.726371E-3,-2.0844229E-2,7.3006847E-3,-3.9854866E-2,-2.893203E-3,2.7782975E-2,2.7223283E-2,-1.1993129E-2,1.536298E-2,-6.271945E-3,-1.6070392E-2,-2.0648984E-3],"categories":[],"categories_nodes":[],"categories_segments":[],"categories_sizes":[],"default_left":[0,0,0,0,0,0,0,0,0,0,0,0,0,0,0,0,0,0,0,0,0,0,0,0,0,0,0,0,0,0,0],"id":30,"left_children":[1,3,5,7,9,11,13,15,17,19,21,23,25,27,29,-1,-1,-1,-1,-1,-1,-1,-1,-1,-1,-1,-1,-1,-1,-1,-1],"loss_changes":[1.5483192E2,3.576037E1,3.1020332E1,1.31888275E1,9.576841E0,1.3043507E1,1.7133438E1,4.315407E0,7.807764E0,5.3018384E0,6.198929E0,2.078102E0,1.2949204E1,1.1751629E1,1.1183609E1,0E0,0E0,0E0,0E0,0E0,0E0,0E0,0E0,0E0,0E0,0E0,0E0,0E0,0E0,0E0,0E0],"parents":[2147483647,0,0,1,1,2,2,3,3,4,4,5,5,6,6,7,7,8,8,9,9,10,10,11,11,12,12,13,13,14,14],"right_children":[2,4,6,8,10,12,14,16,18,20,22,24,26,28,30,-1,-1,-1,-1,-1,-1,-1,-1,-1,-1,-1,-1,-1,-1,-1,-1],"split_conditions":[-2.2765486E1,1.6432749E0,9.442844E-1,1.0653526E0,1.5101303E2,1.0959688E0,8.291361E-2,3.2219467E1,1.4445454E-1,5.5121946E0,-1.9173044E0,-2.2784128E1,-1.12440195E1,2.4558225E0,0E0,-0E0,2.869887E-2,7.514868E-3,2.5694067E-2,8.726371E-3,-2.0844229E-2,7.3006847E-3,-3.9854866E-2,-2.893203E-3,2.7782975E-2,2.7223283E-2,-1.1993129E-2,1.536298E-2,-6.271945E-3,-1.6070392E-2,-2.0648984E-3],"split_indices":[20,7,7,7,15,20,8,0,6,21,6,4,15,14,9,0,0,0,0,0,0,0,0,0,0,0,0,0,0,0,0],"split_type":[0,0,0,0,0,0,0,0,0,0,0,0,0,0,0,0,0,0,0,0,0,0,0,0,0,0,0,0,0,0,0],"sum_hessian":[6.231027E2,1.9806216E2,4.2504053E2,1.725972E2,2.5464956E1,4.2815876E1,3.8222467E2,1.0064261E2,7.19546E1,1.7490736E1,7.9742203E0,1.8838251E1,2.3977625E1,8.8182396E1,2.9404227E2,3.5254743E0,9.7117134E1,5.093502E1,2.1019579E1,1.3732565E1,3.7581718E0,1.6881903E0,6.28603E0,1.0809346E0,1.7757317E1,5.922161E0,1.8055464E1,1.8857904E1,6.932449E1,2.515912E2,4.2451057E1],"tree_param":{"num_deleted":"0","num_feature":"22","num_nodes":"31","size_leaf_vector":"1"}},{"base_weights":[1.05493115E-2,8.3904177E-1,-2.7372348E-1,1.6852891E-1,1.0838884E0,-4.2379394E-1,2.0512737E-1,6.4022785E-1,-4.4868112E-1,-5.1719385E-1,1.1269433E0,-7.457281E-1,-3.2785383E-1,3.3146296E-2,6.624689E-1,2.0376896E-2,-6.108734E-3,-1.977452E-2,1.38729215E-2,-2.4843937E-2,5.6345225E-3,1.1868061E-2,2.874178E-2,-2.1515973E-2,1.6391981E-2,-1.12990625E-2,3.5800168E-4,9.57691E-3,-9.482059E-3,2.2059945E-2,-7.4045374E-3],"categories":[],"categories_nodes":[],"categories_segments":[],"categories_sizes":[],"default_left":[0,0,0,0,0,0,0,0,0,0,0,0,0,0,0,0,0,0,0,0,0,0,0,0,0,0,0,0,0,0,0],"id":31,"left_children":[1,3,5,7,9,11,13,15,17,19,21,23,25,27,29,-1,-1,-1,-1,-1,-1,-1,-1,-1,-1,-1,-1,-1,-1,-1,-1],"loss_changes":[1.4720465E2,2.5855164E1,3.3559105E1,1.3309004E1,8.858597E0,1.0530792E1,8.687721E0,4.302431E0,7.427365E0,1.7426517E0,8.1863403E-1,1.3666176E1,1.1766115E1,1.2125139E1,6.7863684E0,0E0,0E0,0E0,0E0,0E0,0E0,0E0,0E0,0E0,0E0,0E0,0E0,0E0,0E0,0E0,0E0],"parents":[2147483647,0,0,1,1,2,2,3,3,4,4,5,5,6,6,7,7,8,8,9,9,10,10,11,11,12,12,13,13,14,14],"right_children":[2,4,6,8,10,12,14,16,18,20,22,24,26,28,30,-1,-1,-1,-1,-1,-1,-1,-1,-1,-1,-1,-1,-1,-1,-1,-1],"split_conditions":[1.0712874E0,3.5872295E0,2.3365618E1,-3.9653928E0,-4.125356E1,3.9748367E1,2.4077633E-1,3.3811064E0,5.3023464E1,-7.522209E-1,-2.2988276E1,-1.585082E1,0E0,-6.0511583E-1,1.3355361E0,2.0376896E-2,-6.108734E-3,-1.977452E-2,1.38729215E-2,-2.4843937E-2,5.6345225E-3,1.1868061E-2,2.874178E-2,-2.1515973E-2,1.6391981E-2,-1.12990625E-2,3.5800168E-4,9.57691E-3,-9.482059E-3,2.2059945E-2,-7.4045374E-3],"split_indices":[7,15,19,15,3,2,6,19,2,10,4,3,9,6,5,0,0,0,0,0,0,0,0,0,0,0,0,0,0,0,0],"split_type":[0,0,0,0,0,0,0,0,0,0,0,0,0,0,0,0,0,0,0,0,0,0,0,0,0,0,0,0,0,0,0],"sum_hessian":[6.2221765E2,1.5839671E2,4.6382095E2,4.3065365E1,1.15331345E2,3.5341882E2,1.10402115E2,2.4474455E1,1.8590912E1,2.5844579E0,1.1274689E2,7.888096E1,2.7453787E2,8.140357E1,2.8998549E1,2.0614853E1,3.8596003E0,1.4142385E1,4.448527E0,1.3883705E0,1.1960875E0,4.9028506E0,1.0784403E2,7.343271E1,5.448249E0,2.0137354E2,7.3164345E1,4.421976E1,3.7183807E1,2.3756227E1,5.24232E0],"tree_param":{"num_deleted":"0","num_feature":"22","num_nodes":"31","size_leaf_vector":"1"}},{"base_weights":[-2.7897194E-2,6.686362E-1,-3.4715822E-1,9.495158E-1,6.512923E-2,1.0680695E0,-3.9831373E-1,-3.5611354E-2,1.0513189E0,2.4303605E-1,-9.700979E-1,1.1225096E0,2.8226913E-3,-4.288904E-2,-5.1119024E-1,-1.4363973E-2,1.1934595E-2,2.8215999E-2,1.9144936E-2,8.568833E-3,-2.2245094E-2,-3.53929E-2,7.036769E-3,4.156649E-3,2.9351909E-2,2.4947783E-3,-1.787851E-2,-3.5314448E-3,-1.6346965E-2],"categories":[],"categories_nodes":[],"categories_segments":[],"categories_sizes":[],"default_left":[0,0,0,0,0,0,0,0,0,0,0,0,0,0,0,0,0,0,0,0,0,0,0,0,0,0,0,0,0],"id":32,"left_children":[1,3,5,7,9,11,13,15,17,19,21,23,-1,25,27,-1,-1,-1,-1,-1,-1,-1,-1,-1,-1,-1,-1,-1,-1],"loss_changes":[1.363349E2,3.2475616E1,3.0930023E1,1.3314095E1,1.1780699E1,4.893341E-1,1.6238983E1,4.0874767E0,1.3162994E0,6.51222E0,5.8586206E0,2.978058E-1,0E0,9.717217E0,1.6082535E1,0E0,0E0,0E0,0E0,0E0,0E0,0E0,0E0,0E0,0E0,0E0,0E0,0E0,0E0],"parents":[2147483647,0,0,1,1,2,2,3,3,4,4,5,5,6,6,7,7,8,8,9,9,10,10,11,11,13,13,14,14],"right_children":[2,4,6,8,10,12,14,16,18,20,22,24,-1,26,28,-1,-1,-1,-1,-1,-1,-1,-1,-1,-1,-1,-1,-1,-1],"split_conditions":[-2.2765486E1,1.2930275E0,5.980908E-1,-1.0603814E0,5.831114E-1,8.080231E-1,8.64388E-2,-4.3853558E1,1.0653526E0,2.1758707E2,7.2640836E-1,3.8354572E1,2.8226913E-3,1E0,1.3951082E0,-1.4363973E-2,1.1934595E-2,2.8215999E-2,1.9144936E-2,8.568833E-3,-2.2245094E-2,-3.53929E-2,7.036769E-3,4.156649E-3,2.9351909E-2,2.4947783E-3,-1.787851E-2,-3.5314448E-3,-1.6346965E-2],"split_indices":[20,7,7,11,8,16,8,20,7,15,8,0,0,9,7,0,0,0,0,0,0,0,0,0,0,0,0,0,0],"split_type":[0,0,0,0,0,0,0,0,0,0,0,0,0,0,0,0,0,0,0,0,0,0,0,0,0,0,0,0,0],"sum_hessian":[6.105705E2,1.9135484E2,4.1921567E2,1.2995918E2,6.139565E1,1.3654823E1,4.0556085E2,1.2159283E1,1.17799904E2,5.3323288E1,8.072362E0,1.2603991E1,1.0508327E0,9.8399895E1,3.0716095E2,5.9486322E0,6.210651E0,8.940063E1,2.8399275E1,4.9923737E1,3.3995495E0,5.886049E0,2.1863132E0,1.025122E0,1.1578869E1,8.19623E1,1.6437597E1,8.6413605E1,2.2074733E2],"tree_param":{"num_deleted":"0","num_feature":"22","num_nodes":"29","size_leaf_vector":"1"}},{"base_weights":[6.6474834E-3,8.1339294E-1,-2.657496E-1,1.0677564E0,1.4612842E-1,3.2983232E-1,-4.234363E-1,8.126082E-2,1.1505145E0,2.636146E-2,-9.3483314E-2,1.1974308E-1,8.8108575E-1,4.9973452E-1,-4.61841E-1,-2.0025624E-2,1.78392E-2,2.0673107E-3,2.9387517E-2,1.4137655E-2,-1.00504E-2,1.5627548E-2,-2.1472757E-3,2.6687054E-2,-3.014325E-2,-2.623055E-2,2.1575881E-2,-3.54593E-3,-1.3266787E-2],"categories":[],"categories_nodes":[],"categories_segments":[],"categories_sizes":[],"default_left":[0,0,0,0,0,0,0,0,0,0,0,0,0,0,0,0,0,0,0,0,0,0,0,0,0,0,0,0,0],"id":33,"left_children":[1,3,5,7,9,11,13,15,17,-1,19,21,23,25,27,-1,-1,-1,-1,-1,-1,-1,-1,-1,-1,-1,-1,-1,-1],"loss_changes":[1.3523721E2,2.6045738E1,4.3373714E1,8.913025E0,9.908368E0,1.0979444E1,1.3210518E1,6.4102335E0,2.5038605E0,0E0,7.662612E0,7.5811567E0,1.1924486E1,9.638113E0,7.5546875E0,0E0,0E0,0E0,0E0,0E0,0E0,0E0,0E0,0E0,0E0,0E0,0E0,0E0,0E0],"parents":[2147483647,0,0,1,1,2,2,3,3,4,4,5,5,6,6,7,7,8,8,10,10,11,11,12,12,13,13,14,14],"right_children":[2,4,6,8,10,12,14,16,18,-1,20,22,24,26,28,-1,-1,-1,-1,-1,-1,-1,-1,-1,-1,-1,-1,-1,-1],"split_conditions":[1.0712874E0,-3.334422E0,-2.2765486E1,3.9527428E1,-1.12440195E1,5.2272083E1,1.6600126E-3,-5.7967842E1,-2.2784128E1,2.636146E-2,-1.1650884E0,8.05109E1,2.1820176E0,1.4789917E0,1.401022E0,-2.0025624E-2,1.78392E-2,2.0673107E-3,2.9387517E-2,1.4137655E-2,-1.00504E-2,1.5627548E-2,-2.1472757E-3,2.6687054E-2,-3.014325E-2,-2.623055E-2,2.1575881E-2,-3.54593E-3,-1.3266787E-2],"split_indices":[7,20,20,1,15,2,8,20,4,0,13,15,7,7,7,0,0,0,0,0,0,0,0,0,0,0,0,0,0],"split_type":[0,0,0,0,0,0,0,0,0,0,0,0,0,0,0,0,0,0,0,0,0,0,0,0,0,0,0,0,0],"sum_hessian":[6.125717E2,1.5406627E2,4.5850546E2,1.1087154E2,4.3194733E1,9.555214E1,3.6295334E2,8.874164E0,1.01997375E2,8.180436E0,3.5014297E1,7.046201E1,2.509012E1,1.3768429E1,3.491849E2,3.4939187E0,5.3802447E0,2.5516944E0,9.944568E1,1.0717056E1,2.4297241E1,1.9752777E1,5.070924E1,2.3659733E1,1.430387E0,2.0971978E0,1.1671231E1,6.277337E1,2.8641153E2],"tree_param":{"num_deleted":"0","num_feature":"22","num_nodes":"29","size_leaf_vector":"1"}},{"base_weights":[7.293831E-3,-3.1394696E-1,6.3998723E-1,4.709132E-1,-3.9232364E-1,9.342559E-1,7.164282E-2,-2.7808502E-1,7.508618E-1,8.1495726E-1,-4.2005923E-1,-1.5450662E-1,9.859562E-1,3.3447203E-1,-3.978289E-1,2.288208E-2,-2.3337571E-2,2.6611004E-2,7.4419267E-3,3.0115072E-2,-8.694283E-3,-1.8531535E-3,-1.3082224E-2,1.2825276E-2,-2.9503612E-2,2.7243888E-2,1.600158E-2,-1.1094849E-2,1.2434144E-2,3.1114097E-3,-2.2482777E-2],"categories":[],"categories_nodes":[],"categories_segments":[],"categories_sizes":[],"default_left":[0,0,0,0,0,0,0,0,0,0,0,0,0,0,0,0,0,0,0,0,0,0,0,0,0,0,0,0,0,0,0],"id":34,"left_children":[1,3,5,7,9,11,13,15,17,19,21,23,25,27,29,-1,-1,-1,-1,-1,-1,-1,-1,-1,-1,-1,-1,-1,-1,-1,-1],"loss_changes":[1.2446649E2,2.5205727E1,3.4310326E1,8.147164E0,1.2792831E1,7.9185257E0,9.037253E0,9.7235565E0,3.3777256E0,4.5578713E0,1.2837425E1,5.7741833E0,3.580284E0,6.241968E0,7.1007285E0,0E0,0E0,0E0,0E0,0E0,0E0,0E0,0E0,0E0,0E0,0E0,0E0,0E0,0E0,0E0,0E0],"parents":[2147483647,0,0,1,1,2,2,3,3,4,4,5,5,6,6,7,7,8,8,9,9,10,10,11,11,12,12,13,13,14,14],"right_children":[2,4,6,8,10,12,14,16,18,20,22,24,26,28,30,-1,-1,-1,-1,-1,-1,-1,-1,-1,-1,-1,-1,-1,-1,-1,-1],"split_conditions":[2.3365618E1,9.2771333E-1,1.2930275E0,2.0798428E-1,2.6199804E-4,3.552729E1,3.2374775E-1,-7.788886E0,2.9071438E-1,-5.394071E-1,2.7777777E0,3.393394E1,1.0891278E0,-2.9906335E0,-5.010065E-1,2.288208E-2,-2.3337571E-2,2.6611004E-2,7.4419267E-3,3.0115072E-2,-8.694283E-3,-1.8531535E-3,-1.3082224E-2,1.2825276E-2,-2.9503612E-2,2.7243888E-2,1.600158E-2,-1.1094849E-2,1.2434144E-2,3.1114097E-3,-2.2482777E-2],"split_indices":[19,7,7,8,8,1,8,15,8,3,14,1,7,11,13,0,0,0,0,0,0,0,0,0,0,0,0,0,0,0,0],"split_type":[0,0,0,0,0,0,0,0,0,0,0,0,0,0,0,0,0,0,0,0,0,0,0,0,0,0,0,0,0,0,0],"sum_hessian":[6.0964496E2,4.0467438E2,2.049706E2,3.6035004E1,3.6863937E2,1.3438031E2,7.0590294E1,9.709318E0,2.6325686E1,7.369166E0,3.612702E2,5.8869553E0,1.2849335E2,4.5631027E1,2.4959263E1,3.2052577E0,6.5040607E0,1.439267E1,1.1933016E1,5.548857E0,1.8203086E0,8.37656E1,2.775046E2,3.9005861E0,1.986369E0,9.646134E1,3.2032005E1,7.403459E0,3.822757E1,1.260712E1,1.2352143E1],"tree_param":{"num_deleted":"0","num_feature":"22","num_nodes":"31","size_leaf_vector":"1"}},{"base_weights":[-7.7266595E-3,7.9915065E-1,-2.7275223E-1,3.9776064E-2,1.0218713E0,-4.2914355E-1,5.6051675E-2,5.270198E-1,-8.029029E-1,-2.0057555E-2,1.0583249E0,9.395544E-1,-4.6814448E-1,4.7172174E-1,-4.076003E-1,-2.3219459E-2,1.7010165E-2,1.2476761E-2,-2.5526345E-2,1.0177083E-2,2.7519701E-2,-1.1001939E-2,3.0667454E-2,9.558505E-3,-1.2462903E-2,6.5177525E-3,2.4173949E-2,1.4103918E-2,-1.2226293E-2],"categories":[],"categories_nodes":[],"categories_segments":[],"categories_sizes":[],"default_left":[0,0,0,0,0,0,0,0,0,0,0,0,0,0,0,0,0,0,0,0,0,0,0,0,0,0,0,0,0],"id":35,"left_children":[1,3,5,7,9,11,13,15,17,-1,19,21,23,25,27,-1,-1,-1,-1,-1,-1,-1,-1,-1,-1,-1,-1,-1,-1],"loss_changes":[1.3090428E2,2.5434128E1,2.377665E1,1.521006E1,8.899811E0,1.722189E1,2.9078943E1,6.050087E0,4.561988E0,0E0,2.4517365E0,4.356708E0,8.139526E0,7.864889E0,5.9929886E0,0E0,0E0,0E0,0E0,0E0,0E0,0E0,0E0,0E0,0E0,0E0,0E0,0E0,0E0],"parents":[2147483647,0,0,1,1,2,2,3,3,4,4,5,5,6,6,7,7,8,8,10,10,11,11,12,12,13,13,14,14],"right_children":[2,4,6,8,10,12,14,16,18,-1,20,22,24,26,28,-1,-1,-1,-1,-1,-1,-1,-1,-1,-1,-1,-1,-1,-1],"split_conditions":[1.0712874E0,-5.270864E-1,3.6311054E1,-4.3514643E0,-1.3570445E0,2.6199804E-4,1.6432749E0,2.790379E1,-1.143728E0,-2.0057555E-2,-6.371229E-1,2.293359E0,-3.0581415E0,1.6562186E-1,-2.8516653E0,-2.3219459E-2,1.7010165E-2,1.2476761E-2,-2.5526345E-2,1.0177083E-2,2.7519701E-2,-1.1001939E-2,3.0667454E-2,9.558505E-3,-1.2462903E-2,6.5177525E-3,2.4173949E-2,1.4103918E-2,-1.2226293E-2],"split_indices":[7,15,15,15,18,8,7,1,10,0,12,21,12,6,6,0,0,0,0,0,0,0,0,0,0,0,0,0,0],"split_type":[0,0,0,0,0,0,0,0,0,0,0,0,0,0,0,0,0,0,0,0,0,0,0,0,0,0,0,0,0],"sum_hessian":[6.097721E2,1.500237E2,4.5974838E2,3.4471836E1,1.1555186E2,3.1149652E2,1.4825189E2,2.222614E1,1.2245695E1,1.6750673E0,1.1387679E2,7.7274566E0,3.0376904E2,7.827257E1,6.9979324E1,1.4300331E0,2.0796106E1,1.4513376E0,1.0794357E1,7.957243E0,1.0591955E2,1.151971E0,6.5754857E0,9.840886E0,2.9392816E2,5.6419483E1,2.1853083E1,4.7211885E0,6.525813E1],"tree_param":{"num_deleted":"0","num_feature":"22","num_nodes":"29","size_leaf_vector":"1"}},{"base_weights":[-1.55657325E-2,7.6659334E-1,-2.6544562E-1,-0E0,1.0154737E0,-4.1273338E-1,2.1073297E-1,-2.8748611E-2,1.1874987E-1,4.4154236E-1,1.1213675E0,9.1705817E-1,-4.4526607E-1,4.5669642E-1,-3.3663106E-1,2.6662707E-2,-3.554084E-3,1.959419E-2,-2.9100487E-2,2.600171E-3,2.8256191E-2,-1.0656927E-2,3.020191E-2,-1.8672993E-2,-7.968294E-3,-8.783509E-3,1.3869313E-2,-0E0,-2.7529342E-2],"categories":[],"categories_nodes":[],"categories_segments":[],"categories_sizes":[],"default_left":[0,0,0,0,0,0,0,0,0,0,0,0,0,0,0,0,0,0,0,0,0,0,0,0,0,0,0,0,0],"id":36,"left_children":[1,3,5,7,9,11,13,-1,15,17,19,21,23,25,27,-1,-1,-1,-1,-1,-1,-1,-1,-1,-1,-1,-1,-1,-1],"loss_changes":[1.1856817E2,2.8022621E1,3.2395584E1,5.27344E0,5.9380875E0,1.5708763E1,1.4936647E1,0E0,8.938053E0,1.1895974E1,5.603943E-1,4.170552E0,1.2732376E1,6.3076963E0,8.829529E0,0E0,0E0,0E0,0E0,0E0,0E0,0E0,0E0,0E0,0E0,0E0,0E0,0E0,0E0],"parents":[2147483647,0,0,1,1,2,2,3,3,4,4,5,5,6,6,8,8,9,9,10,10,11,11,12,12,13,13,14,14],"right_children":[2,4,6,8,10,12,14,-1,16,18,20,22,24,26,28,-1,-1,-1,-1,-1,-1,-1,-1,-1,-1,-1,-1,-1,-1],"split_conditions":[1.0712874E0,-6.178631E-1,2.3365618E1,2.6950571E1,1.0932675E1,2.6199804E-4,1.602871E0,-2.8748611E-2,-1.3910369E0,5.3289285E0,-6.0159266E-1,2.4789698E0,2.8933234E0,3.6462112E1,1.4611292E2,2.6662707E-2,-3.554084E-3,1.959419E-2,-2.9100487E-2,2.600171E-3,2.8256191E-2,-1.0656927E-2,3.020191E-2,-1.8672993E-2,-7.968294E-3,-8.783509E-3,1.3869313E-2,-0E0,-2.7529342E-2],"split_indices":[7,16,19,1,19,8,7,0,13,14,18,21,21,2,15,0,0,0,0,0,0,0,0,0,0,0,0,0,0],"split_type":[0,0,0,0,0,0,0,0,0,0,0,0,0,0,0,0,0,0,0,0,0,0,0,0,0,0,0,0,0],"sum_hessian":[6.042579E2,1.4555667E2,4.587012E2,3.5989105E1,1.0956757E2,3.5063025E2,1.0807095E2,2.3149056E0,3.36742E1,1.8260859E1,9.130671E1,7.4556847E0,3.4317456E2,7.483923E1,3.323172E1,6.4854426E0,2.7188757E1,1.5652261E1,2.6085982E0,1.0305212E0,9.027619E1,1.1588088E0,6.296876E0,9.9294846E1,2.4387971E2,7.6267476E0,6.721249E1,2.4023014E1,9.208706E0],"tree_param":{"num_deleted":"0","num_feature":"22","num_nodes":"29","size_leaf_vector":"1"}},{"base_weights":[1.8989056E-2,-2.4414903E-1,7.4043375E-1,9.2257595E-1,-2.85209E-1,1.0436662E0,3.6559618E-1,-1.4889821E-2,1.0940447E0,-3.7262496E-1,-2.6628163E-2,-2.2924138E-2,1.092924E0,4.5660803E-1,-9.333505E-1,2.883694E-2,2.9336598E-3,-1.2279986E-2,-2.2958941E-4,3.4446304E-3,-1.4358304E-2,-4.673436E-3,2.780754E-2,6.576914E-3,2.480658E-2,-3.1193892E-2,3.7409837E-4],"categories":[],"categories_nodes":[],"categories_segments":[],"categories_sizes":[],"default_left":[0,0,0,0,0,0,0,0,0,0,0,0,0,0,0,0,0,0,0,0,0,0,0,0,0,0,0],"id":37,"left_children":[1,3,5,7,9,11,13,-1,15,17,19,-1,21,23,25,-1,-1,-1,-1,-1,-1,-1,-1,-1,-1,-1,-1],"loss_changes":[1.14087975E2,2.1363224E1,1.762159E1,4.8503933E0,9.582092E0,9.814522E0,9.252881E0,0E0,5.190983E-1,1.3655437E1,9.996191E0,0E0,2.506607E0,6.8006487E0,1.6978202E0,0E0,0E0,0E0,0E0,0E0,0E0,0E0,0E0,0E0,0E0,0E0,0E0],"parents":[2147483647,0,0,1,1,2,2,3,3,4,4,5,5,6,6,8,8,9,9,10,10,12,12,13,13,14,14],"right_children":[2,4,6,8,10,12,14,-1,16,18,20,-1,22,24,26,-1,-1,-1,-1,-1,-1,-1,-1,-1,-1,-1,-1],"split_conditions":[3.1720598E1,5.980908E-1,1.0653526E0,-2.1978313E-1,0E0,-1.3570445E0,1.8541895E0,-1.4889821E-2,5.1104707E-1,2.6586786E-1,4.980062E0,-2.2924138E-2,-1.0935992E0,5.2835213E1,-6.828906E-1,2.883694E-2,2.9336598E-3,-1.2279986E-2,-2.2958941E-4,3.4446304E-3,-1.4358304E-2,-4.673436E-3,2.780754E-2,6.576914E-3,2.480658E-2,-3.1193892E-2,3.7409837E-4],"split_indices":[19,7,7,17,9,18,7,0,10,18,20,0,12,2,18,0,0,0,0,0,0,0,0,0,0,0,0],"split_type":[0,0,0,0,0,0,0,0,0,0,0,0,0,0,0,0,0,0,0,0,0,0,0,0,0,0,0],"sum_hessian":[5.9817114E2,4.388335E2,1.5933768E2,1.3887008E1,4.2494647E2,8.6652214E1,7.268546E1,1.0237856E0,1.2863222E1,3.168664E2,1.08080086E2,1.512657E0,8.513956E1,6.878592E1,3.8995402E0,1.1807072E1,1.0561506E0,2.3836615E2,7.850024E1,8.37345E1,2.4345589E1,1.025197E0,8.411436E1,5.2090755E1,1.6695164E1,2.6995044E0,1.2000358E0],"tree_param":{"num_deleted":"0","num_feature":"22","num_nodes":"27","size_leaf_vector":"1"}},{"base_weights":[-8.709701E-4,-2.8207228E-1,6.1580765E-1,1.3188697E-1,-3.6029083E-1,2.2553566E-1,8.50669E-1,4.0108272E-1,-4.069054E-1,-6.821927E-1,-2.265474E-1,3.315431E-1,-1.2510699E0,1.0751653E0,3.4191108E-1,1.7282013E-3,2.4182543E-2,-1.8417453E-2,1.0236908E-2,2.2632463E-2,-1.8175585E-2,-1.5357855E-3,-1.2578844E-2,1.8043865E-2,3.0338222E-3,-4.0391743E-2,-3.7521266E-3,2.7389696E-2,-2.983393E-3,-8.144812E-3,1.7923404E-2],"categories":[],"categories_nodes":[],"categories_segments":[],"categories_sizes":[],"default_left":[0,0,0,0,0,0,0,0,0,0,0,0,0,0,0,0,0,0,0,0,0,0,0,0,0,0,0,0,0,0,0],"id":38,"left_children":[1,3,5,7,9,11,13,15,17,19,21,23,25,27,29,-1,-1,-1,-1,-1,-1,-1,-1,-1,-1,-1,-1,-1,-1,-1,-1],"loss_changes":[1.041924E2,1.3454296E1,1.68863E1,9.837821E0,1.46834755E1,1.1812443E1,1.2722534E1,8.274279E0,6.518695E0,8.042442E0,1.1225726E1,5.4474955E0,1.544395E0,2.2267075E0,9.810003E0,0E0,0E0,0E0,0E0,0E0,0E0,0E0,0E0,0E0,0E0,0E0,0E0,0E0,0E0,0E0,0E0],"parents":[2147483647,0,0,1,1,2,2,3,3,4,4,5,5,6,6,7,7,8,8,9,9,10,10,11,11,12,12,13,13,14,14],"right_children":[2,4,6,8,10,12,14,16,18,20,22,24,26,28,30,-1,-1,-1,-1,-1,-1,-1,-1,-1,-1,-1,-1,-1,-1,-1,-1],"split_conditions":[2.542391E1,9.1427135E-1,-3.681936E-1,4.629577E-1,-9.6399176E-1,2.1979076E2,3.9330256E-1,2.1744113E-1,-8.213641E0,-4.2180004E0,4.412576E-1,7.8340675E1,5.548047E-1,1.2299101E0,5.3107132E1,1.7282013E-3,2.4182543E-2,-1.8417453E-2,1.0236908E-2,2.2632463E-2,-1.8175585E-2,-1.5357855E-3,-1.2578844E-2,1.8043865E-2,3.0338222E-3,-4.0391743E-2,-3.7521266E-3,2.7389696E-2,-2.983393E-3,-8.144812E-3,1.7923404E-2],"split_indices":[19,19,11,8,10,15,10,8,4,6,12,15,8,11,2,0,0,0,0,0,0,0,0,0,0,0,0,0,0,0,0],"split_type":[0,0,0,0,0,0,0,0,0,0,0,0,0,0,0,0,0,0,0,0,0,0,0,0,0,0,0,0,0,0,0],"sum_hessian":[5.9843164E2,4.1160846E2,1.8682317E2,6.5069275E1,3.4653918E2,7.1306496E1,1.1551667E2,4.3735607E1,2.1333668E1,9.9933784E1,2.4660541E2,6.753397E1,3.772518E0,7.9009026E1,3.650765E1,2.8602354E1,1.5133251E1,1.5372883E1,5.9607844E0,1.9980714E0,9.7935715E1,1.5564545E2,9.095997E1,2.2368269E1,4.5165707E1,2.3092456E0,1.4632723E0,7.786905E1,1.139976E0,1.3095722E1,2.3411926E1],"tree_param":{"num_deleted":"0","num_feature":"22","num_nodes":"31","size_leaf_vector":"1"}},{"base_weights":[-2.2456694E-2,6.0691977E-1,-2.7738208E-1,1.21619254E-1,9.018442E-1,-4.4398093E-1,-6.141068E-2,2.1259387E-1,-1.1681767E0,1.029807E0,4.9916115E-2,-9.187124E-2,-5.696295E-1,9.408709E-1,-1.2310965E-1,-7.7038044E-3,9.750433E-3,-2.7649866E-3,-3.9178934E-2,-1.1806219E-2,2.6383355E-2,-2.8868562E-2,1.5470854E-2,6.374236E-3,-1.6297268E-2,2.2281397E-2,-1.5059471E-2,2.8628865E-2,-2.1335951E-4,-1.5360788E-3,-2.2503423E-2],"categories":[],"categories_nodes":[],"categories_segments":[],"categories_sizes":[],"default_left":[0,0,0,0,0,0,0,0,0,0,0,0,0,0,0,0,0,0,0,0,0,0,0,0,0,0,0,0,0,0,0],"id":39,"left_children":[1,3,5,7,9,11,13,15,17,19,21,23,25,27,29,-1,-1,-1,-1,-1,-1,-1,-1,-1,-1,-1,-1,-1,-1,-1,-1],"loss_changes":[9.5123985E1,2.421191E1,1.5103062E1,7.9976373E0,1.1375755E1,1.038847E1,1.1546442E1,5.9879894E0,1.501832E0,4.2318344E0,1.1364447E1,1.2747378E1,9.033535E0,2.2247534E0,8.26926E0,0E0,0E0,0E0,0E0,0E0,0E0,0E0,0E0,0E0,0E0,0E0,0E0,0E0,0E0,0E0,0E0],"parents":[2147483647,0,0,1,1,2,2,3,3,4,4,5,5,6,6,7,7,8,8,9,9,10,10,11,11,12,12,13,13,14,14],"right_children":[2,4,6,8,10,12,14,16,18,20,22,24,26,28,30,-1,-1,-1,-1,-1,-1,-1,-1,-1,-1,-1,-1,-1,-1,-1,-1],"split_conditions":[-2.2765486E1,-3.681936E-1,-2.4482016E-1,2.1979076E2,1.6841437E0,2.640264E0,-4.0331492E0,-2.8697572E0,-1.6616846E1,-9.72815E-1,2.5532557E1,4.8830622E-1,-7.059554E0,1E0,5.9748096E1,-7.7038044E-3,9.750433E-3,-2.7649866E-3,-3.9178934E-2,-1.1806219E-2,2.6383355E-2,-2.8868562E-2,1.5470854E-2,6.374236E-3,-1.6297268E-2,2.2281397E-2,-1.5059471E-2,2.8628865E-2,-2.1335951E-4,-1.5360788E-3,-2.2503423E-2],"split_indices":[20,11,6,15,16,14,14,16,4,6,3,8,11,9,15,0,0,0,0,0,0,0,0,0,0,0,0,0,0,0,0],"split_type":[0,0,0,0,0,0,0,0,0,0,0,0,0,0,0,0,0,0,0,0,0,0,0,0,0,0,0,0,0,0,0],"sum_hessian":[5.9042084E2,1.6957521E2,4.2084567E2,6.49215E1,1.046537E2,2.3654272E2,1.8430293E2,6.173064E1,3.1908607E0,9.064906E1,1.4004641E1,6.3010998E1,1.7353172E2,9.519326E0,1.747836E2,1.530075E1,4.642989E1,1.3975047E0,1.793356E0,1.0691913E0,8.957987E1,4.006549E0,9.998092E0,3.923863E1,2.3772367E1,2.990687E0,1.7054105E2,7.6998434E0,1.819483E0,1.6335121E2,1.14324E1],"tree_param":{"num_deleted":"0","num_feature":"22","num_nodes":"31","size_leaf_vector":"1"}},{"base_weights":[-4.2281064E-4,7.3830146E-1,-2.2727247E-1,2.6201067E-2,9.9331814E-1,2.611906E-1,-3.5371286E-1,-1.9554967E-1,5.8404624E-1,1.1139909E0,3.2992867E-1,4.988287E-2,7.4937356E-1,2.0073342E-1,-4.3340424E-1,9.688306E-3,-1.7401496E-2,2.10684E-2,-1.0680008E-2,3.6306025E-3,2.807701E-2,1.6435891E-2,-3.1339087E-2,9.434029E-3,-1.1384211E-2,2.4162274E-2,-5.3074756E-3,-1.1957347E-2,9.398423E-3,-1.0068744E-2,-3.7819296E-2],"categories":[],"categories_nodes":[],"categories_segments":[],"categories_sizes":[],"default_left":[0,0,0,0,0,0,0,0,0,0,0,0,0,0,0,0,0,0,0,0,0,0,0,0,0,0,0,0,0,0,0],"id":40,"left_children":[1,3,5,7,9,11,13,15,17,19,21,23,25,27,29,-1,-1,-1,-1,-1,-1,-1,-1,-1,-1,-1,-1,-1,-1,-1,-1],"loss_changes":[9.963727E1,2.5225136E1,2.8244186E1,4.920652E0,7.598526E0,9.58779E0,1.6145618E1,8.618824E0,3.4756458E0,4.2028046E-1,1.0232255E1,1.1346301E1,6.233939E0,5.727448E0,9.517128E0,0E0,0E0,0E0,0E0,0E0,0E0,0E0,0E0,0E0,0E0,0E0,0E0,0E0,0E0,0E0,0E0],"parents":[2147483647,0,0,1,1,2,2,3,3,4,4,5,5,6,6,7,7,8,8,9,9,10,10,11,11,12,12,13,13,14,14],"right_children":[2,4,6,8,10,12,14,16,18,20,22,24,26,28,30,-1,-1,-1,-1,-1,-1,-1,-1,-1,-1,-1,-1,-1,-1,-1,-1],"split_conditions":[1.0653526E0,-5.450685E-1,-2.2765486E1,-1.6397785E-1,-3.334422E0,5.1539825E1,1.8763894E-2,-6.2233025E-1,-6.9556016E-1,-2.9912348E1,5.3289285E0,-5.002393E-1,1.9041102E0,-1.2453376E0,7.3370514E1,9.688306E-3,-1.7401496E-2,2.10684E-2,-1.0680008E-2,3.6306025E-3,2.807701E-2,1.6435891E-2,-3.1339087E-2,9.434029E-3,-1.1384211E-2,2.4162274E-2,-5.3074756E-3,-1.1957347E-2,9.398423E-3,-1.0068744E-2,-3.7819296E-2],"split_indices":[7,11,20,18,20,2,8,17,13,4,14,6,7,6,0,0,0,0,0,0,0,0,0,0,0,0,0,0,0,0,0],"split_type":[0,0,0,0,0,0,0,0,0,0,0,0,0,0,0,0,0,0,0,0,0,0,0,0,0,0,0,0,0,0,0],"sum_hessian":[5.92271E2,1.383546E2,4.539164E2,3.696379E1,1.0139081E2,9.28897E1,3.6102673E2,2.692556E1,1.003823E1,8.491139E1,1.6479418E1,6.5971794E1,2.6917906E1,4.496399E1,3.1606274E2,1.2480146E1,1.4445414E1,8.2446575E0,1.7935724E0,1.096698E0,8.381469E1,1.4337475E1,2.141943E0,4.0347538E1,2.5624252E1,2.2039507E1,4.8783994E0,8.643836E0,3.6320152E1,3.091602E2,6.9025493E0],"tree_param":{"num_deleted":"0","num_feature":"22","num_nodes":"31","size_leaf_vector":"1"}},{"base_weights":[1.60379E-2,7.291424E-1,-2.0621276E-1,9.9115884E-1,9.348211E-2,2.4600273E-1,-3.2889354E-1,-3.0860508E-2,1.0752369E0,4.7783944E-1,-3.7552282E-1,3.3729422E-1,-6.461394E-1,-4.453109E-1,-6.8910006E-3,1.3517819E-2,-1.2158151E-2,2.3936352E-3,2.7720733E-2,-1.21848555E-2,1.6080769E-2,-2.0305935E-2,1.6225843E-2,1.7697787E-2,4.841627E-3,-2.321104E-2,1.4318654E-2,2.1411623E-4,-1.3113745E-2,-1.1430864E-2,3.2448024E-3],"categories":[],"categories_nodes":[],"categories_segments":[],"categories_sizes":[],"default_left":[0,0,0,0,0,0,0,0,0,0,0,0,0,0,0,0,0,0,0,0,0,0,0,0,0,0,0,0,0,0,0],"id":41,"left_children":[1,3,5,7,9,11,13,15,17,19,21,23,25,27,29,-1,-1,-1,-1,-1,-1,-1,-1,-1,-1,-1,-1,-1,-1,-1,-1],"loss_changes":[9.384237E1,2.3207489E1,2.5141504E1,8.688538E0,7.926198E0,8.139561E0,1.3280796E1,2.6087658E0,2.7675476E0,4.272472E0,9.563789E0,4.4588966E0,3.9385545E0,9.44136E0,6.0173993E0,0E0,0E0,0E0,0E0,0E0,0E0,0E0,0E0,0E0,0E0,0E0,0E0,0E0,0E0,0E0,0E0],"parents":[2147483647,0,0,1,1,2,2,3,3,4,4,5,5,6,6,7,7,8,8,9,9,10,10,11,11,12,12,13,13,14,14],"right_children":[2,4,6,8,10,12,14,16,18,20,22,24,26,28,30,-1,-1,-1,-1,-1,-1,-1,-1,-1,-1,-1,-1,-1,-1,-1,-1],"split_conditions":[1.0712874E0,-3.334422E0,-2.1859838E1,-2.2784128E1,-3.9653928E0,2.001388E2,0E0,-6.900208E-1,3.9428894E1,3.5736652E1,3.4840032E-1,7.6300575E1,6.1669735E1,1.2097161E0,-1.2487001E0,1.3517819E-2,-1.2158151E-2,2.3936352E-3,2.7720733E-2,-1.21848555E-2,1.6080769E-2,-2.0305935E-2,1.6225843E-2,1.7697787E-2,4.841627E-3,-2.321104E-2,1.4318654E-2,2.1411623E-4,-1.3113745E-2,-1.1430864E-2,3.2448024E-3],"split_indices":[7,20,20,4,15,15,9,6,1,2,18,15,1,19,5,0,0,0,0,0,0,0,0,0,0,0,0,0,0,0,0],"split_type":[0,0,0,0,0,0,0,0,0,0,0,0,0,0,0,0,0,0,0,0,0,0,0,0,0,0,0,0,0,0,0],"sum_hessian":[5.8924713E2,1.3941399E2,4.4983313E2,9.8095215E1,4.1318775E1,9.553995E1,3.5429318E2,7.428675E0,9.066654E1,2.281238E1,1.8506395E1,8.750618E1,8.033771E0,2.5962097E2,9.467219E1,3.0891569E0,4.339518E0,3.2710428E0,8.73955E1,2.8783772E0,1.9934002E1,1.3232905E1,5.27349E0,2.2819548E1,6.468663E1,6.8411326E0,1.1926382E0,3.857325E1,2.2104773E2,2.1503914E1,7.3168274E1],"tree_param":{"num_deleted":"0","num_feature":"22","num_nodes":"31","size_leaf_vector":"1"}},{"base_weights":[2.9800808E-2,-1.8477339E-1,6.325628E-1,9.4844526E-1,-2.0922466E-1,1.3284765E-1,9.1171587E-1,-8.0071186E-4,1.1029481E0,1.872565E-1,-2.794271E-1,8.255357E-1,-5.309861E-2,1.0704784E0,5.6006527E-1,2.9507285E-2,5.947007E-3,1.1642906E-2,-7.977839E-3,-1.6496656E-2,-4.5172633E-3,-1.3668983E-2,2.5749478E-2,1.2423617E-3,-3.2851167E-2,2.8825637E-3,2.7087895E-2,-2.6234908E-2,1.6990414E-2],"categories":[],"categories_nodes":[],"categories_segments":[],"categories_sizes":[],"default_left":[0,0,0,0,0,0,0,0,0,0,0,0,0,0,0,0,0,0,0,0,0,0,0,0,0,0,0,0,0],"id":42,"left_children":[1,3,5,7,9,11,13,-1,15,17,19,21,23,25,27,-1,-1,-1,-1,-1,-1,-1,-1,-1,-1,-1,-1,-1,-1],"loss_changes":[7.65001E1,1.2263909E1,2.1401539E1,1.5703974E0,1.1987484E1,7.515896E0,4.6006393E0,0E0,4.233551E-2,9.363642E0,1.3444138E1,4.237132E0,6.2111464E0,5.4933167E-1,7.3947525E0,0E0,0E0,0E0,0E0,0E0,0E0,0E0,0E0,0E0,0E0,0E0,0E0,0E0,0E0],"parents":[2147483647,0,0,1,1,2,2,3,3,4,4,5,5,6,6,8,8,9,9,10,10,11,11,12,12,13,13,14,14],"right_children":[2,4,6,8,10,12,14,-1,16,18,20,22,24,26,28,-1,-1,-1,-1,-1,-1,-1,-1,-1,-1,-1,-1,-1,-1],"split_conditions":[3.0769114E1,2.6199804E-4,-3.681936E-1,2.7078836E0,9.1427135E-1,9.1084465E1,3.26379E-1,-8.0071186E-4,3.8172042E0,4.759532E-1,-2.671853E0,-2.4320135E0,-3.3507115E-1,1.625785E0,1.2793684E-1,2.9507285E-2,5.947007E-3,1.1642906E-2,-7.977839E-3,-1.6496656E-2,-4.5172633E-3,-1.3668983E-2,2.5749478E-2,1.2423617E-3,-3.2851167E-2,2.8825637E-3,2.7087895E-2,-2.6234908E-2,1.6990414E-2],"split_indices":[19,8,11,21,19,14,10,0,20,8,16,11,16,21,16,0,0,0,0,0,0,0,0,0,0,0,0,0,0],"split_type":[0,0,0,0,0,0,0,0,0,0,0,0,0,0,0,0,0,0,0,0,0,0,0,0,0,0,0,0,0],"sum_hessian":[5.88657E2,4.3466013E2,1.5399686E2,8.056529E0,4.2660358E2,5.600985E1,9.798701E1,1.1488986E0,6.907631E0,6.3632927E1,3.6297067E2,1.1020917E1,4.4988934E1,6.548168E1,3.2505325E1,5.799781E0,1.1078498E0,4.1250546E1,2.238238E1,7.30609E1,2.8990976E2,1.0833393E0,9.937577E0,4.267917E1,2.3097649E0,1.1573306E0,6.4324356E1,1.4905924E0,3.1014732E1],"tree_param":{"num_deleted":"0","num_feature":"22","num_nodes":"29","size_leaf_vector":"1"}},{"base_weights":[1.0924742E-2,7.781711E-1,-2.1373133E-1,1.0167545E0,1.7928927E-1,2.2478782E-1,-3.355829E-1,1.7995311E-2,1.0880033E0,-2.1896198E-1,8.4103495E-1,8.1925675E-2,7.817774E-1,-6.8400696E-2,-4.078145E-1,-1.2322593E-2,1.398913E-2,-3.463411E-3,2.766933E-2,2.8052097E-2,-1.200107E-2,-4.284936E-4,2.509571E-2,1.2947171E-2,-4.1298573E-3,2.237315E-2,-1.332667E-2,-1.7224154E-2,2.124547E-3,-8.5320985E-3,-2.5897492E-2],"categories":[],"categories_nodes":[],"categories_segments":[],"categories_sizes":[],"default_left":[0,0,0,0,0,0,0,0,0,0,0,0,0,0,0,0,0,0,0,0,0,0,0,0,0,0,0,0,0,0,0],"id":43,"left_children":[1,3,5,7,9,11,13,15,17,19,21,23,25,27,29,-1,-1,-1,-1,-1,-1,-1,-1,-1,-1,-1,-1,-1,-1,-1,-1],"loss_changes":[1.0239948E2,1.8872047E1,2.4647335E1,6.683899E0,1.0852923E1,7.8240104E0,6.8650093E0,2.5225453E0,2.352974E0,9.7152605E0,2.2732038E0,8.931781E0,3.663268E0,7.606837E0,1.1223427E1,0E0,0E0,0E0,0E0,0E0,0E0,0E0,0E0,0E0,0E0,0E0,0E0,0E0,0E0,0E0,0E0],"parents":[2147483647,0,0,1,1,2,2,3,3,4,4,5,5,6,6,7,7,8,8,9,9,10,10,11,11,12,12,13,13,14,14],"right_children":[2,4,6,8,10,12,14,16,18,20,22,24,26,28,30,-1,-1,-1,-1,-1,-1,-1,-1,-1,-1,-1,-1,-1,-1,-1,-1],"split_conditions":[1.0712874E0,-3.334422E0,-2.1859838E1,3.4553608E1,7.2609544E0,4.163239E-1,2.7777777E0,-5.7967842E1,-1.3440697E0,-1.1487195E0,-3.9821404E1,1.0658174E2,2.3442647E0,2.7078836E0,4.4795036E0,-1.2322593E-2,1.398913E-2,-3.463411E-3,2.766933E-2,2.8052097E-2,-1.200107E-2,-4.284936E-4,2.509571E-2,1.2947171E-2,-4.1298573E-3,2.237315E-2,-1.332667E-2,-1.7224154E-2,2.124547E-3,-8.5320985E-3,-2.5897492E-2],"split_indices":[7,20,20,0,20,6,14,20,18,12,4,14,18,21,20,0,0,0,0,0,0,0,0,0,0,0,0,0,0,0,0],"split_type":[0,0,0,0,0,0,0,0,0,0,0,0,0,0,0,0,0,0,0,0,0,0,0,0,0,0,0,0,0,0,0],"sum_hessian":[5.9119794E2,1.3327585E2,4.579221E2,9.453914E1,3.8736706E1,9.915707E1,3.58765E2,6.4969687E0,8.804217E1,2.4631643E1,1.4105062E1,8.024563E1,1.8911436E1,7.718303E1,2.81582E2,3.3082485E0,3.1887205E0,1.12168E0,8.6920494E1,3.2528923E0,2.137875E1,2.3365684E0,1.1768493E1,2.866175E1,5.1583878E1,1.7865276E1,1.0461591E0,1.4525877E1,6.2657158E1,2.5657013E2,2.5011852E1],"tree_param":{"num_deleted":"0","num_feature":"22","num_nodes":"31","size_leaf_vector":"1"}},{"base_weights":[1.7836273E-2,7.3766917E-1,-1.937953E-1,1.563785E-1,9.79048E-1,-3.0134875E-1,1.7214282E-1,4.9173272E-1,-2.4949758E-1,-4.5671588E-1,1.054528E0,2.1965978E-1,-3.8203415E-1,3.7851357E-1,-2.9699624E-1,-2.0719899E-2,1.6757732E-2,-1.848031E-2,1.7356696E-2,-2.6218781E-2,6.8713794E-3,9.110077E-3,2.7130177E-2,1.4705132E-2,-2.7067512E-3,-9.960309E-4,-1.1521625E-2,4.8577166E-3,2.3221187E-2,-2.7154947E-2,-1.7636408E-3],"categories":[],"categories_nodes":[],"categories_segments":[],"categories_sizes":[],"default_left":[0,0,0,0,0,0,0,0,0,0,0,0,0,0,0,0,0,0,0,0,0,0,0,0,0,0,0,0,0,0,0],"id":44,"left_children":[1,3,5,7,9,11,13,15,17,19,21,23,25,27,29,-1,-1,-1,-1,-1,-1,-1,-1,-1,-1,-1,-1,-1,-1,-1,-1],"loss_changes":[8.8354095E1,1.817949E1,1.7709227E1,5.674214E0,1.07379E1,1.4706247E1,1.0064361E1,6.0500407E0,9.44266E0,2.822853E0,1.2164383E0,5.83175E0,8.045147E0,6.9325027E0,5.4770613E0,0E0,0E0,0E0,0E0,0E0,0E0,0E0,0E0,0E0,0E0,0E0,0E0,0E0,0E0,0E0,0E0],"parents":[2147483647,0,0,1,1,2,2,3,3,4,4,5,5,6,6,7,7,8,8,9,9,10,10,11,11,12,12,13,13,14,14],"right_children":[2,4,6,8,10,12,14,16,18,20,22,24,26,28,30,-1,-1,-1,-1,-1,-1,-1,-1,-1,-1,-1,-1,-1,-1,-1,-1],"split_conditions":[1.0712874E0,3.5872295E0,2.3365618E1,-3.9653928E0,3.552729E1,2.7075335E-2,1.6432749E0,2.790379E1,3.599288E-1,-1.1398447E0,-2.2784128E1,-8.1778824E-1,1.3148667E0,2.4077633E-1,1.7149597E0,-2.0719899E-2,1.6757732E-2,-1.848031E-2,1.7356696E-2,-2.6218781E-2,6.8713794E-3,9.110077E-3,2.7130177E-2,1.4705132E-2,-2.7067512E-3,-9.960309E-4,-1.1521625E-2,4.8577166E-3,2.3221187E-2,-2.7154947E-2,-1.7636408E-3],"split_indices":[7,15,19,15,1,8,7,1,18,13,4,18,19,6,7,0,0,0,0,0,0,0,0,0,0,0,0,0,0,0,0],"split_type":[0,0,0,0,0,0,0,0,0,0,0,0,0,0,0,0,0,0,0,0,0,0,0,0,0,0,0,0,0,0,0],"sum_hessian":[5.7710504E2,1.3049323E2,4.4661182E2,3.903802E1,9.14552E1,3.4555264E2,1.0105918E2,2.136041E1,1.7677608E1,4.173667E0,8.728153E1,4.5871147E1,2.996815E2,7.050767E1,3.0551514E1,1.9139302E0,1.9446482E1,1.1893735E1,5.7838726E0,2.070857E0,2.10281E0,4.566185E0,8.271535E1,2.1255827E1,2.4615318E1,5.6715145E1,2.4296634E2,5.428004E1,1.622763E1,5.612883E0,2.4938631E1],"tree_param":{"num_deleted":"0","num_feature":"22","num_nodes":"31","size_leaf_vector":"1"}},{"base_weights":[-1.9428005E-2,6.718501E-1,-2.2219904E-1,-6.2090665E-2,9.165557E-1,1.6503777E-1,-3.2134202E-1,7.0426154E-1,-2.5144252E-1,1.0748106E0,2.1973604E-1,3.18315E-1,-6.5654135E-1,3.1293787E-2,-4.2721376E-1,-1.9598207E-2,2.9961541E-2,4.6779085E-3,-1.654153E-2,2.5794103E-3,2.7121557E-2,-6.321753E-3,2.424184E-2,2.8631259E-3,2.3356823E-2,2.3105403E-3,-3.4054346E-2,-2.4474014E-2,3.0475173E-3,-1.7301682E-2,-7.534049E-3],"categories":[],"categories_nodes":[],"categories_segments":[],"categories_sizes":[],"default_left":[0,0,0,0,0,0,0,0,0,0,0,0,0,0,0,0,0,0,0,0,0,0,0,0,0,0,0,0,0,0,0],"id":45,"left_children":[1,3,5,7,9,11,13,15,17,19,21,23,25,27,29,-1,-1,-1,-1,-1,-1,-1,-1,-1,-1,-1,-1,-1,-1,-1,-1],"loss_changes":[8.169682E1,2.3894882E1,1.7396008E1,5.1419916E0,1.0513504E1,1.1894781E1,1.3484116E1,6.415168E0,5.327623E0,5.215759E-1,7.524537E0,9.671432E0,8.152645E0,7.7619E0,8.85957E0,0E0,0E0,0E0,0E0,0E0,0E0,0E0,0E0,0E0,0E0,0E0,0E0,0E0,0E0,0E0,0E0],"parents":[2147483647,0,0,1,1,2,2,3,3,4,4,5,5,6,6,7,7,8,8,9,9,10,10,11,11,12,12,13,13,14,14],"right_children":[2,4,6,8,10,12,14,16,18,20,22,24,26,28,30,-1,-1,-1,-1,-1,-1,-1,-1,-1,-1,-1,-1,-1,-1,-1,-1],"split_conditions":[1.0712874E0,